tree
version=v4
num_class=1
num_tree_per_iteration=1
label_index=0
max_feature_idx=303
objective=binary sigmoid:1
feature_names=TransactionAmt ProductCD card1 card2 card3 card4 card5 card6 addr1 addr2 dist1 C1 C2 C3 C4 C5 C6 C7 C8 C9 C10 C11 C12 C13 C14 D1 D2 D3 D4 D5 D10 D11 D15 M1 M2 M3 M4 M5 M6 M7 M8 M9 V1 V2 V3 V4 V5 V6 V7 V8 V9 V10 V11 V12 V13 V14 V15 V16 V17 V18 V19 V20 V21 V22 V23 V24 V25 V26 V27 V28 V29 V30 V31 V32 V33 V34 V35 V36 V37 V38 V39 V40 V41 V42 V43 V44 V45 V46 V47 V48 V49 V50 V51 V52 V53 V54 V55 V56 V57 V58 V59 V60 V61 V62 V63 V64 V65 V66 V67 V68 V69 V70 V71 V72 V73 V74 V75 V76 V77 V78 V79 V80 V81 V82 V83 V84 V85 V86 V87 V88 V89 V90 V91 V92 V93 V94 V95 V96 V97 V98 V99 V100 V101 V102 V103 V104 V105 V106 V107 V108 V109 V110 V111 V112 V113 V114 V115 V116 V117 V118 V119 V120 V121 V122 V123 V124 V125 V126 V127 V128 V129 V130 V131 V132 V133 V134 V135 V136 V137 V279 V280 V281 V282 V283 V284 V285 V286 V287 V288 V289 V290 V291 V292 V293 V294 V295 V296 V297 V298 V299 V300 V301 V302 V303 V304 V305 V306 V307 V308 V309 V310 V311 V312 V313 V314 V315 V316 V317 V318 V319 V320 V321 log_amount amount_sqrt amount_decimal is_round_amount hour_of_day is_night day_of_week is_weekend month_approx avg_amt std_amt user_txn_count user_merchant_diversity amount_zscore amount_to_mean_ratio devices_per_card is_unusual_device monthly_avg_amt amt_vs_seasonal product_fraud_rate region_fraud_rate cards_per_device emails_per_device is_shared_device is_low_activity_user dormant_high_value is_suspicious_round is_low_diversity_user category_mismatch_risk is_first_txn first_txn_high_value time_since_last_txn time_since_last_txn_hrs is_rapid_fire txn_count_30min amt_cumsum_last3 prev_amount amount_acceleration is_free_email is_corporate_email email_fraud_rate cards_per_email_domain users_per_address users_same_card_type has_fraud_neighbor txns_same_addr_hour graph_degree_centrality graph_pagerank graph_clustering graph_community_id graph_community_size graph_community_fraud_rate graph_fraud_neighbor_count graph_fraud_neighbor_ratio graph_betweenness graph_is_bridge card1_target_enc card2_target_enc addr1_target_enc addr2_target_enc P_emaildomain_target_enc amount_x_night amount_x_weekend round_x_night round_x_new_device night_x_unusual_device dormant_x_night new_acct_x_round rapid_fire_x_night rapid_fire_x_high_amt velocity_x_new_device free_email_x_high_amt fraud_neighbor_x_night shared_device_x_network graph_fraud_comm_x_night graph_fraud_comm_x_high_amt graph_bridge_x_unusual_device graph_fraud_neighbor_x_round is_missing_card2 is_missing_addr1 is_missing_dist1 is_missing_P_emaildomain
feature_infos=[0.29199999999999998:31937.391] [0:4] [1004:18395] [100:600] [100:231] [0:4] [100:237] [0:4] [100:540] [10.196801787885285:102] [0:10286] [0:4670] [0:5624] [0:26] [0:2242] [0:349] [0:2242] [0:2244] [0:3319] [0:210] [0:3246] [0:3172] [0:3172] [0:2905] [0:1419] [0:640] [0:640] [0:691] [-53:869] [0:760] [0:876] [-33:668] [-53:878] [0:2] [0:2] [0:2] [0:3] [0:2] [0:2] [0:2] [0:2] [0:2] none [0:6] [0:9] [0:6] [0:6] [0:8] [0:8] [0:6] [0:7] [0:4] [0:4] [0:3] [0:5] [0:1] [0:7] [0:15] [0:14] [0:14] [0:7] [0:15] [0:3.3386515266950103] [0:7] [0:12] [0:12] [0:4.1182020355933471] [0:13] [0:4] [0:4] [0:5] [0:9] [0:7] [0:15] [0:4.1182020355933471] [0:13] [0:3] [0:4] [0:54] [0:54] [0:14] [0:21.766829736659638] [0:1] [0:7] [0:7] [0:48] [0:48] [0:5] [0:12] [0:5] [0:5] [0:5] [0:5] [0:12] [0:5] [0:6] [0:14] [0:51] [0:6] [0:10] [0:12] [0:12] [0:6] [0:10] [0:6] [0:7] [0:1] [0:6] [0:8] [0:2] [0:5] [0:5] [0:6] [0:10] [0:6] [0:8] [0:4] [0:6] [0:30] [0:30.737198144367106] [0:7] [0:15.457554776065612] [0:15.457554776065612] [0:7] [0:7] [0:6] [0:7] [0:30] [0:30] [0:1] [0:2] [0:5] [0:5] [0:7] [0:7] [0:2] [0:877] [0:1410] [0:975] [0:9] [0:88] [0:27] [0:866] [0:1285] [0:927] [0:15] [0:99] [0:55] [0:1] [0:7] [0:7] [0:7] [0:9] [0:9] [0:9] [0:6] [0:6] [0:6] [0:3] [0:3] [0:3] [0:3] [0:3] [0:3] [0:11] [0:11] [0:11] [0:108800] [0:146211] [0:108800] [0:55125] [0:55125] [0:55125] [0:93418] [0:133915] [0:98420] [0:90750] [0:90750] [0:90750] [0:877] [0:974] [0:15] [0:31] [0:68] [0:9] [0:95] [0:7] [0:31] [0:7] [0:9] [1:67] [1:1048] [1:323] [0:866] [0:1286] [0:927] [0:93] [0:11.508919478628409] [0:93] [0:49] [0:11] [0:12] [0:15] [0:20] [0:15] none [0:94583] [0:145724] [0:103384] [0:55125] [0:55125] [0:55125] [0:55125] [0:4817.47021484375] [0:7519.8701171875] [0:4817.47021484375] [0:93418] [0:134021] [0:98420] [0:90750] [0:90750] [0:90750] [0.25619140536041007:10.37156404479566] [0.54037024344425177:178.7103550441328] [0:0.99899999999999878] [0:1] [0:23] [0:1] [0:6] [0:1] [0:6] [3.7480000000000002:3454.9499999999998] [0:2027.621844006339] [1:14932] [1:5] [-4.1258509871291169:36.905840690059648] [0.0027869985162562866:114.12391275404923] [1:618] [0:1] [2.1520000000000001:3507.9499999999994] [0.0023719206681416631:76.795640920666514] [0.020399390451929858:0.11687269224594637] [0:0.66666666666666663] [1:9650] [0:58] [0:1] [0:1] [0:1] [0:1] [0:1] [0:1] [0:1] [0:1] [0:15546729] [0:4318.5358333333334] [0:1] [1:3] [0.93400000000019889:33510.281000000003] [0:5543.2299999999996] [0.0022471910112359553:100] [0:1] [0:1] [0:0.40789473684210525] [0:8933] [1:2006] [1:3993] [0:1] [1:4371] [0:0.034238488783943324] [6.6301706537469875e-05:0.0034659055176563939] [0:1] [0:11978] [1:524] [0:1] [0:280] [0:1] [0:0.0033719166203105963] [0:1] [0.0012208656365726841:0.49226289131142942] [0.0024440004064076944:0.3372284189108225] [0.0081621701773623954:0.20881765243774891] [0.016661909116272917:0.34658712467582314] [0.0045528147209300185:0.2599166702953068] [0:8.4291703940224796] [0:10.37156404479566] [0:1] [0:1] [0:1] [0:1] [0:1] [0:1] [0:1] [0:1] [0:1] [0:1] [0:1] [0:1] [0:1] [0:1] [0:1] [0:1] [0:1] [0:1] [0:1]
tree_sizes=5386 5509 5514 5511 5526 5527 5516 5514 5526 5529 5546 5529 5542 5547 5534 5548 5560 5556 5529 5556 5531 5538 5545 5553 5542 5545 5543 5510 5551 5544 5577 5573 5558 5558 5580 5573 5574 5555 5556 5534 5562 5551 5571 5575 5568 5576 5545 5554 5571 5574 5575 5564 5562 5573 5584 5569 5570 5568 5560 5583 5593 5587 5600 5553 5548 5577 5573 5536 5580 5600 5570 5554 5585 5572 5589 5587 5589 5587 5572 5592 5594 5600 5586 5585 5599 5551 5547 5586 5591 5586 5575 5571 5610 5592 5602 5585 5609 5581 5579 5602 5579 5580 5604 5557 5580 5588 5573 5577 5631 5588 5589 5585 5610 5613 5558 5588 5595 5523 5588 5594 5579 5597 5588 5574 5607 5560 5573 5588 5609 5612 5598 5596 5617 5584 5598 5561 5613 5569 5599 5590 5594 5558 5624 5591 5604 5620 5566 5590 5565 5606 5625 5564 5555 5569 5555 5574 5599 5543 5614 5592 5569 5596 5622 5527 5586 5566 5558 5548 5597 5548 5604 5574 5589 5576 5496 5601 5550 5532 5604 5555 5611 5534 5608 5533 5525 5600 5583 5604 5566 5591 5580 5586 5560 5593 5589 5547 5583 5612 5549 5584 5623 5541 5614 5580 5587 5589 5563 5552 5568 5583 5549 5586 5596 5593 5613 5562 5600 5609 5558 5577 5527 5568 5601 5615 5565 5567 5555 5556 5592 5525 5609 5555 5588 5595 5580 5608 5595 5627 5590 5577 5555 5498 5527 5552 5574 5534 5591 5580 5528 5550 5597 5580 5536 5568 5545 5592 5528 5553 5558 5562 5571 5577 5568 5565 5593 5595 5595 5526 5552 5596 5487 5563 5532 5557 5504 5626 5572 5580 5564 5546 5596 5581 5563 5566 5533 5558 5549 5556 5566 5529 5567 5583 5588 5596 5607 5535 5525 5565 5579 5533 5582 5531 5532 5493 5517 5512 5587 5593 5554 5560 5567 5507 5567 5573 5589 5522 5594 5524 5560 5564 5563 5549 5518 5566 5507 5566 5521 5547 5522 5534 5514 5620 5572

Tree=0
num_leaves=49
num_cat=0
split_feature=14 194 12 24 273 36 110 273 14 110 182 279 188 180 180 24 24 194 36 24 95 273 16 138 273 279 86 194 194 180 180 273 261 36 233 236 244 108 230 108 181 276 189 181 35 21 190 24
split_gain=340845 194356 157046 63630.6 34362.2 34070.8 30426.6 29773.4 26063.5 22579.2 21247.4 20706.8 18163.4 17925.3 29978.5 9596.52 9561.69 9361.02 8927.51 8513.61 8158.4 7141.39 6626.77 6579.01 5967.95 5595.03 5273.28 4363.72 9145.35 4272.73 5776 3728.8 3456.64 3405.58 3397.44 3000.09 4207.75 2949.83 2918.13 2878.93 2573.51 2430.99 2353.9 2347.24 2220.68 2104.47 4211.85 2566.45
threshold=1.0000000180025095e-35 1.0000000180025095e-35 1.0000875746433027 0.99995847648517089 0.18043893601768388 2.5000000000000004 1.0000000180025095e-35 0.18043893601768388 0.99866990044087267 0.99907514986939161 1.0000000180025095e-35 0.019998290457363562 0.99983021798982608 1.0000000180025095e-35 0.99566746221301605 1.0000000180025095e-35 0.99995847648517089 0.9963477861188984 2.5000000000000004 1.0000000180025095e-35 1.0000000180025095e-35 0.27262269950636342 3.0860876188016753 0.027305670370055882 0.16112322791712105 0.021656969119495318 1.008222022276096 0.9963477861188984 1.0002722127413044 1.0006175926063283 1.9999124253566978 0.68182126956185318 1.0000000180025095e-35 2.5000000000000004 49.500000000000007 0.10638913172516754 23.500000000000004 1.0003448443240721 1.0000000180025095e-35 1.039327409185661 1.0000000180025095e-35 7.3081238454777725e-07 0.0066507716875267584 0.019511560403725318 1.5000000000000002 1.0001655480097753 1.998945781558235 0.99995847648517089
decision_type=2 2 2 2 2 2 2 2 2 2 2 2 2 2 2 2 2 2 2 2 2 2 2 2 2 2 2 2 2 2 2 2 2 2 2 2 2 2 2 2 2 2 2 2 2 2 2 2
left_child=1 5 3 15 -3 6 13 -4 -5 -8 22 17 32 16 -15 24 19 -6 27 -1 26 -16 23 -9 -2 -23 39 -13 -29 43 -31 41 45 -26 -33 36 -10 -19 -35 -14 44 -18 -37 -27 -30 46 47 -12
right_child=2 4 7 8 11 -7 9 10 35 -11 12 18 20 14 21 -17 31 37 -20 -21 -22 25 -24 -25 33 29 -28 28 40 30 -32 34 -34 38 -36 42 -38 -39 -40 -41 -42 -43 -44 -45 -46 -47 -48 -49
leaf_value=-1.706885673603926 -1.7635387074883657 -1.7618975383740914 -1.7470269388016801 -1.5696372431173136 -1.5700207578295071 -1.7521140148080001 -1.5692310994840093 -1.7259835206773479 -1.5912038210102648 -1.7376777009435682 -1.5720667101919721 -1.5691574613336947 -1.723507121495329 -1.5693229707219367 -1.7629392135042274 -1.5692091643326531 -1.756535980333862 -1.7172919790311079 -1.689762190209215 -1.5700309266162669 -1.5871360253730533 -1.7277106525173851 -1.5993255353046389 -1.6231006365234004 -1.608164725408767 -1.7173996369404263 -1.60668733997707 -1.6613380631411732 -1.5982557518395351 -1.5698965452657618 -1.6749192509156996 -1.6446542978492815 -1.632891497374124 -1.7221479730382361 -1.7240953357150168 -1.7465774811987347 -1.7505054532399107 -1.6372582654007428 -1.6400613834973303 -1.6403899424049546 -1.5796896345303071 -1.7349094485576326 -1.6834117465631966 -1.6526115016288654 -1.6361225798872718 -1.5741783784026504 -1.6679426023824009 -1.6162321992357571
leaf_weight=1158.2932534515858 233.32439571619034 1124.5471276342869 747.31830236315727 589.56065368652344 372.08791255950928 21555.353968143463 1535.3142023086548 1044.6480453908443 192.95013895630836 721.56348931789398 2801.6879493892193 2162.4448976516724 976.86071828007698 1127.1012496948242 1177.7994683384895 1680.5368633270264 5293.4895226657391 1811.0494102835655 751.22911262512207 368.47540855407715 998.75076973438263 2185.983337700367 756.28790894150734 604.35005420446396 1560.8555752635002 1548.4423552453518 496.18770071864128 1679.5564210116863 3445.0094112455845 422.66296863555908 1374.3637627661228 424.65986487269402 713.14993008971214 367.41183972358704 1501.5222442746162 7613.7727744281292 214.11449891328812 335.19744157791138 986.637266933918 347.18241855502129 3144.0678536593914 8138.3933905363083 380.11959809064865 442.55229181051254 1370.6247772276402 26156.481426209211 425.59467539191246 1195.1427584290504
leaf_count=6896 1830 8750 5446 816 515 160690 2125 6882 398 5034 4152 2993 6355 1560 9205 2326 40239 11409 4044 510 1972 14527 1797 1912 4178 9760 1297 7461 8101 585 6724 1646 2490 2373 9798 55362 1586 1215 3683 1295 5456 56028 1964 1833 4940 40700 1980 3517
internal_value=-1.66641 -1.70407 -1.61836 -1.6899 -1.62947 -1.72874 -1.71037 -1.59183 -1.72898 -1.62303 -1.58865 -1.61959 -1.58362 -1.71822 -1.68828 -1.61718 -1.7329 -1.68466 -1.60654 -1.67365 -1.64415 -1.70707 -1.66013 -1.68817 -1.64289 -1.69605 -1.67558 -1.60125 -1.60849 -1.67779 -1.65003 -1.7388 -1.57817 -1.63322 -1.70649 -1.7402 -1.67461 -1.7047 -1.66227 -1.70158 -1.59737 -1.74343 -1.74356 -1.70292 -1.60898 -1.57691 -1.59312 -1.5852
internal_weight=116255 65171.8 51082.9 13819.3 16195.8 48976 27420.6 37263.6 8990.52 2256.88 36516.3 15071.3 34111 25163.7 8278.91 4828.77 16884.8 2518.33 12552.9 1526.77 2818.98 7151.8 2405.29 1649 3148.23 5974 1820.23 11801.7 9639.26 3788.02 1797.03 15358.1 31292.1 2914.9 1926.18 8400.96 407.065 2146.25 1354.05 1324.04 7959.7 13431.9 7993.89 1990.99 4815.63 30578.9 4422.43 3996.83
internal_count=536355 382044 154311 74516 54884 327160 166470 79795 60126 7159 74349 46134 63758 159311 44194 14390 115117 13139 32995 7406 10919 42634 10591 8794 12064 33429 8947 28951 25958 18902 7309 107711 52839 10234 11444 59310 1984 12624 6056 7650 18497 96267 57326 11593 13041 50349 9649 7669
is_linear=0
shrinkage=1


Tree=1
num_leaves=49
num_cat=0
split_feature=278 12 136 70 136 24 24 189 183 24 276 194 136 276 131 131 21 21 187 11 21 97 21 36 231 136 24 131 18 203 278 278 278 98 12 24 187 180 180 11 70 194 189 194 208 32 136 187
split_gain=438153 90583.7 45738.9 42093.2 40095.2 33390.2 32643.8 40495.7 20154 15554.5 14319.3 10453.2 10156.6 10033.5 10751.9 25059.5 11026 9235.22 6815.9 6551.85 6389.07 7203.42 6314.34 5910.17 6322.67 5634.92 5443.01 4453.48 4415.26 4397.38 4369.74 3671.65 3531.43 3261.51 3141.86 4639.44 3836.43 2674.37 5240.27 2613.88 2418.7 2290.74 3201.37 2245.26 2177.82 2168.82 1789.46 1774.44
threshold=0.034537354982942282 1.0000875746433027 1.0000000180025095e-35 0.99574699591493365 0.99774161197731182 0.99995847648517089 0.99995847648517089 1.0000000180025095e-35 1.0000000180025095e-35 1.0000000180025095e-35 2.1735263162134275e-07 1.0000000180025095e-35 1.0001421072277175 1.0000000180025095e-35 0.99907514986939161 1.0000000180025095e-35 1.0001655480097753 1.9999209027092721 1.0000000180025095e-35 1.0001151092571003 1.0001655480097753 1.9997559067153625 2.000190347036908 2.5000000000000004 125.51819996093168 1.9914592881817115 1.0000000180025095e-35 0.99907514986939161 1.0000000180025095e-35 1.0000000180025095e-35 0.049175143667193374 0.021655996834226209 0.093638316025151311 0.99842410946955418 1.9918876279450533 0.99995847648517089 1.0000000180025095e-35 1.0000000180025095e-35 0.99566746221301605 7.4944111346742597 1.0000000180025095e-35 1.0000000180025095e-35 0.99945448164913953 0.0082596635634907285 60.002250671386726 1.0000000180025095e-35 2.0000577192157922 0.99991242535669767
decision_type=2 2 2 2 2 2 2 2 2 2 2 2 2 2 2 2 2 2 2 2 2 2 2 2 2 2 2 2 2 2 2 2 2 2 2 2 2 2 2 2 2 2 2 2 2 2 2 2
left_child=2 6 5 8 -4 9 26 23 11 19 -6 32 -12 -7 15 16 37 -18 -5 -1 21 34 -19 24 -8 -14 30 41 43 -24 -2 -27 40 -34 -10 -36 -37 -15 -39 -35 -3 42 -9 -26 -44 -23 -33 -20
right_child=1 3 4 18 10 13 7 27 20 -11 12 -13 25 14 -16 -17 17 22 47 -21 -22 45 29 -25 28 31 -28 -29 -30 -31 -32 46 33 39 35 36 -38 38 -40 -41 -42 -43 44 -45 -46 -47 -48 -49
leaf_value=0.0094620864546588138 0.047039851421006321 0.019887446407636084 0.14725280334915167 0.00066569615427425398 -0.011221726945937193 -0.02291839811669899 0.0062256348653266886 0.1471306178090491 0.14643992806382999 0.14455185303402432 0.020504965470981615 0.12022321073591136 0.1482266017904858 -0.013803281742562927 -0.020313843974564205 0.1458641154318483 0.14917415676967979 -0.0058580120360715192 0.15713253300268826 0.10876283219713524 0.13807495068826781 0.018223321065191762 0.03216280431570339 -0.012787255832733279 0.032200659164155217 0.028931437440581419 0.14435882899170652 0.013286448993154726 0.13245010211272362 0.11104805994282389 0.11096560957479805 0.045879142659551717 0.12675883817693026 -0.0025566868014229478 0.13844457970147669 0.051116118837435109 0.12181697503336709 0.14336463374696537 0.0055560114527902138 0.12550249896879165 0.1431786236030646 0.13060728914968861 0.016612734086827358 0.10968093217182674 0.093504402357160205 0.084056224371867813 0.11797690485561459 0.06716834016043001
leaf_weight=1677.9042920619249 956.69954173266888 1661.6255618333817 2321.0578514933586 1867.6246376186609 3151.9558158516884 16265.804433047771 3639.8237344920635 410.83491849899292 2381.6886464357376 1207.123489677906 2567.5334202498198 2292.9919548332691 735.68978428840637 7754.8789785802364 8179.3542164564133 850.90195548534393 436.17668759822845 1738.1965700089931 170.79226887226105 540.66030670702457 34569.042958751321 486.46924014389515 1269.9422002583742 3790.213147804141 1701.311633720994 859.01793274283409 1971.3908624649048 290.89394471049309 408.5326863527298 664.43823610246181 2164.9044218212366 298.9916504919529 542.81361052393913 320.82404121756554 1787.1468480378389 1071.0370436906815 856.00338959693909 184.03842306137085 1976.7184332609177 139.47251692414284 102.14644372463226 2155.5782499164343 369.67144893109798 265.64683200418949 593.30629962682724 851.46586905419827 770.91983965039253 664.95115898549557
leaf_count=10726 4767 10008 2923 12911 22697 125105 24249 519 2986 1499 15321 5212 933 56965 62405 1065 557 12041 229 1412 52085 2928 7110 27931 9701 4817 2444 1885 755 1635 5739 1482 1210 2189 2655 5077 1858 229 12814 273 128 3983 2279 685 2036 3086 1812 2999
internal_value=0.0633142 0.104919 0.0100058 0.122443 0.0559236 -0.00149611 0.0583191 0.0382493 0.127919 0.0728673 0.0306057 0.0810096 0.0557972 -0.00797881 0.0025628 0.0151431 0.0071886 0.0413974 0.0270815 0.0337515 0.133565 0.112555 0.0285096 0.0115066 0.0268132 0.0897551 0.111972 0.10684 0.0583206 0.0593614 0.0914243 0.0673003 0.0484374 0.0856108 0.124019 0.109558 0.0826326 -0.00699296 0.0174372 0.0366867 0.0272095 0.114537 0.0891399 0.0427837 0.0641001 0.0601941 0.0979744 0.0859442
internal_weight=121936 68484.9 53451.3 49766.1 10705.2 42746.1 18718.8 13625.8 47062.7 3425.69 8384.11 5059.87 5232.15 39320.5 23054.6 14875.3 14024.4 4108.75 2703.37 2218.56 42002.9 7433.81 3672.58 9805.53 6015.31 2664.62 5092.99 3820.28 2375.49 1934.38 3121.6 1928.93 2766.88 1003.11 6095.88 3714.19 1927.04 9915.64 2160.76 460.297 1763.77 3529.39 1373.81 1966.96 962.978 1337.94 1069.91 835.743
internal_count=536355 192807 343548 105834 49985 293563 86973 74023 89695 13637 47062 19020 24365 279926 154821 92416 91351 21343 16139 12138 70675 18590 20786 63321 35390 9044 12950 10702 11141 8745 10506 8111 13808 3672 12576 9590 6935 70008 13043 2462 10136 8817 4834 10386 4315 6014 3294 3228
is_linear=0
shrinkage=0.0248441


Tree=2
num_leaves=49
num_cat=0
split_feature=278 12 167 70 24 24 188 233 182 27 23 233 131 131 21 194 21 278 212 204 188 36 231 94 11 164 184 24 131 18 278 11 11 137 208 38 278 50 27 235 21 202 278 137 194 23 231 11
split_gain=370140 71462.3 41609.6 33422.5 30425.8 27026.5 34625.6 19852.9 15478.8 13389.6 12581.5 9424.67 11387.8 20541.8 9622.1 8419.69 7679.28 7408.69 5991.48 5906.87 5753.48 5611.09 5635.26 5587.96 5583.48 5146.99 4242.97 4153.28 3619 3579.29 3515.08 3162.3 3120.15 3042.45 2798.48 2673.39 2387.8 2218.69 2130.68 2023.39 1966.48 1940.91 1825.24 1797.12 1747.43 2820.71 1745.93 1665.26
threshold=0.034537354982942282 1.0000875746433027 1.0000000180025095e-35 0.99574699591493365 0.99995847648517089 0.99995847648517089 1.0000000180025095e-35 276.50000000000006 1.0000000180025095e-35 1.0000000180025095e-35 1.0000000180025095e-35 386.50000000000006 0.99907514986939161 1.0000000180025095e-35 1.0001655480097753 1.0000000180025095e-35 1.9999209027092721 0.018612475104768298 1.0000000180025095e-35 1.0000000180025095e-35 0.99983021798982608 2.5000000000000004 125.51819996093168 1.0000000180025095e-35 1.0001151092571003 1.9998061899778581 0.99928935698595767 1.0000000180025095e-35 0.99907514986939161 1.0000000180025095e-35 0.049175143667193374 2.0001874214082025 2.0001874214082025 0.99980618997785797 1.0000000180025095e-35 1.5000000000000002 0.070799434292887417 1.0001045798331427 0.95691559645476654 0.065922872369266722 2.000190347036908 0.99991242535669767 0.026921924488032985 1.0000000180025095e-35 1.0000000180025095e-35 1.9997361207396762 40.559047943020225 1.0297624789480568
decision_type=2 2 2 2 2 2 2 2 2 2 2 2 2 2 2 2 2 2 2 2 2 2 2 2 2 2 2 2 2 2 2 2 2 2 2 2 2 2 2 2 2 2 2 2 2 2 2 2
left_child=2 5 4 8 10 27 21 33 15 17 24 -6 13 14 34 32 -16 -9 -5 37 -10 22 -7 31 -1 26 41 30 44 39 -2 46 43 -4 -13 -19 -34 -18 -28 -24 -21 -11 -36 -3 45 -8 -22 -43
right_child=1 3 7 18 11 6 28 9 20 25 -12 12 -14 -15 16 -17 19 35 -20 40 23 -23 29 -25 -26 -27 38 -29 -30 -31 -32 -33 36 -35 42 -37 -38 -39 -40 -41 -42 47 -44 -45 -46 -47 -48 -49
leaf_value=0.0091360360284707554 0.044420401050220784 -0.0055447039838034604 0.12610126445610176 0.00064887383627975639 -0.022707239873365825 0.0063497786787964482 0.11563907364240725 0.0022449467925961986 0.12294470958236489 0.12612017981769671 0.12830090272079742 -0.012924360651489991 -0.02065840077945395 0.12992636329220217 0.13334141522643272 0.10804555006857218 0.0037297305778604246 0.086314719926473243 0.079025856815180623 0.014661644498103353 0.0016100031587375407 -0.012600031965281842 0.023797251896260585 0.11419519198873937 0.098554175510092198 0.026534305291818869 0.13594925804420019 0.12830412515834932 0.013074527340930193 0.1184497273237668 0.10051072103265962 0.10193033603228965 0.037007679051597395 -0.019091698320126423 0.0059991165132404663 0.018104830424266728 0.098713081942390007 0.076229045199497386 0.029552942046227045 0.076908642983806091 0.10806777399033862 0.035431733236522878 0.058500934726974478 0.053780569835456073 0.11747534961780472 0.046092770491827209 0.061673813699374441 0.11480342930030232
leaf_weight=1686.6116140037775 987.67808295786381 803.81584616005421 90.54747599363327 1868.4982981830835 15723.132568314672 3675.1287907212973 752.62127578258514 2030.4126713871956 39610.008142381907 2911.7989936769009 1329.0423576980829 7512.6551905795932 8550.4436622336507 904.27409535646439 473.14777195453644 2528.1713439524174 2637.1794472336769 1484.2704817652702 885.84546402096748 180.40491568297148 475.14909029006958 3759.7801648229361 1392.3147803544998 3974.3438103944063 576.90171700716019 568.04719972610474 143.70262777805328 2160.6258519887924 291.96089090406895 445.24165013432503 2328.7208045274019 821.91165614128113 738.07830390334129 2172.4154402986169 1665.9619143977761 467.73608373105526 822.08228398859501 286.78550297021866 578.71881751716137 649.31466856598854 617.96358527243137 305.29133959114552 539.51737017184496 515.66678720712662 2314.0196981579065 697.82333090901375 802.72182185947895 355.62789586186409
leaf_count=10714 4767 5529 103 12911 122501 24320 1492 13333 55257 4053 1515 55593 66361 1034 553 5331 17403 4734 3228 1072 2952 27958 7972 7148 1408 3173 172 2444 1872 755 5739 1932 3842 16373 10664 2712 2198 1102 3131 2470 1256 1562 2387 2315 3888 3296 3191 639
internal_value=0.0591641 0.0954834 0.00967088 0.110229 -0.00147689 0.0546634 0.0363234 0.0524968 0.114774 0.069292 0.06769 -0.00783712 0.00216934 0.015343 0.00787518 0.0749676 0.039308 0.0354833 0.0259025 0.0272784 0.119482 0.0113134 0.0259036 0.0968588 0.0320051 0.0969469 0.106239 0.101434 0.0974541 0.054767 0.0838497 0.0639539 0.0458622 -0.0131568 -0.00570107 0.0700122 0.0696218 0.0108964 0.051091 0.0407581 0.087067 0.117349 0.0188914 0.0176944 0.103986 0.082309 0.0393848 0.078397
internal_weight=127094 73301.5 53792.6 53846.3 42684 19455.2 13978.2 11108.6 51091.9 8845.61 3592.56 39091.5 23368.3 14817.9 13913.6 5407.81 4195.48 3982.42 2754.34 3722.33 45684.1 9921.78 6162 6074.13 2263.51 4863.19 4295.14 5477.02 4056.43 2486.87 3316.4 2099.78 2879.64 2262.96 9718.13 1952.01 1560.16 2923.96 722.421 2041.63 798.369 3572.72 2205.48 1319.48 3764.46 1450.44 1277.87 660.919
internal_count=536355 192807 343548 105834 293563 86973 74023 49985 89695 33509 13637 279926 157425 91064 90030 19215 21386 20779 16139 20833 70480 63475 35517 15223 12122 12730 9557 12950 10548 11197 10506 8075 13884 16476 68644 7446 6040 18505 3303 10442 2328 6254 13051 7844 8676 4788 6143 2201
is_linear=0
shrinkage=0.0248441


Tree=3
num_leaves=49
num_cat=0
split_feature=278 12 136 136 24 70 138 24 183 276 24 276 131 131 16 136 16 194 187 36 11 204 188 138 231 136 144 138 18 278 24 136 11 214 278 16 183 183 278 16 136 278 137 11 11 210 24 190
split_gain=317582 57976.7 38041.4 27990.5 27890 27297.7 22824.4 25689.8 12187.6 11850.3 10412.6 9492.59 9794.01 18656.6 8383.74 7889.48 7606.79 6948.15 5308.28 4999 4902.43 4656.71 4468.77 4722.07 4444.6 3710.67 3476.45 5228.58 3114.63 2966.09 2764.99 2757.61 2740.22 2295.74 1976.27 1937.58 1933.83 3209.2 1930.94 1840.53 1782.75 1710.87 1592.26 1541.09 5718.05 2523.1 4174.17 1597.15
threshold=0.034537354982942282 1.0000875746433027 1.0000000180025095e-35 0.99774161197731182 0.99995847648517089 0.99574699591493365 1.0000000180025095e-35 0.99995847648517089 1.0000000180025095e-35 3.6693298461703999e-07 1.0000000180025095e-35 1.0000000180025095e-35 0.99907514986939161 1.0000000180025095e-35 1.0001227697828348 1.0001421072277175 1.9999209027092721 1.0000000180025095e-35 1.0000000180025095e-35 2.5000000000000004 1.0001151092571003 1.0000000180025095e-35 0.99983021798982608 1.0000000180025095e-35 125.51819996093168 1.9914592881817115 1.0000000180025095e-35 0.99575806318261506 1.0000000180025095e-35 0.016546592040300307 1.0000000180025095e-35 2.0000577192157922 2.0001874214082025 60.002500534057624 0.070799434292887417 1.0001227697828348 1.010409555858123 1.9942357269199864 0.049175143667193374 2.0006175926063285 2.9990795429335377 0.021655996834226209 1.0000000180025095e-35 2.0001874214082025 1.9999209027092721 1.0000000180025095e-35 0.99995847648517089 1.998945781558235
decision_type=2 2 2 2 2 2 2 2 2 2 2 2 2 2 2 2 2 2 2 2 2 2 2 2 2 2 2 2 2 2 2 2 2 2 2 2 2 2 2 2 2 2 2 2 2 2 2 2
left_child=2 6 4 -4 10 8 7 30 17 -5 20 -6 13 14 36 -11 -16 32 -7 24 -1 29 43 35 -9 -17 27 -8 -26 -18 38 -27 42 -29 -34 -24 -13 -38 -2 -23 -33 -42 -3 44 47 46 -46 -10
right_child=1 5 3 9 11 18 26 19 22 15 -12 12 -14 -15 16 25 21 -19 -20 -21 -22 39 23 -25 28 31 -28 33 -30 -31 -32 40 34 -35 -36 -37 37 -39 -40 -41 41 -43 -44 -45 45 -47 -48 -49
leaf_value=0.0088781085151130694 0.035643075379118455 -0.0054984131927859302 0.11878825633318922 -0.010230797923341712 -0.022545710202840987 0.00063248151021584695 0.12040475726069204 0.0075611868999272934 0.11677284652173686 0.018527019134153274 0.11599258353191665 -0.011040751325021058 -0.019877070433584491 0.11752774430983118 0.13172217529949881 0.1216918806764329 -0.013892154129793478 0.098710069850218504 0.073126750513756361 -0.012387445200552688 0.090536091987590883 0.0072625373222643501 0.038659744965657314 0.10517608978977504 0.036711127672418228 0.021091302664666252 0.10302264226310406 0.023580695819849302 0.10757374887432049 0.032141059616536724 0.11556401985044686 0.12848892205751747 0.035112093427322959 0.076768634592037907 0.090289066025541251 0.083647762083165877 0.12596705799841074 0.0068577532442488792 0.085607148497594876 0.10111554349888434 0.019725170144158078 0.088375684645623037 0.050051439430947108 0.11393746309966984 0.10170925604035702 0.11444963051098625 0.025376970231950412 0.080248994537167745
leaf_weight=1699.7397022545338 679.43275284767151 797.24274697899818 2737.5834357738495 3206.3530193343759 15780.437208391726 1869.349937543273 812.80445623397827 3620.141743466258 7189.1698059141636 2625.2158167809248 1427.9511213302612 8197.2349746525288 7943.9013274684548 1004.1874970793724 442.71756684780121 847.87764596939087 1552.3924606218934 2651.2822028100491 933.08077621459961 3592.5201400220394 617.03437446057796 166.52751237899065 1200.6361355185509 4070.6989283561707 1822.3921062201262 734.02634942531586 4027.4872585386038 1195.3694507852197 484.15424035489559 1942.8364493846893 1388.7888393998146 358.71506875753403 749.0536278039217 863.82711704820395 871.14074440300465 1175.9178830385208 157.82377421855927 1090.4872759878635 1644.8942377269268 575.58208826184273 354.43665461242199 614.76507942378521 527.53909538686275 32229.444289654493 723.482461810112 584.14570683240891 1137.2539015710354 849.45053741335869
leaf_count=10726 3354 5508 2923 23150 125105 12911 878 23566 7949 15042 1499 59942 62405 1065 513 923 11225 5212 3228 26860 1412 1008 5432 6748 9164 4041 7466 6565 762 10495 1454 408 3810 2745 2191 3043 178 6899 4159 1091 1989 1509 2299 38405 1164 713 5036 2185
internal_value=0.0555917 0.0877698 0.00936134 0.0494975 -0.00145614 0.100463 0.0514709 0.0323596 0.104334 0.0277711 0.0632745 -0.00769829 0.00245733 0.0141853 0.00682029 0.04978 0.0340026 0.0695383 0.0248111 0.0107318 0.0306965 0.0237251 0.108291 0.0889134 0.0247453 0.0779382 0.0881003 0.0671069 0.0516803 0.0116999 0.087764 0.059828 0.0432177 0.0459554 0.0648678 0.0609808 -0.00665298 0.0221261 0.0710531 0.0801455 0.0811646 0.0633795 0.0166712 0.111211 0.102805 0.0694131 0.0551475 0.112938
internal_weight=131769 77690.7 54077.8 11479 42598.9 57558.9 20131.8 13232.3 54756.5 8741.39 3744.73 38854.1 23073.7 15129.8 14125.6 5535.04 4680.06 5596.26 2802.43 9519.21 2316.77 4237.34 49160.2 6447.25 5926.69 2909.82 6899.49 2872 2306.55 3495.23 3713.12 2061.94 2944.98 2059.2 1620.19 2376.55 9445.55 1248.31 2324.33 742.11 1327.92 969.202 1324.78 42712.9 10483.5 2444.88 1860.74 8038.62
internal_count=536355 192807 343548 49985 293563 105834 86973 69319 89695 47062 13637 279926 154821 92416 91351 23912 24332 19020 16139 60352 12138 23819 70675 15223 33492 8870 17654 10188 9926 21720 8967 7947 13808 9310 6001 8475 67019 7077 7513 2099 3906 3498 7807 55452 17047 6913 6200 10134
is_linear=0
shrinkage=0.0248441


Tree=4
num_leaves=49
num_cat=0
split_feature=278 12 136 24 136 131 24 214 268 182 273 131 131 24 16 16 136 204 217 187 11 26 278 136 278 131 24 279 136 278 19 19 16 168 278 11 95 12 278 217 183 183 16 136 278 273 278 187
split_gain=275998 48158.9 34935.4 25692.4 23797.1 22849.7 19700.7 27725.7 10631.2 9996.95 9017.28 10756 19241.8 8810.67 7889.83 8368.16 7310.23 5871.29 5786.49 4738.91 4312.04 3990.13 3474.57 3238.2 3003.58 2908.12 2772.92 2743.65 2563.41 2529.9 2441.14 5412.77 2357.21 2463.45 2216.67 2148.35 4535.06 4075.81 3208.49 1858.81 1831.66 3244.57 1693.95 1497.19 1537.04 1423.34 1401.33 1327.97
threshold=0.034537354982942282 1.0000875746433027 1.0000000180025095e-35 0.99995847648517089 0.99774161197731182 0.99907514986939161 0.99995847648517089 1.0000000180025095e-35 0.00044285273295023797 1.0000000180025095e-35 0.18043893601768388 0.99907514986939161 1.0000000180025095e-35 1.0000000180025095e-35 1.0001227697828348 1.9999209027092721 1.0001421072277175 1.0000000180025095e-35 1.0000000180025095e-35 1.0000000180025095e-35 1.0001151092571003 1.0000000180025095e-35 0.11861947266537654 1.9914592881817115 0.017087610902778796 0.99907514986939161 1.0000000180025095e-35 0.041222557373789 2.0000577192157922 0.049175143667193374 1.0000000180025095e-35 0.99414594269798884 3.0000654706510832 1.0000000180025095e-35 0.097900660705755052 2.0001874214082025 1.0000000180025095e-35 1.9918876279450533 0.083111202520973634 0.87740388580711948 1.010409555858123 1.9942357269199864 2.0006175926063285 2.9990795429335377 0.021655996834226209 0.53584279101899479 0.016523728520190781 0.99991242535669767
decision_type=2 2 2 2 2 2 2 2 2 2 2 2 2 2 2 2 2 2 2 2 2 2 2 2 2 2 2 2 2 2 2 2 2 2 2 2 2 2 2 2 2 2 2 2 2 2 2 2
left_child=2 6 3 13 -4 9 26 22 45 18 -5 12 14 20 40 -16 46 24 32 -7 -1 -11 30 -18 -17 -9 29 -24 -25 -2 -8 -32 33 -3 -35 36 37 -23 -39 -33 -12 -42 -19 -30 -45 -6 -10 -21
right_child=1 5 4 10 8 19 7 25 16 21 11 -13 -14 -15 15 17 23 42 -20 47 -22 35 27 28 -26 -27 -28 -29 43 -31 31 39 -34 34 -36 -37 -38 38 -40 -41 41 -43 -44 44 -46 -47 -48 -49
leaf_value=0.008604706187891914 0.039470919089730702 0.001869401024260273 0.10828091130615274 -0.028100207455956316 -0.022697417325140152 0.0019108252855458577 -0.011312245318493053 0.087656423804015518 -0.0041123529887738914 0.049253253909844107 -0.011269613677532949 -0.020960979000612254 0.10962475050306851 0.10601779569202695 0.12183984949639631 -0.01467844633228717 0.11115392205574877 0.01028282502981105 0.090649659953873599 0.12090453346572322 0.083654955771489015 0.10736579231044759 0.093734893572958639 0.019076743339888031 0.026353269979296021 0.012239889315868266 0.10634082776001096 0.022896675280129796 0.1167699655770815 0.085256932714357872 0.12565273398745372 0.0029915878177354449 0.076411467030476465 0.028044474952868048 0.10269366056458368 0.10356028940821947 0.10118921635783214 0.017704555340505412 0.072512752006826456 0.067597005939885491 0.11620710077884527 0.004453544133612368 0.097510716155182725 0.019486707140926825 0.082076591532423374 0.015514398374474448 0.031499180875213445 0.052648191004449542
leaf_weight=1710.1181833893061 1050.974496498704 1119.9792510867119 2926.2748702764511 9832.2903126999736 2118.9579291120172 1922.2095521092415 4099.8569050580263 4408.6366819441319 1172.8228199854493 969.21479307115078 10155.577329143882 10250.845085047185 1137.8102694749832 1522.4232355952263 530.22094666957855 2075.4641566798091 915.5925281047821 174.748674698174 2845.5951765775681 227.61320048570633 650.93700329959393 1309.4921196103096 440.14186216890812 777.53417835384607 2340.5784297510982 340.82366980612278 2477.9492908120155 1432.8115712404251 389.15983575582504 2611.2185820192099 257.66701012849808 3339.9699438661337 850.41155336797237 697.80409970879555 378.7648209631443 36535.073974326253 10268.281743690372 976.61672602593899 2038.7074643820524 297.20455680787563 180.98581433296204 1280.7053314000368 651.54099130630493 381.43379311263561 669.87022259831429 837.96382581442595 1625.7881850153208 791.02870586514473
leaf_count=10726 4767 7247 2923 81563 16572 13024 29958 9300 7775 3633 75448 82223 1148 1499 579 15375 933 1035 5295 248 1412 1301 969 4278 12987 2142 2444 8611 412 5739 289 21825 2486 3483 650 42172 13489 4552 5174 929 192 8248 1128 2123 1573 5127 8269 3080
internal_value=0.0524796 0.0813372 0.00907281 -0.00143487 0.0468566 0.0924718 0.0486459 0.0329498 0.0266125 0.095898 -0.00756269 -0.000544218 0.010753 0.0594573 0.00426988 0.0280036 0.0457888 0.0184622 0.0651751 0.0248889 0.0293589 0.0993698 0.0092052 0.0718391 0.00707142 0.0822534 0.0859846 0.0396407 0.0555089 0.0721513 0.0020653 0.0161454 0.0413323 0.0276835 0.0544754 0.100318 0.0921837 0.0707585 0.0547891 0.00831118 -0.0075265 0.0184559 0.0791455 0.0751107 0.0594626 -0.0118647 0.0165843 0.0681443
internal_weight=135998 81688 54309.6 42494.2 11815.4 60930.8 20757.3 14617.1 8889.12 57989.9 38610.8 28778.5 18527.6 3883.48 17389.8 5772.55 5932.2 5242.33 5892.55 2940.85 2361.06 52097.4 9867.65 3133.59 4416.04 4749.46 6140.14 1872.95 2218 3662.19 7994.7 3894.84 3046.96 2196.55 1076.57 51128.2 14593.1 4324.82 3015.32 3637.17 11617.3 1461.69 826.29 1440.46 1051.3 2956.92 2798.61 1018.64
internal_count=536355 192807 343548 293563 49985 105834 86973 74023 47062 89482 279926 198363 116140 13637 114992 31104 25363 30525 19161 16352 12138 70321 62581 9319 28362 11442 12950 9580 8386 10506 53001 23043 13866 11380 4133 66688 24516 11027 9726 22754 83888 8440 2163 4108 3696 21699 16044 3328
is_linear=0
shrinkage=0.0248441


Tree=5
num_leaves=49
num_cat=0
split_feature=278 12 276 180 70 24 169 24 180 180 182 180 180 18 273 18 194 36 212 278 231 26 180 23 24 36 12 36 110 110 38 18 278 21 12 12 71 202 203 264 114 70 181 21 278 182 111 111
split_gain=242417 40775.6 32658.5 29432 19502.6 18031.1 17361.4 20021.2 15499.6 14532.9 8414.28 7414.15 6510.82 5729.2 5608.56 5034.73 4987.1 4479.12 4273.33 4082.78 3749.52 3333.54 3081.01 2979.41 2846.23 2840.95 2715.78 2585.14 5564.55 3359.77 2419.2 2346.12 2226.75 2201.09 2624.66 3203.88 2059.96 2051.01 1988.22 4149.93 1906.76 1835.45 1701.88 1701.33 1535.65 1496.02 1492.23 1683.15
threshold=0.034537354982942282 1.0000875746433027 1.0000000180025095e-35 1.0000000180025095e-35 0.99574699591493365 0.99995847648517089 1.0000000180025095e-35 0.99995847648517089 0.99566746221301605 1.0006175926063283 1.0000000180025095e-35 1.9999124253566978 2.0001300313059565 1.000211515113606 0.5421400359285905 1.0000000180025095e-35 1.0000000180025095e-35 2.5000000000000004 1.0000000180025095e-35 0.018923500752431387 125.51819996093168 1.0000000180025095e-35 2.9800492040267348 1.0000000180025095e-35 1.9956179204165869 2.5000000000000004 1.0000875746433027 2.5000000000000004 1.0000000180025095e-35 0.99907514986939161 1.0000000180025095e-35 1.0000000180025095e-35 0.093638316025151311 1.0001655480097753 1.9918876279450533 2.0005505129488594 0.99907514986939161 0.99991242535669767 1.0000000180025095e-35 117.10734391732866 0.99984076735758398 1.0000000180025095e-35 0.0090433669182991578 2.000190347036908 0.049175143667193374 1.0000000180025095e-35 0.99907514986939161 1.0000000180025095e-35
decision_type=2 2 2 2 2 2 2 2 2 2 2 2 2 2 2 2 2 2 2 2 2 2 2 2 2 2 2 2 2 2 2 2 2 2 2 2 2 2 2 2 2 2 2 2 2 2 2 2
left_child=2 6 14 5 10 23 7 36 -5 45 16 -11 -13 27 -1 46 32 20 -6 22 -9 -12 -14 26 25 -8 -4 28 38 -30 -21 -22 41 34 -23 -36 -2 -17 -7 -40 -34 -3 -24 -15 -27 -10 47 -16
right_child=1 4 3 8 18 13 24 17 9 11 21 12 19 43 15 37 -18 -19 -20 30 31 33 42 -25 -26 44 -28 -29 29 -31 -32 -33 40 -35 35 -37 -38 -39 39 -41 -42 -43 -44 -45 -46 -47 -48 -49
leaf_value=-0.025159592737039639 0.078711037573263948 0.0160922841256999 0.020161529855319271 0.10289093041218486 0.00050342857182596222 -0.0085136456471732475 0.088326692976223767 0.0069978799897598108 -0.015585968127538321 0.10720682651540864 0.046692610157687116 0.0036471001360074613 0.11209320771626786 0.011617508111083402 0.0024243522616543937 0.11271819146362655 0.083967446696567374 -0.012179986617524908 0.063671033876374392 0.091340635397253345 0.033705286420274434 0.099817164320526439 -0.00712661163218285 0.097779091111658764 0.026447855071510259 0.0163425346904277 0.094226690980870775 -0.01816999970100253 0.099680667182807062 -0.024681804336968517 0.043555939638304599 0.092491846333046523 0.092997989094082897 0.094968691915742365 0.046986338797225483 0.0852493909290922 -0.021294133436981017 0.03221942234052854 -0.021767383025753272 0.12052518034327049 0.029643926038605758 0.1142172692257783 0.055704965940286448 0.082318868797098224 0.072352041563116226 0.013607108709980392 -0.024219426229090915 0.12303187249295616
leaf_weight=14216.715295739472 3963.113112077117 1802.5154918134212 1009.093518845737 2729.2553639411926 1875.9938072115183 6863.0926717594266 5713.3122813850641 3666.1420744359493 1793.7541419267654 1520.6526771783829 997.31657460331917 1648.5755248218775 220.84539264440536 337.95278696715832 2476.267124094069 291.86348605155945 3010.3319402784109 3558.8874182626605 1018.3774462938309 2209.4892529994249 1898.0590752512217 3153.9934037923813 877.76194320619106 1047.7893430888653 649.00270187109709 566.1874787285924 437.1159442961216 8648.1711667627096 523.89393526315689 178.83232092857361 938.57173184305429 537.67017352581024 679.92134064435959 44894.390836805105 2110.1970676332712 3807.6873574107885 130.41381898522377 590.4948568418622 279.7538440823555 227.6862735003233 519.72236946225166 123.65318775177002 379.19956960529089 556.74993328750134 649.92357611656189 2728.5415148362517 1683.8918020129204 71.188533782958984
leaf_count=117261 8117 10073 5727 2634 12911 49964 9821 23566 13129 1511 3627 10233 228 2008 16784 319 5331 26860 3228 4105 9164 2979 5790 984 2985 3037 667 68503 496 1449 3644 762 1210 50622 6879 6373 850 3175 2220 249 2471 130 1505 1100 1811 15944 13839 80
internal_value=0.0497417 0.0758828 0.00880321 0.023065 0.0857994 0.00340109 0.0461287 0.0294838 0.0493415 0.0374587 0.0887846 0.0580082 0.0460488 -0.00545341 -0.0171347 0.0051766 0.0611442 0.00996557 0.0227627 0.0611503 0.0228817 0.0918676 0.0270253 0.0658904 0.0763193 0.0809795 0.0426649 -0.00873369 0.00137689 0.0680551 0.0771374 0.0467591 0.0391173 0.0927003 0.081453 0.0716298 0.0755145 0.0590764 -0.00500005 0.0423398 0.0656634 0.0225237 0.0118968 0.0557143 0.046358 0.00202558 -0.00608959 0.00590552
internal_weight=139814 85326.8 54487.2 35156.8 63994.1 20110.1 21332.7 13754.3 15046.6 12317.4 61099.7 7795.1 6274.44 17616.1 19330.4 5113.71 6136.14 9660.76 2894.37 4625.87 6101.87 54963.6 1477.81 2494 7578.43 6929.42 1446.21 16721.4 8073.26 702.726 3148.06 2435.73 3125.81 53966.3 9071.88 5917.88 4093.53 882.358 7370.53 507.44 1199.64 1926.17 1256.96 894.703 1216.11 4522.3 4231.35 2547.46
internal_count=536355 192807 343548 192090 105834 133367 86973 69319 58723 56089 89695 27016 25505 125989 151458 34197 19215 60352 16139 15272 33492 70480 7523 7378 17654 14669 6394 122881 54378 1945 7749 9926 13884 66853 16231 13252 8967 3494 52433 2469 3681 10203 7295 3108 4848 29073 30703 16864
is_linear=0
shrinkage=0.0248441


Tree=6
num_leaves=49
num_cat=0
split_feature=278 11 276 110 21 70 169 23 182 169 23 182 278 110 214 137 208 94 23 16 278 278 188 94 38 233 38 23 23 208 38 279 233 11 278 8 223 233 278 111 21 184 261 110 21 232 184 256
split_gain=214873 35631.8 30850.6 27275.2 20529.9 19718.7 16017.2 17456.3 10545.8 10489.1 6108.6 5967.85 5169.38 5014.95 4714.68 4575.16 4337.81 3746.04 3363.54 3130.12 3128.7 2803.03 2740.92 2718.03 2564.43 2397.21 2334.93 2244.68 2076.04 1931.38 1889.15 1775.51 1603.2 1588.69 1516.01 1502.98 1494.09 1493.24 3449.47 1808.19 1881.93 1463.12 1455.96 1431.68 1383.52 1361.72 1329.96 1289.41
threshold=0.034537354982942282 1.0001151092571003 1.0000000180025095e-35 0.99907514986939161 1.0001655480097753 0.99574699591493365 1.0000000180025095e-35 0.99995847648517089 1.0000000180025095e-35 1.0000000180025095e-35 0.99995847648517089 1.0000000180025095e-35 0.078438492403689622 0.013609179619957003 1.0000000180025095e-35 0.99980618997785797 57.953337667298264 1.0000875746433027 0.99995847648517089 2.0006175926063285 0.11861947266537654 0.015492338621053885 0.99983021798982608 1.0000000180025095e-35 1.5000000000000002 29.500000000000004 1.0000000180025095e-35 1.0000000180025095e-35 1.0000000180025095e-35 1.0000000180025095e-35 1.5000000000000002 0.041222557373789 2063.0000000000005 1.9999209027092721 0.049175143667193374 325.84216295452455 10.000030115035786 104.50000000000001 0.017673799512457313 0.99907514986939161 1.0001655480097753 0.010855267535357207 1.0000000180025095e-35 0.99907514986939161 3.000168686733073 218.5007886875222 0.99928935698595767 2.9998120872199001
decision_type=2 2 2 2 2 2 2 2 2 2 2 2 2 2 2 2 2 2 2 2 2 2 2 2 2 2 2 2 2 2 2 2 2 2 2 2 2 2 2 2 2 2 2 2 2 2 2 2
left_child=2 6 18 4 9 11 7 27 17 10 28 12 19 -12 20 -11 -7 32 25 33 36 -17 -16 -10 42 -1 -23 34 -4 -26 -25 -22 -6 -3 -2 -34 -9 -20 -39 40 -40 -5 -13 47 -37 -21 -43 -8
right_child=1 5 3 41 8 16 43 14 23 15 13 24 -14 -15 22 21 -18 -19 37 45 31 26 -24 30 29 -27 -28 -29 -30 -31 -32 -33 35 -35 -36 44 -38 38 39 -41 -42 46 -44 -45 -46 -47 -48 -49
leaf_value=-0.029123210550447476 0.028177804766125712 0.10348485335928252 0.028112131815233008 -0.018630894015060365 -0.013879486887638374 0.00051512254298967267 0.082416588532207707 -0.010339390492129171 0.038865341959218966 0.095531355170316981 -0.0097399344332057495 0.088055597818368025 0.082300590098649151 0.09308356566735447 0.086638808008435028 0.0065704623578319056 0.064747782558475048 0.097077917152446194 -0.026521308766804967 0.075932060739775847 0.078340044286307434 0.065095955554103066 0.028536555521722531 0.085863531032636567 0.027793364512651471 0.043122681675954844 0.0237585329072133 0.092512717520495572 0.090477188750145182 0.075868900317683327 0.033371856717557331 0.021637712031461854 0.0095200774878264286 0.001118513474528301 0.068377585406793645 0.013763029039280396 0.013217116779743595 -0.021460260575157326 0.0097026145355726227 -0.02028074998007592 0.068244852712425322 0.10419268247716025 0.059536477360527217 0.017572722740457819 0.097394855483487697 0.01799979564330012 0.0048655086233355535 0.055792254251940808
leaf_weight=405.97174432128668 797.43485231697559 98.581475436687469 1081.8442443460226 8152.2436601892114 1004.0915639400482 2181.175046287477 5861.5716207921505 4329.0518311709166 1032.432615481317 883.98005169630051 8451.0026846453547 52344.057124882936 2963.2703534066677 300.92590403556824 709.59913030266762 1556.9421255066991 921.45942351222038 349.18394505977631 9477.3546048551798 1020.9131472408772 427.3073758482933 1904.9161768779159 1706.8792131096125 6260.8803667798638 743.68700101226568 926.91809437423944 1519.4613062217832 1863.8652145266533 473.72645998001099 1709.9683702141047 458.19597987830639 1666.083743751049 1056.1936085224152 1284.1329825073481 2160.6652236431837 213.80672177672386 2694.1433685868979 6162.4602356627584 973.20806934684515 620.2024610042572 518.49638120085001 99.098203182220459 1149.6070022508502 258.52915331721306 285.09434131532907 333.95728687942028 464.0761199966073 1416.8894222229719
leaf_count=3186 3556 97 5452 65514 6953 14624 9456 30631 4341 813 62414 59315 5312 273 1128 9359 2846 402 80613 2356 850 5423 7432 10314 3113 3973 7473 1676 421 2962 2080 9398 6091 7332 4720 1218 16443 50190 6412 5111 1973 98 2754 1401 523 1494 2928 3911
internal_value=0.0473034 0.0711883 0.00854814 0.0222269 0.0346287 0.0807571 0.04525 0.0314333 0.0613923 0.0169817 0.00188653 0.0838329 0.059565 -0.00618029 0.0148306 0.0434981 0.0196266 0.0210283 -0.0169302 0.0349053 0.00664742 0.0342234 0.0456663 0.0765259 0.086303 0.0211051 0.0467829 0.0711165 0.047213 0.0613384 0.082297 0.0332872 0.0105719 0.00858081 0.0575719 0.026357 -0.00130149 -0.0197886 -0.0120716 0.0153174 0.030127 -0.0159543 0.0874454 0.0752125 0.0617882 0.0617089 0.0227057 0.0772535
internal_weight=143276 88642.8 54632.7 35548.1 26832.7 64750.8 23892 16355 10659.9 16172.8 10307.5 61648.2 5700.86 8751.93 11533.1 5865.3 3102.63 2908.37 19084.6 2737.58 9116.59 4981.32 2416.48 7751.51 55947.3 1332.89 3424.38 4821.97 1555.57 2453.66 6719.08 2093.39 2559.19 1382.71 2958.1 1555.09 7023.2 17751.7 8274.37 2111.91 1491.7 8715.42 53493.7 7536.99 498.901 1354.87 563.174 7278.46
internal_count=536355 192807 343548 192090 123550 102205 90602 75834 31922 91628 68560 84735 16591 62687 65882 23068 17470 15187 151458 11279 57322 22255 8560 16735 68144 7159 12896 9952 5873 6075 12394 10248 14785 7429 8276 7832 47074 144299 63686 13496 8385 68540 62069 14768 1741 3850 3026 13367
is_linear=0
shrinkage=0.0248441


Tree=7
num_leaves=49
num_cat=0
split_feature=278 12 273 131 12 89 182 143 24 183 188 214 182 24 278 131 194 196 183 90 182 185 20 278 188 183 182 23 24 180 94 24 138 12 239 11 278 0 11 70 70 11 276 231 231 25 204 12
split_gain=191976 31097.9 29479.5 31457.2 16648.2 15236 14699.9 13685.2 15734.1 9387.65 8608.02 7332.8 7117.51 6487.31 6211.56 4909.59 4465.62 4102.82 3405.15 3340.33 3058.84 3026.63 4120.34 2980.4 2772.22 3362.8 2626.75 2522.58 2382.04 2324.89 2119.92 2101.78 2093.67 1802.35 1775.65 1721.67 1563.28 1561.48 1428.3 1353.29 1829.67 1328.12 1327.78 1228.1 1176.01 1163.35 2957.23 1224.44
threshold=0.034537354982942282 1.0000875746433027 0.18043893601768388 0.99907514986939161 1.0000875746433027 0.99907514986939161 1.0000000180025095e-35 1.0000000180025095e-35 0.99995847648517089 1.0000575546285504 0.99983021798982608 1.0000000180025095e-35 1.0000000180025095e-35 0.99995847648517089 0.021420818677013415 1.0000000180025095e-35 1.0000000180025095e-35 2.0004204988576428 1.9942357269199864 1.0019004644043883 1.0000575546285504 1.0000000180025095e-35 1.0000000180025095e-35 0.11861947266537654 0.99983021798982608 1.0000575546285504 0.99659978319555409 1.9997361207396762 1.0000000180025095e-35 1.0006175926063283 1.0000000180025095e-35 1.0000000180025095e-35 1.0000000180025095e-35 1.9918876279450533 200.75107943532984 3.0006644173289012 0.049175143667193374 100.00234812978613 2.0001874214082025 0.99574699591493365 0.030501624285655397 7.0005220271024493 2.4693108386625987e-06 187.43222075859487 40.559047943020225 1.0000000180025095e-35 1.0000000180025095e-35 1.9918876279450533
decision_type=2 2 2 2 2 2 2 2 2 2 2 2 2 2 2 2 2 2 2 2 2 2 2 2 2 2 2 2 2 2 2 2 2 2 2 2 2 2 2 2 2 2 2 2 2 2 2 2
left_child=2 7 -1 4 9 12 14 8 31 13 21 23 16 28 -6 -15 32 41 -11 -7 -12 22 26 37 45 -26 -8 -13 -4 -20 38 36 35 -28 -25 -3 -2 -10 44 40 -39 -16 -22 -34 -27 46 47 -14
right_child=1 5 3 -5 6 19 10 -9 11 18 20 27 24 15 17 -17 -18 -19 29 -21 42 -23 -24 34 25 30 33 -29 -30 -31 -32 -33 43 -35 -36 -37 -38 39 -40 -41 -42 -43 -44 -45 -46 -47 -48 -49
leaf_value=-0.027476664890224149 0.026124048703262855 0.003612854260075534 0.024122157961865225 -0.018181865093287237 -0.012844805372732915 -0.0028388754113795062 0.10187711483013143 0.07676179238364314 -0.011243358160607413 0.091394254994477758 -4.5863727215186525e-05 0.081676962459860114 0.089037001865193227 -0.011296362933030085 0.011420505220990371 0.090273565550781462 0.074749536999502431 0.088364675562124489 0.0094365723543309386 0.071693030753124151 0.0084668446972240661 0.092159567894503303 0.079658834256296926 0.018553597549114124 0.012593059729082387 0.00065255100742055182 0.096596715229409214 0.030978427680809852 0.086862073035857398 0.052613772103462922 0.080369694880209314 0.086572173513243381 0.072264903299377889 0.0091879507428805872 0.072461455604514044 0.047397989775215012 0.065301778430407673 0.016545450146032981 0.074395780157224284 -0.014250965975080288 0.1197726588982275 0.065789707428574526 0.063815383204106318 0.016882768553889951 0.050957140805986276 0.086227819517022616 0.080907332171394591 0.037488879534767545
leaf_weight=11281.551790565252 885.332310795784 1426.3209077864885 1166.583036147058 11246.805901020765 2754.7973427772522 1826.6782325655222 277.21655541658401 5245.3533753603697 4370.1810232624412 767.67621463537216 1425.9991776645184 1090.897482842207 355.12041509151459 9343.0077783092856 1615.2132306396961 300.92911064624786 3312.5491948574781 773.82372400164604 1414.0702612549067 463.38082876801491 350.4096197783947 3757.8402827680111 3087.566135764122 1405.6944297477603 658.13566523790359 436.31044627726078 161.33496433496475 1369.4908288866282 549.11187446117401 1690.2307484745979 4946.441710293293 2070.5116590261459 1054.3519515842199 1324.5523533076048 514.42141026258469 904.75083173811436 2205.96633900702 2231.9708831086755 925.47810043394566 906.591866068542 109.01612168550491 332.85144904255867 1139.8186887800694 324.86590637266636 835.40400935709476 25050.650412768126 25299.981869354844 1439.5834837257862
leaf_count=97759 3969 8701 6161 91275 19866 11751 268 8407 31532 687 8991 1744 313 70119 9165 268 5409 1118 8375 1269 2091 4001 5046 8243 2816 2318 151 5745 476 5874 6392 1787 2485 7856 1198 3333 4655 12676 1513 6898 119 948 3053 1549 2516 23056 27965 4448
internal_value=0.04511 0.0670968 0.0083049 0.01759 0.030072 0.0753279 0.0469705 0.0416476 0.0309051 0.0112057 0.0628932 0.0152955 0.0774826 -0.000183893 0.0134511 -0.00810565 0.0537827 0.0400532 0.0446005 0.0123002 0.0259748 0.0753891 0.0623584 0.0054258 0.0802568 0.0663823 0.0319955 0.0535142 0.0442941 0.0329679 0.071332 0.067165 0.0350277 0.0188169 0.0330675 0.0206379 0.0541101 -0.00154952 0.0509214 0.0114938 0.0214684 0.0207787 0.0508351 0.0592714 0.0337317 0.0823296 0.0787182 0.0477924
internal_weight=146427 91665.4 54761.4 43479.8 32233 69260 17001.4 22405.4 17160.1 15231.6 11524.7 11998.3 66969.9 11359.6 5476.69 9643.94 7022.84 2721.89 3871.98 2290.06 2916.23 8608.51 4850.67 9537.88 59947.1 7801.77 1763.1 2460.39 1715.69 3104.3 7143.63 5161.81 3710.29 1485.89 1920.12 2331.07 3091.3 7617.76 2197.19 3247.58 2340.99 1948.06 1490.23 1379.22 1271.71 52145.3 27094.7 1794.7
internal_count=536355 192807 343548 245789 154514 105834 62554 86973 78566 91960 31457 68155 92814 77024 31097 70387 21477 11231 14936 13020 14135 17322 13321 60666 71337 15555 8275 7489 6637 14249 12739 10411 16068 8007 9441 12034 8624 51225 6347 19693 12795 10113 5144 4034 4834 55782 32726 4761
is_linear=0
shrinkage=0.0248441


Tree=8
num_leaves=49
num_cat=0
split_feature=278 131 11 276 89 21 138 24 138 183 131 24 24 35 36 231 138 131 180 138 233 217 94 183 278 233 278 36 24 278 138 38 183 24 138 11 24 16 95 278 262 108 278 278 8 89 138 146
split_gain=172728 28011.9 27663.2 25435.9 15932.5 14714.9 12687.8 16791.2 8553.87 6634.49 6545.84 5956.5 5726.55 5471.52 4345.16 4157.6 4136.18 3371.3 3197.47 3188.29 3013.08 2849.51 2718.64 2425.56 2439.38 2303.93 3698.53 1975.24 1884.88 1844.45 1818.31 1755.63 1718.14 1700.03 1648.61 1590.2 1549.07 1454.8 1439.96 1397.31 1341.03 1308.77 1294.23 1243.23 1172.47 1087.58 1072.87 1027.42
threshold=0.034537354982942282 0.99907514986939161 1.0001151092571003 7.3081238454777725e-07 0.99907514986939161 1.0001655480097753 1.0000000180025095e-35 0.99995847648517089 1.0000000180025095e-35 1.0000000180025095e-35 1.0000000180025095e-35 0.99995847648517089 0.99995847648517089 1.5000000000000002 2.5000000000000004 120.21916158542776 0.99575806318261506 0.014010232414939152 1.0000000180025095e-35 1.0001533529814755 29.500000000000004 0.87740388580711948 1.0000875746433027 1.0000000180025095e-35 0.078438492403689622 104.50000000000001 0.018490422525401645 2.5000000000000004 1.0000000180025095e-35 0.061700893038720964 1.9996467168647174 1.5000000000000002 1.0000575546285504 1.0000000180025095e-35 2.0000577192157922 1.9999209027092721 1.0000000180025095e-35 2.0006175926063285 1.0000000180025095e-35 0.016523728520190781 0.010427873482099717 1.0249579965097622 0.049175143667193374 0.064401702193812499 330.00584489299342 1.0049760501491685 0.99575806318261506 1.0000000180025095e-35
decision_type=2 2 2 2 2 2 2 2 2 2 2 2 2 2 2 2 2 2 2 2 2 2 2 2 2 2 2 2 2 2 2 2 2 2 2 2 2 2 2 2 2 2 2 2 2 2 2 2
left_child=1 3 6 10 13 8 7 28 11 22 12 33 20 23 15 41 -10 -13 35 -18 -1 45 39 24 37 -14 -27 -8 42 -17 -21 38 -28 -5 -32 -15 -22 -4 -11 -7 -25 -9 -2 46 -41 -6 -29 -36
right_child=2 -3 4 5 21 9 27 14 16 31 -12 17 25 18 -16 29 19 -19 -20 30 36 -23 -24 40 -26 26 32 43 -30 -31 34 -33 -34 -35 47 -37 -38 -39 -40 44 -42 -43 -44 -45 -46 -47 -48 -49
leaf_value=-0.028913995942646688 0.025439583651029243 -0.020700735688495283 0.016669487336642169 0.027200203211807376 -0.0083212947383627719 -0.010555302483998177 0.071633463652312407 0.0043724307287912349 0.0856182728240725 0.036925548977802265 0.093177923884229769 -0.0095335892269925379 -0.025693308311686845 0.092422823574393395 -0.011501977600928952 0.026715634747640042 0.0051444461450960398 0.081860692110759303 0.062414296242402995 0.090825179642853263 0.031273041208774506 0.068477590368296218 0.085589428962679001 -0.0010069072559152064 0.073756796403491406 -0.017279919678171104 0.0076175628819916243 0.092117569259501958 0.081824499032773085 0.066910429003877323 0.0051601750315234977 0.0267802764825791 0.055523450656276833 0.080906276078517955 0.031297349500800861 0.011168219560944109 0.087006589435585507 0.059000290630562238 0.076409220606939207 0.014907587150604178 0.077481730032957663 0.050954482008243505 0.061281454847236447 0.065243030653761053 0.064774342479881786 0.059090657046330319 -0.00059994870230239983 0.07220408791878942
leaf_weight=375.8046867698431 837.910116314888 15119.57315967232 1003.8004827946424 984.21771554648876 1865.49723444134 888.24433427304029 6954.5470561236143 4599.4685575962067 1107.516698539257 633.88033390790224 396.10043352842331 6980.8411732167006 6083.6115827187896 163.71688532829285 3503.2726143151522 1490.9146115481853 1690.9140005260706 255.98818755149841 3364.8418058082461 511.00243932008743 908.65218841284513 412.51626460254192 378.03206118941307 134.60552581399679 2832.2078154310584 4726.7967036291957 1615.0292800962925 87.512415885925293 2245.9641466736794 1343.015458509326 639.00937896966934 555.33994891494513 645.49426525831223 578.55453777313232 732.76132854819298 1428.5105228349566 466.95122188329697 1003.5572946444154 6333.392477966845 1029.0215023383498 57048.268951281905 402.78273375332355 2466.0939111113548 497.57950796186924 404.63331549614668 158.05116763710976 538.96857683360577 796.81460369378328
leaf_count=3051 3612 127289 4938 4704 12653 6217 10692 28108 952 2402 360 52200 53107 149 26155 6802 10033 215 6659 456 4244 1035 383 580 4749 37419 10445 80 1876 3221 3657 2519 2318 481 2935 7099 406 2613 9490 5407 61246 1094 4966 1094 1170 484 2902 1688
internal_value=0.0431437 0.0080764 0.0635175 0.0190315 0.0715848 0.0346997 0.0410843 0.028829 0.018403 0.0574514 -0.00619409 0.00322749 -0.00886405 0.0738547 0.0114935 0.0217744 0.0427681 -0.00627504 0.0486934 0.0318691 0.0332934 0.00916379 0.0240149 0.0758638 0.0589003 -0.0145179 -0.00478233 0.0666899 0.064228 0.0458041 0.0487138 0.0694407 0.0213409 0.047175 0.0387027 0.0196476 0.0503087 0.0378769 0.0728308 0.013913 0.0772969 0.00814556 0.0522166 0.0360179 0.0290655 -0.00299316 0.0126476 0.0526859
internal_weight=149222 54838.2 94383.6 39718.6 69415.6 24500.2 24968 16889.4 14277.6 10222.5 15218.4 8799.6 14822.3 66979.5 11339.5 7836.18 5478.02 7236.83 4957.07 4370.5 1751.41 2436.06 2699.93 62022.4 4839.57 13070.9 6987.32 8078.61 5549.97 2833.93 2679.59 7522.61 2260.52 1562.77 2168.59 1592.23 1375.6 2007.36 6967.27 2321.9 57182.9 5002.25 3304 1124.06 1433.65 2023.55 626.481 1529.58
internal_count=536355 343548 192807 216259 102205 104909 90602 75834 77321 27588 111350 57600 110990 88033 65380 39225 19721 52415 13907 18769 7701 14172 13177 74126 12300 103289 50182 14768 10454 10023 8736 14411 12763 5185 8280 7248 4650 7551 11892 12794 61826 29202 8578 4076 6577 13137 2982 4623
is_linear=0
shrinkage=0.0248441


Tree=9
num_leaves=49
num_cat=0
split_feature=278 131 11 276 110 21 180 23 138 131 182 23 23 182 187 278 138 131 36 7 138 112 233 233 278 94 36 123 277 35 183 138 21 21 263 138 110 207 278 180 278 261 23 103 23 278 183 48
split_gain=156291 26634.2 24638.6 23655.4 13943.6 13277.5 11476.7 14314.1 7882.95 6017.44 5933.84 4379.48 4160.29 4128.14 4060.21 3821.91 3705.23 3464.39 3105.76 2984.73 2906.45 2854.98 2554.19 2476.58 3834.79 2440.62 2386.87 2271.87 1816.4 1798.69 1660.01 1610.06 1553.61 3325.44 1524.93 1490.65 1488.52 1483.72 1466.4 1414.77 1349.97 1276.95 1244.04 1225.19 1150.81 1123.47 1113.44 1065.17
threshold=0.034537354982942282 0.99907514986939161 1.0001151092571003 7.3081238454777725e-07 0.99907514986939161 1.0001655480097753 1.0000000180025095e-35 0.99995847648517089 1.0000000180025095e-35 1.0000000180025095e-35 1.0000000180025095e-35 0.99995847648517089 0.99995847648517089 1.0000000180025095e-35 0.018786779937864765 0.078438492403689622 0.99575806318261506 0.014010232414939152 2.5000000000000004 2.5000000000000004 1.0001533529814755 0.99945205739185761 29.500000000000004 104.50000000000001 0.018490422525401645 1.0000875746433027 2.5000000000000004 0.99991242535669767 1.0000000180025095e-35 1.5000000000000002 1.0000575546285504 1.9996467168647174 1.9999209027092721 2.000190347036908 3422.6792888758105 2.0000577192157922 0.99907514986939161 1.0000000180025095e-35 0.064401702193812499 0.99566746221301605 0.016523728520190781 1.0000000180025095e-35 1.0000000180025095e-35 1.0255056993384943 1.0000000180025095e-35 0.093638316025151311 1.0000000180025095e-35 1.0074149164696471
decision_type=2 2 2 2 2 2 2 2 2 2 2 2 2 2 2 2 2 2 2 2 2 2 2 2 2 2 2 2 2 2 2 2 2 2 2 2 2 2 2 2 2 2 2 2 2 2 2 2
left_child=1 3 6 9 13 8 7 36 12 11 25 22 42 15 -6 27 -10 28 19 34 -18 26 -1 -13 -25 40 46 -4 -14 41 -26 -22 -12 43 -9 -33 -2 -31 -28 -23 -7 -15 -5 -34 -24 -41 -8 -42
right_child=2 -3 4 5 14 10 21 18 16 -11 32 23 17 29 -16 -17 20 -19 -20 -21 31 39 44 24 30 -27 38 -29 -30 37 -32 35 33 -35 -36 -37 -38 -39 -40 45 47 -43 -44 -45 -46 -47 -48 -49
leaf_value=-0.028789867808404833 0.063132506908698233 -0.020499765990068374 0.057432142012234871 0.025925027940641162 -0.0030313318507527638 -0.010508834730589419 0.040865690662686173 0.01233339988835328 0.080685119119903628 0.087215339065250114 0.082199545699613824 -0.025348684126270962 0.1194838149663215 0.073703663340637021 0.054577282398131387 0.06923005536689851 0.0049997824330697358 0.077155085470779233 -0.012229687189272542 0.0013102654771816726 0.085163069410993456 0.081597714362753038 0.029911342201295182 -0.016583791096092367 0.0086741521469458748 0.080446786991862793 0.010320223367223614 0.012446446207552942 -0.0092610710545783237 0.022079665038781584 0.05432186823101489 0.0050156720869903963 0.014113068129711071 0.070646993837250635 0.049053684311463661 0.049975159466267509 -0.020988722108730446 0.062877037657892446 0.061390466403409831 -0.0081239975387903049 0.019152188964878941 0.048270650476669279 0.075570373018776268 0.065059349072714365 0.080834399004406129 0.036853263000746483 0.071563426547171627 0.07754551122056437
leaf_weight=367.7578482106328 4437.8314735144377 14891.373458258808 1137.2998856529593 996.38316804170609 2096.2902404367924 888.37599685043097 821.9832593947649 1110.5118072032928 1145.6700943112373 412.60730582475662 2435.393801510334 5979.9551907852292 65.953279137611389 57415.54811963439 1177.7225644960999 3274.197755753994 1696.609554618597 305.30820500850677 3301.3931882157922 3334.9493497610092 531.32268840074539 254.92089515924454 926.29413961619139 4691.2258740589023 1652.3585775867105 392.12144953012466 772.84446321427822 1772.2647580578923 6973.2436914891005 702.93740416318178 698.42125510424376 641.12726856023073 1140.8435770794749 3770.0596686303616 1886.4172169864178 1572.0355797633529 132.68034562468529 2589.0468664169312 629.25361437350512 585.10819075256586 1248.4739066660404 1263.0312495678663 453.95922899246216 389.87500905990601 389.91856151819229 822.82168205082417 7335.2778293788433 226.3750726506114
leaf_count=3048 7805 127289 2751 4693 14227 6266 2527 5982 952 360 2043 53119 73 58381 3228 5299 10033 248 25237 20837 456 214 4244 37438 10469 384 3720 8466 52222 2875 2347 3657 5524 5889 6676 4623 812 4187 1368 3152 6188 2791 364 856 325 2629 9643 438
internal_value=0.0413562 0.00786034 0.0603362 0.0184212 0.067813 0.0333169 0.0393275 0.0244846 0.0178086 -0.00608672 0.0545665 -0.0087181 0.00314596 0.0702188 0.0177158 0.0508199 0.0408799 -0.00445097 0.00730063 0.0174844 0.0305739 0.0581049 0.028957 -0.0135946 -0.00360794 0.0232323 0.0633328 0.030063 -0.00801515 0.0721526 0.0222772 0.0463655 0.0657161 0.0581096 0.0354675 0.0369703 0.0606808 0.0541877 0.0333052 0.0280033 0.013668 0.0731582 0.0415618 0.0271695 0.0451148 0.0181789 0.0684829 0.0282248
internal_weight=151737 54883 96854.3 39991.7 71428.3 24873.1 25426 14203.8 14381.6 15118.5 10491.5 14705.9 8794.85 68154.3 3274.01 6183.76 5586.77 7344.51 9633.27 6331.88 4441.1 11222.2 1683.97 13022 7042.01 2755.35 9559.36 2909.56 7039.2 61970.6 2350.78 2744.49 7736.17 5300.78 2996.93 2213.16 4570.51 3291.98 1402.1 1662.85 2363.22 58678.6 1450.34 1530.72 1316.21 1407.93 8157.26 1474.85
internal_count=536355 343548 192807 216259 102205 104909 90602 67349 77321 111350 27588 110990 57600 84750 17455 16516 19721 52543 58732 33495 18769 23253 7617 103373 50254 13276 17258 11217 52295 68234 12816 8736 14312 12269 12658 8280 8617 7062 5088 5995 12892 61172 5057 6380 4569 5781 12170 6626
is_linear=0
shrinkage=0.0248441


Tree=10
num_leaves=49
num_cat=0
split_feature=278 276 12 110 16 224 24 188 24 110 182 278 188 188 182 24 194 264 278 16 16 23 24 196 279 26 110 188 208 19 19 138 11 184 11 261 24 170 11 184 249 234 103 103 11 191 278 16
split_gain=142153 25224.9 22714.1 20661 12910 10800.2 10198.5 15201.2 8414.91 6447.64 6106.73 4896.77 4806.27 5144.5 4511.66 3514.88 3340.14 2464.12 2460.94 2318.29 4126.63 2192.34 2112.86 2111.02 2088.34 2070.03 1687.46 1602.07 3146.22 1590.46 3654.98 1563.39 1811.95 1432.1 1359.18 1356.28 1287.17 1181.38 1150.53 1132.5 1115.69 2454.13 1299.44 1311.82 1108.9 1076.89 1025.16 1010.1
threshold=0.034537354982942282 1.0000000180025095e-35 1.0000875746433027 0.99907514986939161 1.0001227697828348 0.9499999999998765 0.99995847648517089 1.0000000180025095e-35 0.99995847648517089 1.0000000180025095e-35 1.0000000180025095e-35 0.021420818677013415 1.0000000180025095e-35 0.99983021798982608 1.0000000180025095e-35 0.99995847648517089 1.0000000180025095e-35 676.06712990422227 0.077689662404495471 1.9999209027092721 2.0006175926063285 1.0000000180025095e-35 1.0000000180025095e-35 2.0004204988576428 0.038378358786156926 1.0000000180025095e-35 0.99907514986939161 0.99983021798982608 60.002250671386726 1.0000000180025095e-35 0.99414594269798884 1.0000000180025095e-35 3.0006644173289012 0.010855267535357207 4.0001855816288581 1.0000000180025095e-35 1.0000000180025095e-35 1.0000000180025095e-35 2.0001874214082025 0.99928935698595767 1.0000000180025095e-35 2.5000000000000004 1.0001592326424162 1.9994571199985061 1.0001151092571003 1.0001045798331427 0.049175143667193374 1.0001227697828348
decision_type=2 2 2 2 2 2 2 2 2 2 2 2 2 2 2 2 2 2 2 2 2 2 2 2 2 2 2 2 2 2 2 2 2 2 2 2 2 2 2 2 2 2 2 2 2 2 2 2
left_child=1 15 6 4 8 14 26 18 21 12 11 -6 34 -14 16 22 31 -7 29 -12 -21 44 38 45 -20 -16 36 -9 -29 -8 -31 32 -4 -5 -10 47 46 -15 -1 -35 41 -17 -43 -44 -3 -13 -2 -27
right_child=2 3 5 33 10 17 7 27 9 -11 19 23 13 37 25 40 -18 -19 24 20 -22 -23 -24 -25 -26 35 -28 28 -30 30 -32 -33 -34 39 -36 -37 -38 -39 -40 -41 -42 42 43 -45 -46 -47 -48 -49
leaf_value=-0.0029076956185772043 0.032508772995295372 0.020381242699051397 -0.00095670606314557372 -0.017786510023365072 -0.011266905214761147 0.046323475333505858 -0.012244174677022115 0.080782204999990198 -0.010104284471499679 0.077015088136529603 0.079353497401313353 0.0028418598332264717 0.086373980900179004 -0.00081061975461104655 0.034607305179113514 0.11164033942170463 0.06435257070984482 0.004025021360881802 0.060590780250473146 0.017521430957451539 0.064117402607671459 0.074188167174004477 0.080240867440064936 0.077179651830629262 0.01431317715800345 0.064350007322572247 -0.017466498958626783 0.0062238971610669245 0.061196642647289551 0.097847645985206746 0.0041503747082270101 0.050839003128550476 0.045599868735633119 0.096141742200172395 0.043933764773641241 0.043989276689871501 0.074213546215116596 0.035756390148167297 0.077645256140561336 0.006165903030628455 -0.026713990363678268 -0.01722272202490956 0.10799288226633123 0.0045198006832806812 0.062436275955741326 0.046500913057777274 0.060245462077898541 0.071449016554075276
leaf_weight=1021.8917614147067 1120.821205675602 1313.6553433537483 1322.2914848476648 7721.2492029517889 1569.6761483848095 1449.1845149248838 3514.317844979465 1468.4246061444283 8450.9773510694504 734.69875454902649 2683.614045381546 622.48777438700199 705.19619917869568 1746.8762923106551 1111.7113486379385 92.986089706420898 3630.9156606048346 2052.8222803473473 801.47939842194319 1613.6827402710915 4316.7784996554255 1383.075421884656 293.32361537218094 834.64210299402475 2405.1103646606207 17546.396508485079 168.25945195555687 800.10647761821747 3274.242123067379 274.21986573934555 3628.3443116769195 1409.5437642931938 843.68447035551071 104.62990629673004 295.09771915525198 1334.6260851323605 3073.7732626199722 790.38153892755508 120.1914117410779 449.55082488059998 7321.5394017100334 8883.1603896096349 91.430592358112335 391.75768998265266 548.75780077278614 791.5294901356101 3194.7009868472815 44656.029204189777
leaf_count=6753 4050 6445 7861 65514 11153 4213 25997 1220 62342 596 2210 3581 613 10923 3508 97 5394 12130 1959 7777 7929 1106 244 992 13799 22290 1000 3910 5418 258 21462 3757 2626 98 1083 2951 2437 3015 212 2928 67058 74237 93 2764 1087 2698 5463 41104
internal_value=0.0397277 0.00765599 0.0574954 0.0195246 0.0295895 0.0641703 0.0362889 0.0251452 0.0148065 0.00569404 0.048571 0.0223991 0.00130892 0.0271331 0.0662468 -0.0162397 0.0475673 0.0215483 0.00773934 0.0601629 0.0514507 0.0504997 0.0210485 0.045887 0.0259163 0.0683272 0.0601108 0.0584883 0.0504112 -0.0001249 0.0107894 0.0304906 0.0172075 -0.0150164 -0.00826961 0.0689159 0.0618824 0.0106028 0.00571163 0.0234895 -0.0194318 -0.0137901 -0.0150631 0.0245295 0.0328362 0.0273181 0.0530635 0.069449
internal_weight=153974 54892.8 99081 36676.6 28401.1 75357.2 23723.8 16166.2 15968.7 12723.2 12432.4 3818.34 11988.5 3242.45 71855.2 18216.3 7206.44 3502.01 10623.5 8614.08 5930.46 3245.49 1435.41 2248.66 3206.59 64648.8 7557.55 5542.77 4074.35 7416.88 3902.56 3575.52 2165.98 8275.43 8746.08 63537.1 7389.3 2537.26 1142.08 554.181 16780.9 9459.33 9366.35 483.188 1862.41 1414.02 4315.52 62202.4
internal_count=536355 343548 192807 192090 123550 105834 86973 74023 87210 78572 36340 18424 77976 14551 89491 151458 19638 16343 63475 17916 15706 8638 7209 7271 15758 69853 12950 10548 9328 47717 21720 14244 10487 68540 63425 66345 11950 13938 6965 3026 144249 77191 77094 2857 7532 6279 9513 63394
is_linear=0
shrinkage=0.0248441


Tree=11
num_leaves=49
num_cat=0
split_feature=111 21 24 187 182 187 273 111 273 194 194 273 273 7 36 231 23 14 111 279 86 188 183 279 132 132 143 24 274 182 230 21 38 213 273 213 185 30 169 194 29 21 272 36 21 195 77 15
split_gain=92903.5 60035.7 32913.7 26233.6 18333.8 9135.91 7936.18 7663.24 6138.49 5949.3 5940.83 5542.12 4360.5 3831.44 3643.29 3599.85 3059.41 2943.48 2842.89 2814.05 2393.69 2322.87 4980.99 1951.22 1940.68 3604.96 1881.56 1665.06 1636.82 1527.66 1382.23 1363.26 1315.67 1533.91 1305.78 1211.08 1184.37 1179.97 1135.83 1026.91 992.356 970.423 954.017 947.521 931.591 1067.69 930.64 873.546
threshold=0.99907514986939161 1.0001655480097753 0.99995847648517089 1.0000000180025095e-35 1.0000000180025095e-35 0.99991242535669767 0.18043893601768388 1.0000000180025095e-35 0.21776632509554575 1.0000000180025095e-35 1.0000000180025095e-35 0.16112322791712105 0.47192518016878049 2.5000000000000004 2.5000000000000004 125.89868701737528 1.0000000180025095e-35 1.0000000180025095e-35 1.0000000180025095e-35 0.017483690980662183 1.0000580698921058 0.99983021798982608 1.0000575546285504 0.021656969119495318 1.0047688724975701 1.978085610723795 1.0000000180025095e-35 1.9956179204165869 29.500000000000004 1.0000000180025095e-35 1.0000000180025095e-35 1.9999209027092721 1.5000000000000002 141.02295645363733 0.27262269950636342 157.11127289832839 0.019441246434386165 1.0000000180025095e-35 59.00314272281009 0.9963477861188984 172.09671895870693 3.000168686733073 262.50000000000006 2.5000000000000004 1.9999209027092721 1.0000000180025095e-35 0.99813085835914828 1.0006439240747971
decision_type=2 2 2 2 2 2 2 2 2 2 2 2 2 2 2 2 2 2 2 2 2 2 2 2 2 2 2 2 2 2 2 2 2 2 2 2 2 2 2 2 2 2 2 2 2 2 2 2
left_child=1 2 11 7 9 -5 -6 12 -7 18 24 -1 42 14 27 29 17 -13 20 -11 31 40 -23 35 -2 -26 -15 37 39 -10 43 -3 -25 -34 -21 -17 -16 -14 -31 -12 -8 -33 -4 -19 -24 -46 -22 -30
right_child=10 4 3 5 6 8 21 -9 15 19 28 16 13 26 36 23 -18 30 -20 34 46 22 44 32 25 -27 -28 -29 47 38 -32 41 33 -35 -36 -37 -38 -39 -40 -41 -42 -43 -44 -45 45 -47 -48 -49
leaf_value=-0.0288798472706276 -0.018354398342582352 0.095222994160910499 -0.022928189328866616 0.076923315655324773 -0.014419957681689018 -0.026643568196815695 0.067738245991229906 0.082218946863645614 -0.0037046872929298183 -0.018956288826496092 0.099615708490517055 0.022174482704514043 0.026961460208091634 -0.0083205679070515997 -0.011101531882642983 -0.0024711355054679567 0.070908752284651086 0.053189193989045556 0.086149944756712046 -0.023487528808963171 0.062666076975557872 -0.002491144080407709 0.075510601504682542 0.060346462799188941 0.094274796102687436 -0.0076510416824147427 0.030537244051363082 -0.0054436315773924706 0.0036086073364025402 0.012417881757869894 0.0615574856454928 -0.010811203598508616 0.009540747429329732 0.057121638292796054 0.057961013774678362 0.053440346066764871 0.054659208758698709 0.056134260420428954 0.040585336237515868 -0.00021008914657090464 0.039950791218976038 0.015194731359063489 0.108576700798155 0.010120492858160057 0.03900436036029245 0.062023643381822001 0.0051795453948536695 0.067955374854061598
leaf_weight=457.84570379555225 16847.386247090995 86.715752899646759 5464.8881248757243 3284.531108379364 774.04842408001423 1062.9712064862251 57071.317079558969 673.72192710638046 1305.6799009144306 338.82585344463587 66.787873089313507 1968.9950087368488 3059.5627194419503 11487.664025217295 2505.8067124262452 711.92907256633043 7088.7655427902937 665.94943007826805 289.95798277854919 124.16088340431452 572.21268648654222 880.96651818603277 1813.8905631899834 4156.9907909333706 265.4077861905098 1068.7858244255185 822.02022282034159 729.37688875198364 159.82232312858105 1632.7073065787554 5907.3877438753843 2943.4991844296455 809.3631586432457 865.50528941303492 3932.2253667190671 357.53742565959692 178.92975749820471 1192.0677734389901 1931.288218639791 793.66474334895611 816.41250307112932 1264.0767170637846 31.972724437713623 599.51511737704277 1806.6726826578379 4119.4675602167845 249.88432309031487 707.64479894191027
leaf_count=3764 141513 81 47672 2660 6192 9737 55833 569 7801 2607 65 8307 13645 82406 18506 4235 5653 1152 251 1123 1320 4731 1453 7452 245 8098 3264 3922 921 7766 9660 20481 3596 1515 7018 938 476 3154 5932 5403 1930 6472 34 2606 5104 6033 1533 1526
internal_value=0.0382377 0.0455735 0.0266993 0.0150329 0.0600068 0.0399594 0.0646315 -0.000335958 0.0304869 0.0282526 -0.0118856 0.056239 -0.00252689 0.00286588 0.0166512 0.0356504 0.0586439 0.0491177 0.0107925 0.0497121 0.00648403 0.0655521 0.0534776 0.0471906 -0.0160702 0.012755 -0.00572032 0.029221 0.0321075 0.0192806 0.056504 -0.000959446 0.052847 0.0341747 0.0554557 0.0162968 -0.00667449 0.0351676 0.0276984 0.00778875 0.067348 -0.00299403 -0.022117 0.0328425 0.0598469 0.0550242 0.0452578 0.0561426
internal_weight=155947 136037 58953 42264.5 77084.3 16118.5 67282.8 26146 12834 9801.56 19909.5 16688.5 25472.3 19975.4 7665.74 11771 16230.6 9141.85 5406.35 4395.21 5116.39 66508.7 8621 6901.33 18181.6 1334.19 12309.7 4981.01 1727.92 4869.68 7172.85 4294.29 5831.86 1674.87 4056.39 1069.47 2684.74 4251.63 3564 860.453 57887.7 4207.58 5496.86 1265.46 7740.03 5926.14 822.097 867.467
internal_count=536355 378584 256422 225280 122162 51632 81276 173648 48972 40886 157771 31142 173079 125373 39703 39235 27378 21725 30138 10748 29887 75084 17321 17736 149856 8343 85670 20721 7915 21499 13418 27034 12563 5111 8141 5173 18982 16799 13698 5468 57763 26953 47706 3758 12590 11137 2853 2447
is_linear=0
shrinkage=0.0248441


Tree=12
num_leaves=49
num_cat=0
split_feature=131 21 24 187 182 187 131 217 279 131 23 174 14 188 183 138 131 279 131 279 217 22 215 36 239 202 11 21 230 279 237 31 21 31 0 279 24 11 185 128 21 195 137 231 183 242 23 182
split_gain=88026.2 54311.1 30096 24656 17256.3 8336.65 8201.98 5835.13 5421.77 4174.03 3959.45 3395.04 3393.92 3116.94 4860.49 2995.42 2697.82 2663.07 2635.93 2609.25 2307.33 2196.57 1935.6 1904.93 1720.58 1929 1674.18 1561.15 1390.03 1329.31 1267.79 1139.36 1118.83 1049.29 1001.15 974.538 904.961 3215.76 2019.65 901.842 818.115 949.715 801.539 794.958 752.483 747.746 746.851 718.195
threshold=0.99907514986939161 1.0001655480097753 0.99995847648517089 1.0000000180025095e-35 1.0000000180025095e-35 0.99991242535669767 1.0000000180025095e-35 1.0000000180025095e-35 0.022851489469420949 1.0047688724975701 1.0000000180025095e-35 1.0000000180025095e-35 1.0000000180025095e-35 0.99983021798982608 1.0000575546285504 1.0001533529814755 1.0000000180025095e-35 0.017483690980662183 1.9832138005814224 0.028536083147385222 1.0000000180025095e-35 10.00003659425772 118.00014877319337 2.5000000000000004 198.01931236211416 1.0000000180025095e-35 1.0001151092571003 1.9999209027092721 1.0000000180025095e-35 0.014971652574091545 92.500000000000014 1.0000000180025095e-35 3.000168686733073 289.00217553178243 59.000264503896837 0.011074264530856666 1.9956179204165869 2.0001874214082025 1.0000000180025095e-35 1.0081192793844795 1.9999209027092721 1.0000000180025095e-35 0.99980618997785797 123.03457522637568 1.9942357269199864 0.017883573320289566 85.511659074497388 0.012745226319422655
decision_type=2 2 2 2 2 2 2 2 2 2 2 2 2 2 2 2 2 2 2 2 2 2 2 2 2 2 2 2 2 2 2 2 2 2 2 2 2 2 2 2 2 2 2 2 2 2 2 2
left_child=1 2 10 6 7 -5 11 16 22 20 12 19 -1 31 -15 34 21 -9 -11 -4 -2 27 47 24 39 -26 28 -3 -14 -16 -22 -6 -29 43 -10 -24 -33 38 -38 -21 -31 -42 -13 -17 -32 -19 -34 -7
right_child=9 4 3 5 13 8 -8 17 15 18 -12 42 26 14 29 33 -18 45 -20 23 30 -23 35 -25 25 -27 -28 32 -30 40 44 36 46 -35 -36 -37 37 -39 -40 -41 41 -43 -44 -45 -46 -47 -48 -49
leaf_value=0.016248521508001764 -0.017702027405526757 0.089127120708138524 -0.012633144046042212 0.073156957483855145 0.036198448497479628 -0.021747188705659282 0.078131258645887436 -0.018878461849466992 0.0085166242009466799 0.090560694563426067 0.067739969713619272 0.080432451238907132 0.013791379117268273 -0.0046035056170357505 0.014342123129587561 0.036287576120843962 0.081370361002711208 -0.010083296868754445 0.0069407918620647468 -0.00071138314800632974 0.0010640135291041411 0.067008852519157711 -0.016511349187074333 -0.013997221584025086 0.015223884111644099 0.069396018639604026 0.06417161144339549 -0.0087915031272719959 0.048401602884773978 0.071655627506511638 0.073451322028951743 0.066674977512903702 0.026882659837721468 0.0071991489084086849 0.034069597403910773 0.041815641971610952 -0.01597569140658775 0.062154763512263525 0.064510722938707035 0.02935110109549259 0.037242600462279757 0.05900668437706947 0.024342381984809567 0.060085006890447414 -0.013739039851954814 0.055127914178687176 -0.014434605708583815 0.004309616732568548
leaf_weight=2194.4662415981293 17167.475001625717 120.03744453191757 13201.176463231444 3407.0000663399696 912.82084193825722 1164.1347510367632 795.2822225689888 339.20394220203161 1647.5531669557095 356.09547263383865 7252.6972279250622 172.04530531167984 926.1537561789155 959.15344623476267 481.45271322876215 1135.1511534526944 305.74991750717163 110.80643347650766 664.43247102946043 4781.1634376570582 911.03113055229187 335.40215453505516 215.24373979121447 2657.0869070887566 1519.3457415029407 552.2008084282279 3442.1450161933899 3302.3625192716718 3194.3969189599156 1813.7583455443382 293.31101648509502 37319.980795897543 1138.9845617488027 305.32820693403482 2227.9650338813663 959.95479779690504 543.06244123727083 20432.206420600414 295.11060784012079 704.62378723174334 1790.4328914880753 4140.8328919932246 1668.7605794221163 3864.788864582777 76.15347471088171 4062.9523679092526 352.04091669619083 1481.4009504541755
leaf_count=9998 145831 107 104501 2691 2788 9217 653 2647 7844 319 5670 144 3890 5447 2454 3200 256 654 4357 30225 6047 485 1565 20379 7502 674 3962 22698 7591 1416 514 32403 5032 1384 7523 3308 2806 22293 327 2247 5082 6020 6923 5941 469 7478 2458 8935
internal_value=0.036863 0.043829 0.0259063 0.0147184 0.0573615 0.0385709 -0.000307048 0.0269763 0.0294961 -0.0125952 0.0538276 -0.00278402 0.0434724 0.0618139 0.0483123 0.0398436 0.00992022 0.0479527 0.0362604 -0.005339 -0.0153022 0.00572343 0.00462266 0.00408869 0.01045 0.0297269 0.0513643 0.00150972 0.0406349 0.0544815 0.0168456 0.0638962 -0.000727051 0.0519726 0.0232185 0.0311207 0.0643262 0.0601983 0.0124635 0.00316086 0.0569715 0.0524544 0.0296811 0.0547019 0.0555053 0.0533918 0.0171197 -0.00716532
internal_weight=157695 138226 59470.1 42460.2 78756.4 16408.5 26051.7 10067.5 13001.5 19468.5 17009.9 25256.4 9757.16 68688.8 9185.63 9180.79 5554.58 4512.96 1020.53 23415.6 18448 5248.83 3820.73 10214.4 7557.33 2071.55 7562.7 4913.43 4120.55 8226.48 1280.5 59503.2 4793.39 5305.27 3875.52 1175.2 58590.4 21270.4 838.173 5485.79 7745.02 5931.27 1840.81 4999.94 369.464 4173.76 1491.03 2645.54
internal_count=536355 378818 255967 224856 122851 51608 173248 41815 48917 157537 31111 172595 25441 81036 20419 25892 31036 10779 4676 165528 152861 30780 23025 61027 40648 8176 15443 30295 11481 14972 7030 60617 30188 10525 15367 4873 57829 25426 3133 32472 12518 11102 7067 9141 983 8132 7490 18152
is_linear=0
shrinkage=0.0248441


Tree=13
num_leaves=49
num_cat=0
split_feature=278 273 110 12 21 36 89 183 136 23 23 143 7 110 183 136 278 207 269 23 141 22 183 26 38 136 207 185 185 278 124 265 278 250 23 23 38 235 110 136 139 139 21 12 12 187 21 234
split_gain=113594 23590.9 21421.1 17265.9 12745.1 8430.61 8387.91 7012.58 6665.52 4628.91 4387.19 4203.61 4416.94 4135.63 3773.61 3738.94 3064.2 2684.11 2486.66 2129.76 1960.16 1898.5 1768.91 1714.03 1699.08 1676.75 1637.07 2531.33 2026.26 1603.1 1588.77 1532.49 1428.54 1378.38 1535.23 1351.69 1323.39 1315.06 1271.25 1232.58 1188.8 1206.1 1140.57 1698.73 1989.05 1116.06 1084.91 1045.27
threshold=0.034537354982942282 0.18043893601768388 0.99907514986939161 1.0000875746433027 1.0001655480097753 2.5000000000000004 0.99907514986939161 1.0000000180025095e-35 1.0000000180025095e-35 0.99995847648517089 0.99995847648517089 1.0000000180025095e-35 2.5000000000000004 1.0000000180025095e-35 1.0000000180025095e-35 0.99774161197731182 0.011112960502485064 118.0062244017126 0.00045163652680021402 0.99995847648517089 1.0000000180025095e-35 11.075735647727814 1.0200837243258765 1.0000000180025095e-35 1.5000000000000002 1.0001421072277175 1.0000000180025095e-35 0.99843499745987119 1.0000000180025095e-35 0.078438492403689622 0.9964965423095512 2087.5000000000005 0.027588485157690603 1.0000000180025095e-35 0.99995847648517089 1.0000000180025095e-35 1.5000000000000002 0.19221469041472 1.0000000180025095e-35 1.9914592881817115 0.0051208414305202185 0.99928935698595767 1.0001655480097753 1.9918876279450533 2.0005505129488594 1.0000000180025095e-35 1.9999209027092721 3.5000000000000004
decision_type=2 2 2 2 2 2 2 2 2 2 2 2 2 2 2 2 2 2 2 2 2 2 2 2 2 2 2 2 2 2 2 2 2 2 2 2 2 2 2 2 2 2 2 2 2 2 2 2
left_child=1 -1 4 5 8 11 14 18 9 35 47 12 24 26 17 -10 46 21 38 -14 -8 -5 -21 -16 33 -17 -11 28 -28 31 -20 -19 -29 -2 -35 -3 -18 -26 -6 -27 -4 -42 43 -25 -45 -12 -9 -7
right_child=3 2 40 6 7 10 20 16 15 13 45 -13 19 -15 23 25 36 29 30 22 -22 -23 -24 42 37 39 27 32 -30 -31 -32 -33 -34 34 -36 -37 -38 -39 -40 -41 41 -43 -44 44 -46 -47 -48 -49
leaf_value=-0.02699615408573983 0.059481445231658575 0.022204996332750439 -0.018727293616468396 0.012138379226267849 -0.0037897503477122263 0.063262922270432412 -0.0050315919290709653 0.071342212809949762 0.069059126967197196 -0.013228262582528768 -0.01109729675823542 0.059695932856898677 0.044444971981148912 0.065781329171940933 0.030455671007938116 0.0062253579170039579 0.060030015762679891 0.013786797577453897 0.067443295291415989 -0.00093909606728810797 0.043675363590062785 0.065603491187658763 0.041939810351636922 0.066190749430127344 0.0041040788789406544 0.073705018528009966 0.0018942740403772398 -0.0097093088695131332 0.089851051283287561 0.065405452410107826 -0.0046697113719884695 0.054488500749797109 0.025874455343001607 0.054614439503122746 0.012660149439984489 0.063216143475302758 0.024082586848614831 0.050475543057726252 0.078680869079083393 0.027547914544640614 0.087349280583269837 -0.00048938957033883206 0.061712599939931258 0.028362540326270412 0.055440272121154606 0.02916056506522885 0.0068536031448743371 0.024936086577455854
leaf_weight=10368.40869038552 4115.4361662790179 1544.6132068485022 9804.2548086568713 2269.5443413332105 2544.6411305069923 684.56854908168316 1616.0547674670815 186.53804540634155 1457.5093514323235 7421.6506059989333 3772.5888775587082 5323.6621891111135 1215.2560485452414 514.63461291790009 1218.8241319358349 1963.9160735160112 8559.2810944318771 995.34461601823568 666.29394812881947 3253.0731240808964 742.48271172493696 498.42756974697113 724.05087129771709 3955.1235800981522 968.27889396250248 470.35966593027115 290.80011419206858 3142.6978408023715 361.99704498052597 2687.9442667141557 262.22067280113697 1343.5287995114923 892.04226366430521 1144.994158282876 1017.7687890008092 731.68289017677307 687.20257809013128 616.81325396895409 118.48307597637177 1486.0411387383938 119.15917903184891 468.21344529092312 56813.201349027455 2588.1419247686863 4787.8038816452026 476.68945769965649 1095.8516661375761 1234.3752320557833
leaf_count=97759 6712 6847 87227 10952 16746 959 10901 147 1122 60149 28916 6506 2353 389 3667 10921 12636 3844 795 20637 2119 587 1710 2980 4664 374 1841 22411 325 3098 1541 2801 4204 1595 5674 542 2781 1549 98 5655 105 3247 51449 7011 6425 1736 5686 3962
internal_value=0.035593 0.00676934 0.0145867 0.0508703 0.0240297 0.0326514 0.0564935 0.0421502 0.0114081 0.00284889 0.00751538 0.0410852 0.0334869 -0.00303324 0.0579042 0.0351109 0.0523743 0.0414874 0.0121634 0.0156938 0.0103298 0.0218136 0.00688727 0.0597476 0.045228 0.0224555 -0.00597009 0.00552234 0.0508176 0.0523052 0.0471172 0.0371988 -0.00183145 0.0510321 0.0349068 0.0354394 0.0573653 0.0221972 -5.41015e-05 0.0387206 -0.01667 0.0176074 0.0602704 0.0530281 0.0459511 -0.00656734 0.0163482 0.03867
internal_weight=159222 55158.5 44790.1 104064 34398.5 24547.6 79516.4 14120.5 20277.9 14900.1 6168.22 18379.3 13055.7 12623.8 77157.9 5377.83 10528.9 7794.79 3591.64 5192.38 2358.54 2767.97 3977.12 69363.1 7863.29 3920.32 12109.2 4687.54 652.797 5026.82 928.515 2338.87 4034.74 6278.2 2162.76 2276.3 9246.48 1585.09 2663.12 1956.4 10391.6 587.373 68144.3 11331.1 7375.95 4249.28 1282.39 1918.94
internal_count=536355 343548 245789 192807 155210 86973 105834 40430 114780 96708 35573 51400 44894 89319 92814 18072 21250 21282 19180 24700 13020 11539 22347 71532 20194 16950 88930 28781 2166 9743 2336 6645 26615 13981 7269 7389 15417 6213 16844 6029 90579 3352 67865 16416 13436 30652 5833 4921
is_linear=0
shrinkage=0.0248441


Tree=14
num_leaves=49
num_cat=0
split_feature=131 273 21 24 208 182 131 194 131 231 23 14 131 194 11 21 188 183 38 28 28 23 236 213 185 187 138 27 182 194 30 11 140 230 24 26 131 25 203 21 21 253 183 27 181 240 273 188
split_gain=76571.3 48770.3 34695.3 21217.3 19678 10158.9 5777.55 4175.88 3848.96 3268.41 2489.39 2342.05 2232.6 2185.83 2018.85 2329.7 1983.2 4007.53 1981.03 1747.41 3375.02 2878.48 1788.44 1716.78 1514.28 1229.71 1565.14 1217.49 1183.95 1099.86 1169.08 1099.71 1046.19 990.121 972.143 909.46 904.527 889.731 3175.36 1910.31 1050.49 813.9 808.971 859.841 800.176 792.743 750.265 745.969
threshold=0.99907514986939161 0.18043893601768388 1.0001655480097753 0.99995847648517089 1.0000000180025095e-35 1.0000000180025095e-35 1.0000000180025095e-35 1.0000000180025095e-35 1.0047688724975701 112.74743750000002 1.0000000180025095e-35 1.0000000180025095e-35 1.9832138005814224 1.0000000180025095e-35 7.0005220271024493 1.9999209027092721 0.99983021798982608 1.0000575546285504 1.5000000000000002 25.99954768523461 1.0000000180025095e-35 1.9997361207396762 0.11770170210491109 146.02075195312503 1.0000000180025095e-35 0.99991242535669767 1.0001533529814755 6.000464370114396 1.9999559898843648 0.9963477861188984 521.15018817133966 1.0001151092571003 2.9998644854926457 1.0000000180025095e-35 63.100276742922198 229.25272109991269 1.0000000180025095e-35 1.0000000180025095e-35 1.0000000180025095e-35 1.9999209027092721 2.000190347036908 356659.00000000006 1.0000000180025095e-35 1.0000000180025095e-35 1.0000000180025095e-35 0.66305594935286116 0.27262269950636342 0.99983021798982608
decision_type=2 2 2 2 2 2 2 2 2 2 2 2 2 2 2 2 2 2 2 2 2 2 2 2 2 2 2 2 2 2 2 2 2 2 2 2 2 2 2 2 2 2 2 2 2 2 2 2
left_child=1 -1 3 10 6 7 19 14 13 27 11 -3 -10 46 15 -4 37 -18 24 20 22 -22 -5 32 28 -26 -27 42 -11 -15 -31 33 -20 -13 -16 -9 -17 38 39 -7 -41 -21 -6 -44 -19 -24 -2 -45
right_child=8 2 5 4 9 16 -8 35 12 18 -12 31 -14 29 34 36 17 44 23 41 21 -23 45 -25 25 26 -28 -29 -30 30 -32 -33 -34 -35 -36 -37 -38 -39 -40 40 -42 -43 43 47 -46 -47 -48 -49
leaf_value=-0.024890368128044564 -0.027712419095254782 0.019633920624230552 0.079845193037381357 0.048705105195053243 -0.011849636449162121 0.068250477805610638 0.072520807410727181 0.051947484614230863 0.082228122723707844 0.055444976937930948 0.062720502419621196 0.017008490978453729 0.006684042377132356 0.097900945755326915 0.05251142037730213 -0.0018658111402932308 -0.0032512354599726614 0.039505349849325737 0.024667573340352616 -0.010117766944226251 0.076413945764146118 0.0036942446589345521 -0.010541517104103006 0.049446332078932238 0.064616112104576962 0.028409154573643763 0.05418552119612647 0.050196610564574105 -0.0042334102070460582 -0.0025380261776188676 0.058690932890912928 0.060065545772074791 -0.01235870376246952 0.047328013513917508 -0.010044711086417043 0.018340793500494525 0.073564743943376448 0.062338186228519464 0.058827162082454927 -6.9914405039794207e-05 0.035377226336149696 0.01925740732975913 0.0061959175699385083 0.059002978387724614 0.057032895458992462 0.005434563240683029 -0.014676607900731681 0.018821435475124562
leaf_weight=6660.1498287171125 3429.0985923781991 2005.3732774928212 240.69653725624084 448.72482947260141 691.43971426784992 634.00217080116272 681.91475754976273 3866.721338570118 376.63891303539276 319.46352849900723 7463.7524985224009 846.14671274274588 666.74729642271996 91.959032773971558 988.01622758805752 3406.2992190644145 887.59988157451153 2231.6706151589751 1753.0009001642466 9226.4255443885922 729.04731619358063 621.92127275466919 3667.1793556883931 1390.8781249821186 3005.5835931152105 2228.8996038064361 4232.4547557160258 609.48817569762468 565.278040997684 958.64712952077389 238.41480347514153 3508.8927091881633 642.08186902850866 3163.0100564360619 180.59675555676222 574.21495548635721 98.674881458282471 30861.86462906003 27411.892749212682 959.04878029972315 1114.67085365206 619.22199273854494 1622.99003008008 453.10138966888189 6009.6980688944459 4012.0115299522877 13337.859427079558 772.55785153061152
leaf_count=62239 33795 8130 200 993 4436 487 541 6735 319 704 5662 3040 4357 88 2397 20811 4653 4999 6595 67632 1249 3516 26416 2645 2911 7974 6919 1316 3105 6383 559 3677 3619 6479 1036 2116 79 24778 25164 4385 2739 3465 7502 632 7758 25685 112036 3399
internal_value=0.034423 0.0407294 0.0439732 0.0288564 0.0186031 0.0544881 0.00157532 0.0301587 -0.012267 0.0372291 0.0519642 0.0435207 0.0340781 -0.0149492 0.014369 0.00546398 0.0577334 0.0468987 0.0429196 -0.000936684 0.0066764 0.0430024 0.000627759 0.0275126 0.0485469 0.0514522 0.0453074 0.0178281 0.0174049 0.0162042 0.00974771 0.0498841 0.0147389 0.0409428 0.0428429 0.0476143 0.000305646 0.0593535 0.0562906 0.0305829 0.019002 -0.00826606 0.0122255 0.0180743 0.0522993 -0.00219561 -0.0173462 0.0337609
internal_weight=160506 141407 134747 55280.8 38293.7 79465.7 20006.4 9355.22 19099.4 18287.2 16987.2 9523.42 1043.39 18056 4914.28 3745.67 70110.4 9128.97 14137.6 19324.5 9478.88 1350.97 8127.92 3785.96 10351.7 9466.94 6461.35 4149.58 884.742 1289.02 1197.06 7518.05 2395.08 4009.16 1168.61 4440.94 3504.97 60981.5 30119.6 2707.72 2073.72 9845.65 3540.09 2848.65 8241.37 7679.19 16767 1225.66
internal_count=536355 378818 316579 208242 181254 108337 129497 33374 157537 51757 26988 21326 4676 152861 24523 21090 74963 17410 34472 128956 57859 4765 53094 12859 21613 17804 14893 17285 3809 7030 6942 13196 10214 9519 3433 8851 20890 57553 32775 7611 7124 71097 15969 11533 12757 52101 145831 4031
is_linear=0
shrinkage=0.0248441


Tree=15
num_leaves=49
num_cat=0
split_feature=278 273 131 11 278 38 90 138 24 11 204 38 90 24 11 131 24 194 208 204 278 223 28 277 24 181 131 15 24 182 231 20 138 138 278 179 261 27 14 131 24 53 139 139 179 278 278 188
split_gain=98939.8 21563.6 19568.1 14806.7 10879.7 8284.61 7944.4 7115.65 9566.13 6588.93 4962.77 3351.11 2814.86 2802.56 3449.45 2416.39 2335.68 2312.04 2227.47 2562.83 2198.68 1967.86 1579.44 1505.57 1470.05 1466.97 1401.6 1353.6 1269.27 1230.74 1147.27 1138.24 1132.64 1991.31 1106.75 1045.5 1022.79 1001.52 981.939 979.079 970.577 939.346 929.045 1001.38 890.911 877.369 869.05 818.551
threshold=0.034537354982942282 0.18043893601768388 0.99907514986939161 1.0001151092571003 0.012591931076344726 1.5000000000000002 0.99700111465757568 1.0000000180025095e-35 0.99995847648517089 1.0001151092571003 0.99989542016685762 1.5000000000000002 1.0019004644043883 1.9956179204165869 3.0006644173289012 1.0000000180025095e-35 0.99995847648517089 1.0000000180025095e-35 1.0000000180025095e-35 1.0000000180025095e-35 0.11218520699350083 10.000030115035786 297.01289721774657 1.0000000180025095e-35 0.99995847648517089 1.0000000180025095e-35 0.0059650143798831165 0.99617383521640213 1.0000000180025095e-35 1.0000000180025095e-35 58.679662972620612 3.0865305721654859 0.99575806318261506 1.0001533529814755 0.049175143667193374 0.032297968333508349 1.0000000180025095e-35 1.0001533529814755 0.99866990044087267 1.0000000180025095e-35 0.99995847648517089 1.0000000180025095e-35 0.0051208414305202185 0.99928935698595767 1.0000000180025095e-35 0.049175143667193374 0.061700893038720964 0.99983021798982608
decision_type=2 2 2 2 2 2 2 2 2 2 2 2 2 2 2 2 2 2 2 2 2 2 2 2 2 2 2 2 2 2 2 2 2 2 2 2 2 2 2 2 2 2 2 2 2 2 2 2
left_child=1 -1 4 7 15 9 11 8 28 10 18 22 -8 -11 39 16 -3 34 19 40 21 -10 36 -24 -12 31 35 38 45 -25 -22 -18 -9 46 -13 -7 -5 -37 -23 44 -6 -20 -4 -44 -15 -2 -34 -27
right_child=3 2 42 6 5 26 12 32 20 13 24 17 -14 14 -16 -17 25 -19 41 -21 30 27 23 29 -26 47 -28 -29 -30 -31 -32 -33 33 -35 -36 37 -38 -39 -40 -41 -42 -43 43 -45 -46 -47 -48 -49
leaf_value=-0.026770830468051864 0.017036097390116925 0.031256228017784049 -0.018486626987709906 0.056899207356302023 0.037841229312934245 -0.0095965756219564703 -0.0048288852845234011 0.064410523093752448 -0.0069354295127865536 0.059621166054079473 0.022113346442014705 0.0030698750414802031 0.054122154407452987 -0.005534830773229314 0.050248677216432884 0.062996855290959178 -0.015971650841399933 0.050887548867759737 0.011708565488606323 0.08022734836119072 0.0152612395767996 0.034653114863470814 0.057657110199284219 -0.012068363868060317 -0.018519952126187875 0.070292504332127803 0.066383369730281111 -0.0096868818234475389 0.060479113953384574 0.035265877185859391 0.046580527421315014 0.047688302861810694 0.010962269402575086 0.053332497376071784 0.036219259152943786 0.0085466825217999677 0.0356702980769351 0.075200503086633688 -0.0015271691749674564 0.064847873639325815 1.3858714806846081e-05 0.050636771514740581 0.08290622258690282 -0.0015724348623037717 0.028396079320213402 0.044698397462103065 0.042298799219411355 0.008483641768513267
leaf_weight=9963.9662697017193 947.60341903567314 951.81451082229614 9630.451338686049 66492.958962313831 525.07733519375324 3308.7874606698751 1954.9282835498452 2300.3816847801208 5194.4299162775278 6503.0746191218495 756.03379557281733 1399.1001076102257 669.21433486044407 1321.4928638488054 3952.1602742671967 331.77630865573883 6051.3590029701591 2713.4985384494066 438.65946375578642 339.81564086675644 1897.8999249339104 1986.1981123760343 1496.3366210609674 440.1499899700284 1994.3489590808749 168.65713569521904 189.09384560585022 861.95177832245827 2570.7260146737099 1459.0029026418924 1166.5524323582649 176.23373305797577 1243.5882498472929 4731.3955335393548 1117.0972459986806 1121.2352739572525 1446.1044900119305 156.64999681711197 603.24452283978462 193.51456475257874 2030.2241678759456 3084.6602171212435 103.95161890983582 466.81306894868612 745.06770627945662 2842.3952134102583 975.08988582342863 587.24518056213856
leaf_count=97759 3612 2949 87903 64818 1616 23540 12919 1720 34666 8440 2943 6534 1400 8473 7644 247 46311 3643 2064 289 9317 7169 1668 2226 16310 139 144 6779 1876 2653 3207 502 4730 6245 3286 5602 3058 127 4242 146 14746 6782 89 3283 2481 4966 2073 3019
internal_value=0.0333333 0.00630362 0.0136072 0.047314 0.0224483 0.0301692 0.0527556 0.031539 0.0224627 0.0366383 0.0205767 0.0542124 0.0102398 0.048214 0.0362547 -0.00245151 -0.00520587 0.0349867 0.0325381 0.0163727 0.00913702 0.00272531 0.0556206 0.0390265 -0.007341 -0.0101844 0.000522041 0.0172599 0.0469832 0.024294 0.0272104 -0.0141527 0.0492594 0.0442244 0.0178073 -0.00222581 0.0564486 0.0168412 0.0262305 0.0117566 0.00781473 0.0458013 -0.016661 0.0140903 0.00671664 0.0377971 0.0247649 0.0224507
internal_weight=161602 55092.2 45128.2 106510 34927 26659.9 79188.4 27321.5 18071 21884.1 9168.82 76564.2 2624.14 12715.3 6212.24 8267.09 7935.31 5229.7 6418.44 2895.12 11710.3 8645.82 71334.6 3395.49 2750.38 6983.5 4775.77 3451.39 6360.72 1899.15 3064.45 6227.59 9250.46 6950.07 2516.2 4586.67 67939.1 1277.89 2589.44 2260.08 2555.3 3523.32 10201.2 570.765 2066.56 3790 2218.68 755.902
internal_count=536355 343548 245789 192807 154514 101347 102205 90602 75834 71934 44750 87886 14319 27184 18744 53167 52920 13463 25497 16651 65380 52856 74423 6547 19253 49971 29413 18190 10454 4879 12524 46813 14768 13048 9820 29269 67876 5729 11411 11100 16362 8846 91275 3372 10954 8578 6803 3158
is_linear=0
shrinkage=0.0248441


Tree=16
num_leaves=49
num_cat=0
split_feature=131 273 12 182 143 23 189 188 183 194 131 188 131 23 194 138 279 131 7 36 136 138 208 143 18 131 25 204 12 279 12 20 281 11 23 97 23 237 194 143 138 23 11 279 261 273 187 187
split_gain=67179.8 42696.3 29616.1 13095.8 11195.7 10670.3 6336.45 5183.22 4710.94 4573.2 4164.66 3647.09 3553.45 2238.73 2067.46 2041.64 2040.85 1934.95 1864.49 3635.16 1850.48 1840.98 1806.69 1704.23 1584.85 1686.21 1567.16 5023.72 2042.63 1338.86 1178.31 1144 1131.71 1055.97 2663.32 1414.21 1020.47 1008.57 971.432 946.778 872.315 786.016 760.454 750.736 751.349 740.135 723.621 3458.98
threshold=0.99907514986939161 0.18043893601768388 1.0000875746433027 1.0000000180025095e-35 1.0000000180025095e-35 0.99995847648517089 1.0000000180025095e-35 0.99983021798982608 1.0000575546285504 1.0000000180025095e-35 1.0000000180025095e-35 0.99983021798982608 1.0047688724975701 1.0000000180025095e-35 1.0000000180025095e-35 1.0000000180025095e-35 0.017483690980662183 1.9832138005814224 2.5000000000000004 2.5000000000000004 1.0000000180025095e-35 0.99575806318261506 118.00999832153322 0.99753870299800018 6.3786526825687888 1.0000000180025095e-35 1.0000000180025095e-35 1.0000000180025095e-35 1.9918876279450533 0.021656969119495318 2.0005505129488594 1.0000000180025095e-35 0.024150572792348928 2.0001874214082025 1.9997361207396762 1.9997559067153625 20.004243336808859 92.500000000000014 0.9963477861188984 1.0001533529814755 1.0001533529814755 1.9997361207396762 1.9999209027092721 0.010366604746533033 1.0000000180025095e-35 0.27262269950636342 0.012633980801960988 0.99991242535669767
decision_type=2 2 2 2 2 2 2 2 2 2 2 2 2 2 2 2 2 2 2 2 2 2 2 2 2 2 2 2 2 2 2 2 2 2 2 2 2 2 2 2 2 2 2 2 2 2 2 2
left_child=1 -1 4 9 5 13 10 26 -9 15 18 -8 14 32 45 24 -11 -14 19 31 43 -17 41 -6 25 -4 27 28 -5 -23 -30 -7 -3 34 35 -29 39 38 -16 -25 -31 -13 -36 -10 -45 -2 -47 -48
right_child=12 2 3 7 23 6 11 8 20 16 -12 22 17 -15 37 21 -18 -19 -20 -21 -22 29 -24 36 -26 -27 -28 33 30 40 -32 -33 -34 -35 42 -37 -38 -39 -40 -41 -42 -43 -44 44 -46 46 47 -49
leaf_value=-0.024596813481977828 -0.027527582405053586 0.020275272925378684 -0.0066681587620441929 0.062783026466516137 0.0641417053712941 0.011845120801708351 0.064114678849565357 -0.0067211961942157117 -0.020203446733756486 -0.016280220771057882 0.069919345450758327 0.028789784945284981 0.075727435400554988 0.0578779771272072 0.094768396992443216 0.077208900238935174 0.046054494521540347 0.0063811426766989037 -0.0092959949475759033 -0.015535685248450778 0.051594884662398983 -0.0091752834424643995 0.039238976260847977 0.027843406812316684 0.042670601935317229 0.071982307900381431 0.058152725892544763 0.053072068625290694 -0.0056051072052428911 0.010286451514864377 0.02672436211079382 0.039081729063905446 0.044663876260264933 0.056202991426546091 0.058809947127141368 0.0078057604365129839 -0.025189318382129424 0.048761782988632471 -0.0059183466453745096 0.048013031529921486 0.043353032937502659 -0.0070686523818984728 -0.014075348454535201 0.035184720363001513 -0.010079321259268387 -0.01693213224782282 0.10995807569718943 -0.010066224946008315
leaf_weight=6408.5977392047644 3287.2803394347429 2910.3035955503583 3807.4512852281332 636.60978347063065 2497.6401227116585 2460.5420758873224 1479.372535020113 1352.4168744981289 168.16816740483046 343.91698595881462 500.35018390417099 504.43726190179586 392.93234932422638 2853.8147897720337 61.238067626953125 409.0469092130661 5358.1529149338603 669.47798057645559 10202.626418627799 2545.6784278303385 6083.4997664690018 688.28763539344072 1364.3400727063417 2137.3986205011606 524.07253462076187 173.67028701305389 35535.764856658876 6520.3481940478086 1165.9580463692546 798.25574269890785 1720.775747641921 1553.393726579845 1975.6958198547363 25803.545944407582 102.87323278933764 456.74224878102541 143.27805487811565 391.68752239644527 842.80060287564993 4462.7566410899162 1290.8855334371328 1474.470290414989 548.7503167912364 4602.9203966632485 237.05906979739666 10926.149921283126 157.67866688966751 2002.0682193636894
