{"learner":{"attributes":{"scikit_learn":"{\"_estimator_type\": \"classifier\"}"},"feature_names":["TransactionAmt","ProductCD","card1","card2","card3","card4","card5","card6","addr1","addr2","dist1","C1","C2","C3","C4","C5","C6","C7","C8","C9","C10","C11","C12","C13","C14","D1","D2","D3","D4","D5","D10","D11","D15","M1","M2","M3","M4","M5","M6","M7","M8","M9","V1","V2","V3","V4","V5","V6","V7","V8","V9","V10","V11","V12","V13","V14","V15","V16","V17","V18","V19","V20","V21","V22","V23","V24","V25","V26","V27","V28","V29","V30","V31","V32","V33","V34","V35","V36","V37","V38","V39","V40","V41","V42","V43","V44","V45","V46","V47","V48","V49","V50","V51","V52","V53","V54","V55","V56","V57","V58","V59","V60","V61","V62","V63","V64","V65","V66","V67","V68","V69","V70","V71","V72","V73","V74","V75","V76","V77","V78","V79","V80","V81","V82","V83","V84","V85","V86","V87","V88","V89","V90","V91","V92","V93","V94","V95","V96","V97","V98","V99","V100","V101","V102","V103","V104","V105","V106","V107","V108","V109","V110","V111","V112","V113","V114","V115","V116","V117","V118","V119","V120","V121","V122","V123","V124","V125","V126","V127","V128","V129","V130","V131","V132","V133","V134","V135","V136","V137","V279","V280","V281","V282","V283","V284","V285","V286","V287","V288","V289","V290","V291","V292","V293","V294","V295","V296","V297","V298","V299","V300","V301","V302","V303","V304","V305","V306","V307","V308","V309","V310","V311","V312","V313","V314","V315","V316","V317","V318","V319","V320","V321","log_amount","amount_sqrt","amount_decimal","is_round_amount","hour_of_day","is_night","day_of_week","is_weekend","month_approx","avg_amt","std_amt","user_txn_count","user_merchant_diversity","amount_zscore","amount_to_mean_ratio","devices_per_card","is_unusual_device","monthly_avg_amt","amt_vs_seasonal","product_fraud_rate","region_fraud_rate","cards_per_device","emails_per_device","is_shared_device","is_low_activity_user","dormant_high_value","is_suspicious_round","is_low_diversity_user","category_mismatch_risk","is_first_txn","first_txn_high_value","time_since_last_txn","time_since_last_txn_hrs","is_rapid_fire","txn_count_30min","amt_cumsum_last3","prev_amount","amount_acceleration","is_free_email","is_corporate_email","email_fraud_rate","cards_per_email_domain","users_per_address","users_same_card_type","has_fraud_neighbor","txns_same_addr_hour","graph_degree_centrality","graph_pagerank","graph_clustering","graph_community_id","graph_community_size","graph_community_fraud_rate","graph_fraud_neighbor_count","graph_fraud_neighbor_ratio","graph_betweenness","graph_is_bridge","card1_target_enc","card2_target_enc","addr1_target_enc","addr2_target_enc","P_emaildomain_target_enc","amount_x_night","amount_x_weekend","round_x_night","round_x_new_device","night_x_unusual_device","dormant_x_night","new_acct_x_round","rapid_fire_x_night","rapid_fire_x_high_amt","velocity_x_new_device","free_email_x_high_amt","fraud_neighbor_x_night","shared_device_x_network","graph_fraud_comm_x_night","graph_fraud_comm_x_high_amt","graph_bridge_x_unusual_device","graph_fraud_neighbor_x_round","is_missing_card2","is_missing_addr1","is_missing_dist1","is_missing_P_emaildomain"],"feature_types":["float","int","int","float","float","int","float","int","float","float","float","float","float","float","float","float","float","float","float","float","float","float","float","float","float","float","float","float","float","float","float","float","float","int","int","int","int","int","int","int","int","int","float","float","float","float","float","float","float","float","float","float","float","float","float","float","float","float","float","float","float","float","float","float","float","float","float","float","float","float","float","float","float","float","float","float","float","float","float","float","float","float","float","float","float","float","float","float","float","float","float","float","float","float","float","float","float","float","float","float","float","float","float","float","float","float","float","float","float","float","float","float","float","float","float","float","float","float","float","float","float","float","float","float","float","float","float","float","float","float","float","float","float","float","float","float","float","float","float","float","float","float","float","float","float","float","float","float","float","float","float","float","float","float","float","float","float","float","float","float","float","float","float","float","float","float","float","float","float","float","float","float","float","float","float","float","float","float","float","float","float","float","float","float","float","float","float","float","float","float","float","float","float","float","float","float","float","float","float","float","float","float","float","float","float","float","float","float","float","float","float","float","float","float","float","float","float","float","float","float","float","float","float","float","float","int","int","int","int","int","int","float","float","int","int","float","float","int","int","float","float","float","float","int","int","int","int","int","int","int","int","int","int","float","float","int","float","float","float","float","int","int","float","float","float","int","int","int","float","float","float","int","int","float","int","float","float","int","float","float","float","float","float","float","float","int","int","int","int","int","int","int","int","int","int","int","float","float","int","float","int","int","int","int"],"gradient_booster":{"model":{"cats":{"enc":[],"feature_segments":[],"sorted_idx":[]},"gbtree_model_param":{"num_parallel_tree":"1","num_trees":"451"},"iteration_indptr":[0,1,2,3,4,5,6,7,8,9,10,11,12,13,14,15,16,17,18,19,20,21,22,23,24,25,26,27,28,29,30,31,32,33,34,35,36,37,38,39,40,41,42,43,44,45,46,47,48,49,50,51,52,53,54,55,56,57,58,59,60,61,62,63,64,65,66,67,68,69,70,71,72,73,74,75,76,77,78,79,80,81,82,83,84,85,86,87,88,89,90,91,92,93,94,95,96,97,98,99,100,101,102,103,104,105,106,107,108,109,110,111,112,113,114,115,116,117,118,119,120,121,122,123,124,125,126,127,128,129,130,131,132,133,134,135,136,137,138,139,140,141,142,143,144,145,146,147,148,149,150,151,152,153,154,155,156,157,158,159,160,161,162,163,164,165,166,167,168,169,170,171,172,173,174,175,176,177,178,179,180,181,182,183,184,185,186,187,188,189,190,191,192,193,194,195,196,197,198,199,200,201,202,203,204,205,206,207,208,209,210,211,212,213,214,215,216,217,218,219,220,221,222,223,224,225,226,227,228,229,230,231,232,233,234,235,236,237,238,239,240,241,242,243,244,245,246,247,248,249,250,251,252,253,254,255,256,257,258,259,260,261,262,263,264,265,266,267,268,269,270,271,272,273,274,275,276,277,278,279,280,281,282,283,284,285,286,287,288,289,290,291,292,293,294,295,296,297,298,299,300,301,302,303,304,305,306,307,308,309,310,311,312,313,314,315,316,317,318,319,320,321,322,323,324,325,326,327,328,329,330,331,332,333,334,335,336,337,338,339,340,341,342,343,344,345,346,347,348,349,350,351,352,353,354,355,356,357,358,359,360,361,362,363,364,365,366,367,368,369,370,371,372,373,374,375,376,377,378,379,380,381,382,383,384,385,386,387,388,389,390,391,392,393,394,395,396,397,398,399,400,401,402,403,404,405,406,407,408,409,410,411,412,413,414,415,416,417,418,419,420,421,422,423,424,425,426,427,428,429,430,431,432,433,434,435,436,437,438,439,440,441,442,443,444,445,446,447,448,449,450,451],"tree_info":[0,0,0,0,0,0,0,0,0,0,0,0,0,0,0,0,0,0,0,0,0,0,0,0,0,0,0,0,0,0,0,0,0,0,0,0,0,0,0,0,0,0,0,0,0,0,0,0,0,0,0,0,0,0,0,0,0,0,0,0,0,0,0,0,0,0,0,0,0,0,0,0,0,0,0,0,0,0,0,0,0,0,0,0,0,0,0,0,0,0,0,0,0,0,0,0,0,0,0,0,0,0,0,0,0,0,0,0,0,0,0,0,0,0,0,0,0,0,0,0,0,0,0,0,0,0,0,0,0,0,0,0,0,0,0,0,0,0,0,0,0,0,0,0,0,0,0,0,0,0,0,0,0,0,0,0,0,0,0,0,0,0,0,0,0,0,0,0,0,0,0,0,0,0,0,0,0,0,0,0,0,0,0,0,0,0,0,0,0,0,0,0,0,0,0,0,0,0,0,0,0,0,0,0,0,0,0,0,0,0,0,0,0,0,0,0,0,0,0,0,0,0,0,0,0,0,0,0,0,0,0,0,0,0,0,0,0,0,0,0,0,0,0,0,0,0,0,0,0,0,0,0,0,0,0,0,0,0,0,0,0,0,0,0,0,0,0,0,0,0,0,0,0,0,0,0,0,0,0,0,0,0,0,0,0,0,0,0,0,0,0,0,0,0,0,0,0,0,0,0,0,0,0,0,0,0,0,0,0,0,0,0,0,0,0,0,0,0,0,0,0,0,0,0,0,0,0,0,0,0,0,0,0,0,0,0,0,0,0,0,0,0,0,0,0,0,0,0,0,0,0,0,0,0,0,0,0,0,0,0,0,0,0,0,0,0,0,0,0,0,0,0,0,0,0,0,0,0,0,0,0,0,0,0,0,0,0,0,0,0,0,0,0,0,0,0,0,0,0,0,0,0,0,0,0,0,0,0,0,0,0,0,0,0,0,0,0,0,0,0,0,0,0,0,0,0,0,0,0,0,0,0,0,0,0,0,0,0,0,0,0,0,0,0,0,0,0,0,0,0,0],"trees":[{"base_weights":[-1.7087542E-3,-6.259217E-1,2.5119174E0,-8.154894E-1,5.9802675E-1,4.307113E-1,4.0534E0,8.710731E-1,-9.2010945E-1,1.8451698E-1,7.9651065E-2,2.980137E0,-1.4347269E-1,1.8360046E0,5.019429E0,-1.7810876E-2,1.843618E-1,-9.4961566E-1,1.2766991E0,-5.092476E-1,1.8301741E0,1.8774384E0,1.841466E-1,-5.948382E-1,2.7717235E0,5.138322E-1,4.4284697E0,3.632413E0,5.908752E0,-4.473255E-1,5.119649E0,-9.944098E-1,-2.633242E-1,-8.504433E-1,2.561312E0,-6.0632586E-1,2.3536692E0,2.3101489E-1,2.6074743E0,1.5913665E0,1.6035165E-1,-7.2771585E-1,4.62129E-1,1.6029081E0,4.616139E0,1.8280564E-1,1.8866627E-1,5.340903E0,2.4786985E0,5.954239E0,2.1777592E0,2.7563689E0,6.1470704E0,-6.867845E-1,1.2402593E0,-2.8916E-3,5.6579757E0,-1.0459063E0,-7.663573E-1,1.8400191E-1,-8.1712466E-1,-1.0626105E0,2.5992326E-2,4.614629E0,1.1394395E0,-9.6469903E-1,-1.1094665E-1,5.793197E-1,1.6936442E-1,7.1464024E-2,1.1167884E-1,1.8350032E-1,2.1246917E0,5.077202E0,1.410985E0,-7.990489E-1,1.2866026E0,1.7865033E-1,1.04095E-1,1.8167938E-1,8.555838E-1,3.65512E-2,5.0153236E0,7.833584E-1,-7.098145E-1,5.6360817E0,8.4973055E-1,1.7943412E-1,1.9517663E0,5.2735415E0,1.8408705E-1,4.744933E0,5.163741E-1,1.3238457E0,4.784149E0,6.289845E0,2.988255E0,-3.2528102E-2,-1.5502969E-2,1.8122141E-1,6.187733E-3,1.6751263E-1,9.432327E-2,-2.6977452E-2,-3.1656027E-2,-2.3455687E-2,-2.9437086E-3,-2.3255251E-2,6.405804E-2,-6.6660647E-3,-3.140299E-2,-1.8270139E-3,1.4984268E-1,1.3650574E-1,1.7690716E-2,-3.162222E-2,-2.0453215E-2,1.7865033E-1,-5.3812456E-3,-1.5175689E-2,9.2556946E-2,-2.0082803E-3,7.107131E-2,1.5826382E-3,7.7718794E-2,1.5830268E-1,1.1387348E-1,1.99853E-2,6.1691422E-2,5.1549613E-3,-2.329225E-2,1.6705757E-1,-2.0410663E-2,-5.489336E-3,7.161802E-2,-8.820447E-3,5.8173217E-2,1.4541022E-1,7.4354544E-2,1.4572657E-2,1.8068407E-1,-2.286672E-2,7.499412E-2,9.8600805E-2,1.6856104E-1,4.579756E-4,4.5396775E-2,3.8346164E-2,1.362087E-1,1.5142432E-1,3.3024415E-2,1.840971E-1,8.931004E-2,1.8170577E-1,2.7725797E-3,9.45111E-3,1.03550084E-1,4.9611628E-2,1.5818024E-1,1.7589979E-1,1.0152387E-1,1.2962386E-1,4.27434E-2],"categories":[],"categories_nodes":[],"categories_segments":[],"categories_sizes":[],"default_left":[0,0,0,0,0,0,0,0,0,0,0,0,0,0,0,0,0,0,0,0,0,0,0,0,0,0,0,0,0,0,0,0,0,0,0,0,0,0,0,0,0,0,0,0,0,0,0,0,0,0,0,0,0,0,0,0,0,0,0,0,0,0,0,0,0,0,0,0,0,0,0,0,0,0,0,0,0,0,0,0,0,0,0,0,0,0,0,0,0,0,0,0,0,0,0,0,0,0,0,0,0,0,0,0,0,0,0,0,0,0,0,0,0,0,0,0,0,0,0,0,0,0,0,0,0,0,0,0,0,0,0,0,0,0,0,0,0,0,0,0,0,0,0,0,0,0,0,0,0,0,0,0,0,0,0,0,0,0,0,0,0,0,0],"id":0,"left_children":[1,3,5,7,9,11,13,15,17,-1,19,21,23,25,27,29,-1,31,33,35,37,39,-1,41,43,45,47,49,51,53,55,57,59,61,63,65,67,69,71,73,-1,75,77,79,81,-1,83,85,87,89,91,93,95,97,99,-1,101,103,105,-1,107,109,-1,111,113,115,117,119,-1,121,-1,-1,123,125,127,129,131,-1,133,-1,135,-1,137,139,141,143,145,-1,147,149,-1,151,153,155,157,159,161,-1,-1,-1,-1,-1,-1,-1,-1,-1,-1,-1,-1,-1,-1,-1,-1,-1,-1,-1,-1,-1,-1,-1,-1,-1,-1,-1,-1,-1,-1,-1,-1,-1,-1,-1,-1,-1,-1,-1,-1,-1,-1,-1,-1,-1,-1,-1,-1,-1,-1,-1,-1,-1,-1,-1,-1,-1,-1,-1,-1,-1,-1,-1,-1,-1,-1],"loss_changes":[9.428916E4,1.1169738E4,3.834947E4,7.355629E3,2.0275807E4,7.4482505E3,1.4702891E4,1.2511841E4,2.544957E3,0E0,6.1328135E3,3.7675088E3,5.46538E3,7.1448706E3,5.882617E3,4.659142E3,0E0,1.1901914E3,1.4239604E3,1.2378499E3,1.86054E3,7.967151E2,0E0,5.0546265E2,1.1939575E3,2.730194E3,1.2416084E3,6.307035E3,2.1746406E3,7.880831E2,4.5960938E2,4.2603906E2,9.077442E3,7.527135E1,9.43072E2,7.6416455E2,9.697855E2,2.9636255E2,1.9400923E3,4.1603674E2,0E0,4.5982043E2,8.5932294E2,1.2602107E3,2.777422E2,0E0,7.016792E2,6.302656E2,4.6472534E2,3.091328E2,4.907506E3,5.9300757E2,1.2058203E3,1.05131775E2,1.3033196E3,0E0,1.1168945E2,2.0592188E2,3.529895E2,0E0,1.514342E2,9.715927E0,0E0,4.9220972E2,3.625686E2,9.883081E1,9.86126E2,3.129871E2,0E0,1.6982481E2,0E0,0E0,1.2638499E3,1.2336426E0,3.5794617E2,1.2571399E2,1.0540979E3,0E0,2.8554745E2,0E0,4.3574072E2,0E0,9.158545E1,1.1636925E3,2.0692502E2,3.9820117E2,1.9644974E1,0E0,3.316729E2,2.7650293E2,0E0,1.2888125E3,1.7577944E3,2.8715552E2,2.2596997E2,3.6295312E2,2.8298267E2,0E0,0E0,0E0,0E0,0E0,0E0,0E0,0E0,0E0,0E0,0E0,0E0,0E0,0E0,0E0,0E0,0E0,0E0,0E0,0E0,0E0,0E0,0E0,0E0,0E0,0E0,0E0,0E0,0E0,0E0,0E0,0E0,0E0,0E0,0E0,0E0,0E0,0E0,0E0,0E0,0E0,0E0,0E0,0E0,0E0,0E0,0E0,0E0,0E0,0E0,0E0,0E0,0E0,0E0,0E0,0E0,0E0,0E0,0E0,0E0,0E0,0E0,0E0,0E0,0E0,0E0],"parents":[2147483647,0,0,1,1,2,2,3,3,4,4,5,5,6,6,7,7,8,8,10,10,11,11,12,12,13,13,14,14,15,15,17,17,18,18,19,19,20,20,21,21,23,23,24,24,25,25,26,26,27,27,28,28,29,29,30,30,31,31,32,32,33,33,34,34,35,35,36,36,37,37,38,38,39,39,41,41,42,42,43,43,44,44,46,46,47,47,48,48,49,49,50,50,51,51,52,52,53,53,54,54,56,56,57,57,58,58,60,60,61,61,63,63,64,64,65,65,66,66,67,67,69,69,72,72,73,73,74,74,75,75,76,76,78,78,80,80,82,82,83,83,84,84,85,85,86,86,88,88,89,89,91,91,92,92,93,93,94,94,95,95,96,96],"right_children":[2,4,6,8,10,12,14,16,18,-1,20,22,24,26,28,30,-1,32,34,36,38,40,-1,42,44,46,48,50,52,54,56,58,60,62,64,66,68,70,72,74,-1,76,78,80,82,-1,84,86,88,90,92,94,96,98,100,-1,102,104,106,-1,108,110,-1,112,114,116,118,120,-1,122,-1,-1,124,126,128,130,132,-1,134,-1,136,-1,138,140,142,144,146,-1,148,150,-1,152,154,156,158,160,162,-1,-1,-1,-1,-1,-1,-1,-1,-1,-1,-1,-1,-1,-1,-1,-1,-1,-1,-1,-1,-1,-1,-1,-1,-1,-1,-1,-1,-1,-1,-1,-1,-1,-1,-1,-1,-1,-1,-1,-1,-1,-1,-1,-1,-1,-1,-1,-1,-1,-1,-1,-1,-1,-1,-1,-1,-1,-1,-1,-1,-1,-1,-1,-1,-1,-1],"split_conditions":[4.9266428E-2,9.328E-1,1.0652628E0,1E0,1E0,1E0,3.7922364E-2,1.3124771E-1,2.0833492E0,1.8451698E-1,3.4043025E-2,1.3124771E-1,1.5346293E0,9.328E-1,3.1612356E0,2.2196562E0,1.843618E-1,9.3140006E-1,1.6414465E-2,9.9E1,1.0260915E0,1.0465137E0,1.841466E-1,1.0056268E0,1.195E2,2E0,1E0,1E0,1.6414465E-2,1.0652628E0,5.7184592E-2,3.4331996E-2,1E0,1.1396086E1,1.5E1,2.5785432E-6,1.31E3,1.0686804E0,2E0,3E0,1.6035165E-1,1E0,2E0,1E0,1.2694179E-1,1.8280564E-1,1E0,1E0,1E0,1.6466656E-1,1E0,1.1264754E1,4.025231E2,1.7938931E-1,2E0,-2.8916E-3,2E0,1E0,3.3565074E-2,1.8400191E-1,1E1,9.3E1,2.5992326E-2,3.1612356E0,3E0,2.66E2,1E0,1.0080128E0,1.6936442E-1,2.0833492E0,1.1167884E-1,1.8350032E-1,2.0746922E0,2E0,1.1727761E-1,4E0,1.2999491E-1,1.7865033E-1,1.5795E2,1.8167938E-1,4.69E1,3.65512E-2,1E0,1.3719395E-2,2.0014782E-2,7.306924E-2,3.1612356E0,1.7943412E-1,1.213883E1,1.9959459E0,1.8408705E-1,1E0,2E0,1.0465137E0,1.115791E-1,1E0,1E1,-3.2528102E-2,-1.5502969E-2,1.8122141E-1,6.187733E-3,1.6751263E-1,9.432327E-2,-2.6977452E-2,-3.1656027E-2,-2.3455687E-2,-2.9437086E-3,-2.3255251E-2,6.405804E-2,-6.6660647E-3,-3.140299E-2,-1.8270139E-3,1.4984268E-1,1.3650574E-1,1.7690716E-2,-3.162222E-2,-2.0453215E-2,1.7865033E-1,-5.3812456E-3,-1.5175689E-2,9.2556946E-2,-2.0082803E-3,7.107131E-2,1.5826382E-3,7.7718794E-2,1.5830268E-1,1.1387348E-1,1.99853E-2,6.1691422E-2,5.1549613E-3,-2.329225E-2,1.6705757E-1,-2.0410663E-2,-5.489336E-3,7.161802E-2,-8.820447E-3,5.8173217E-2,1.4541022E-1,7.4354544E-2,1.4572657E-2,1.8068407E-1,-2.286672E-2,7.499412E-2,9.8600805E-2,1.6856104E-1,4.579756E-4,4.5396775E-2,3.8346164E-2,1.362087E-1,1.5142432E-1,3.3024415E-2,1.840971E-1,8.931004E-2,1.8170577E-1,2.7725797E-3,9.45111E-3,1.03550084E-1,4.9611628E-2,1.5818024E-1,1.7589979E-1,1.0152387E-1,1.2962386E-1,4.27434E-2],"split_indices":[278,217,11,24,194,24,202,24,14,0,278,24,169,217,11,11,0,209,183,237,194,128,0,183,217,11,277,24,183,11,14,278,184,11,30,276,217,200,194,237,0,300,183,138,19,0,110,275,194,23,100,22,23,273,11,0,165,110,187,0,196,243,0,11,23,233,277,144,0,14,0,0,194,234,278,237,240,0,215,0,214,0,303,110,181,278,11,0,11,194,0,202,11,128,278,261,29,0,0,0,0,0,0,0,0,0,0,0,0,0,0,0,0,0,0,0,0,0,0,0,0,0,0,0,0,0,0,0,0,0,0,0,0,0,0,0,0,0,0,0,0,0,0,0,0,0,0,0,0,0,0,0,0,0,0,0,0,0,0,0,0,0,0],"split_type":[0,0,0,0,0,0,0,0,0,0,0,0,0,0,0,0,0,0,0,0,0,0,0,0,0,0,0,0,0,0,0,0,0,0,0,0,0,0,0,0,0,0,0,0,0,0,0,0,0,0,0,0,0,0,0,0,0,0,0,0,0,0,0,0,0,0,0,0,0,0,0,0,0,0,0,0,0,0,0,0,0,0,0,0,0,0,0,0,0,0,0,0,0,0,0,0,0,0,0,0,0,0,0,0,0,0,0,0,0,0,0,0,0,0,0,0,0,0,0,0,0,0,0,0,0,0,0,0,0,0,0,0,0,0,0,0,0,0,0,0,0,0,0,0,0,0,0,0,0,0,0,0,0,0,0,0,0,0,0,0,0,0,0],"sum_hessian":[6.009238E4,4.813865E4,1.1953731E4,4.1683086E4,6.4555635E3,5.0868545E3,6.8668774E3,2.4342236E3,3.924886E4,5.0808618E2,5.947477E3,9.345726E2,4.1522817E3,2.0844922E3,4.7823853E3,2.1103745E3,3.2384915E2,3.872917E4,5.1968866E2,4.450631E3,1.4968461E3,7.1922565E2,2.1534694E2,3.5961282E3,5.5615356E2,1.3810764E3,7.0341565E2,1.8699102E3,2.9124749E3,1.948195E3,1.6217958E2,3.6355637E4,2.373534E3,1.9571199E2,3.2397665E2,4.3052812E3,1.4534962E2,4.8998123E2,1.00686487E3,6.7115826E2,4.8067375E1,3.1948867E3,4.0124146E2,3.4131662E2,2.1483694E2,6.935982E1,1.3117166E3,4.7825125E2,2.2516441E2,7.1935315E2,1.150557E3,2.0540196E2,2.707073E3,1.7065831E3,2.4161188E2,1.5172461E1,1.4700713E2,2.9655658E4,6.69998E3,1.7569455E2,2.1978394E3,1.7531204E2,2.0399948E1,1.3183466E2,1.92142E2,2.4974636E3,1.8078179E3,9.932224E1,4.602738E1,4.709838E2,1.899745E1,1.07099724E2,8.997652E2,3.200242E1,6.391558E2,3.0861294E3,1.0875722E2,2.1929943E1,3.7931152E2,4.3987385E1,2.9732922E2,2.3587439E1,1.9124951E2,7.8947797E2,5.2223865E2,4.4854382E2,2.9707422E1,2.5244934E1,1.9991948E2,3.6464905E2,3.5470407E2,4.5147632E2,6.990807E2,1.2112469E2,8.427728E1,2.5892632E3,1.1780969E2,3.526641E2,1.353919E3,3.82499E1,2.0336197E2,1.24439674E2,2.2567442E1,1.6898807E4,1.2756852E4,5.976547E3,7.234331E2,2.1831768E3,1.4662462E1,1.4279963E1,1.6103209E2,1.912495E1,1.1270971E2,2.1674944E1,1.7046706E2,1.4036439E3,1.0938197E3,2.1929943E1,1.7858878E3,7.088982E1,2.8432426E1,4.4586633E2,2.5117435E1,2.2274193E2,6.7702325E2,1.7084955E1,1.4917461E1,3.469266E2,2.9222925E2,1.2380218E2,2.9623274E3,3.2129917E1,7.6627304E1,3.3863913E2,4.0672394E1,1.531271E2,1.4420213E2,1.7314455E2,1.8104954E1,7.5632806E2,3.3149914E1,5.057912E2,1.6447458E1,8.032479E1,3.6821906E2,1.4917461E1,1.4789962E1,1.6868207E2,3.123742E1,3.482016E2,1.6447458E1,1.9991948E2,2.5155685E2,4.4369884E1,6.547108E2,8.6699776E1,3.442491E1,2.0399948E1,6.3877335E1,2.534056E3,5.5207355E1,5.3549862E1,6.4259834E1],"tree_param":{"num_deleted":"0","num_feature":"304","num_nodes":"163","size_leaf_vector":"1"}},{"base_weights":[-2.689951E-3,-6.164462E-1,2.3208733E0,-7.63523E-1,9.0345186E-1,7.3552394E-1,3.8389034E0,8.720561E-1,-8.674947E-1,1.6428529E-1,1.7678472E-1,3.3221357E0,-1.1927257E-3,6.881275E-1,4.5550404E0,-2.2789298E-2,1.5871601E-1,-9.0506804E-1,6.432276E-1,-4.3620944E-1,1.8672844E0,2.5152042E0,1.583305E-1,-5.387816E-1,2.267102E0,-1.7437337E-1,2.9726243E0,4.726723E0,1.05024725E-1,-4.068661E-1,3.5678365E0,-9.4904065E-1,9.003283E-2,3.028641E-1,1.678142E-1,-5.8484316E-1,3.1841538E0,4.1152054E-1,2.7993095E0,1.8624101E0,4.5197654E0,-5.8484477E-1,1.2910988E0,1.6093975E-1,1.816225E0,-3.5968372E-1,2.971388E0,2.9446635E-1,3.811848E0,4.9965672E0,2.9173787E0,-5.312463E-1,1.0721369E-1,1.5015493E-1,-4.6505946E-1,4.9820037E0,4.0987816E-1,-1.0283487E0,-6.6777766E-1,1.6281416E-1,-5.5944884E-1,-5.597335E-2,3.4519482E0,-9.73345E-1,-1.1075846E-1,8.667364E-1,5.035529E0,-1.473773E-1,1.3041052E0,1.6510151E-1,2.091294E0,4.4508224E0,1.561258E0,1.1760511E-2,4.8067036E0,1.3644838E0,-6.197012E-1,-4.7025153E-1,2.1269684E0,2.1203814E-1,3.0503373E0,-5.997971E-1,6.643109E-1,1.3341305E-1,-8.2035497E-4,1.2450823E0,-3.5881194E-1,4.644938E0,1.4321032E0,4.4542017E0,5.4618897E0,1.1678796E0,4.516246E0,-9.712342E-1,1.7190816E-2,-1.6272273E-2,4.558763E-2,7.007676E-2,1.4969502E-1,-1.0444595E-2,8.865448E-2,-2.963917E-2,-2.354355E-2,-1.986497E-2,1.7265674E-1,1.3448068E-1,-1.7183645E-2,8.91295E-2,-8.043981E-3,-1.9545994E-4,1.2080906E-1,-3.0974232E-2,-2.1041064E-2,-1.1864456E-2,2.1217322E-2,-4.1209906E-3,8.7323464E-2,8.139756E-2,1.5825003E-1,-1.1612359E-2,2.871727E-2,1.1907555E-2,6.603042E-2,4.00939E-2,1.300313E-1,6.586924E-2,1.3754165E-1,1.0558458E-2,5.324614E-2,5.0516803E-2,1.3886358E-1,-2.8969748E-2,1.288933E-1,-1.8244136E-2,2.8366424E-2,3.4520235E-3,-2.7597327E-2,-9.798347E-4,7.582663E-2,-1.5933305E-3,5.449412E-2,1.6646352E-1,7.116711E-2,-1.9069217E-2,1.9025113E-2,-1.3097919E-2,5.468592E-2,6.365022E-2,-1.5345342E-3,8.580055E-3,-2.3687324E-2,1.396836E-1,6.6361874E-2,-4.352121E-3,1.2585445E-1,9.1380745E-2,1.4597143E-1,1.3523376E-1,1.5437762E-1,1.4782886E-2,8.879068E-2,1.4073163E-1,6.090985E-2,-2.9031837E-2,-1.4539625E-2,4.9487364E-2,-1.1581881E-2],"categories":[],"categories_nodes":[],"categories_segments":[],"categories_sizes":[],"default_left":[0,0,0,0,0,0,0,0,0,0,0,0,0,0,0,0,0,0,0,0,0,0,0,0,0,0,0,0,0,0,0,0,0,0,0,0,0,0,0,0,0,0,0,0,0,0,0,0,0,0,0,0,0,0,0,0,0,0,0,0,0,0,0,0,0,0,0,0,0,0,0,0,0,0,0,0,0,0,0,0,0,0,0,0,0,0,0,0,0,0,0,0,0,0,0,0,0,0,0,0,0,0,0,0,0,0,0,0,0,0,0,0,0,0,0,0,0,0,0,0,0,0,0,0,0,0,0,0,0,0,0,0,0,0,0,0,0,0,0,0,0,0,0,0,0,0,0,0,0,0,0,0,0,0,0,0,0,0,0,0,0,0,0,0,0,0,0],"id":1,"left_children":[1,3,5,7,9,11,13,15,17,-1,19,21,23,25,27,29,-1,31,33,35,37,39,-1,41,43,45,47,49,51,53,55,57,59,61,-1,63,65,67,69,71,73,75,77,-1,79,81,83,85,87,89,91,93,-1,-1,95,97,99,101,103,-1,105,107,109,111,113,115,117,119,121,-1,123,125,127,-1,129,131,133,135,137,139,141,143,145,-1,-1,147,149,151,153,155,157,159,161,163,165,-1,-1,-1,-1,-1,-1,-1,-1,-1,-1,-1,-1,-1,-1,-1,-1,-1,-1,-1,-1,-1,-1,-1,-1,-1,-1,-1,-1,-1,-1,-1,-1,-1,-1,-1,-1,-1,-1,-1,-1,-1,-1,-1,-1,-1,-1,-1,-1,-1,-1,-1,-1,-1,-1,-1,-1,-1,-1,-1,-1,-1,-1,-1,-1,-1,-1,-1,-1,-1,-1,-1,-1],"loss_changes":[8.584386E4,1.064491E4,3.026679E4,7.3836953E3,1.5335105E4,1.1726582E4,1.4494156E4,1.127363E4,2.3176465E3,0E0,3.805306E3,2.6188271E3,5.8415127E3,2.3472366E3,3.998211E3,3.023304E3,0E0,1.7431523E3,1.8224983E3,1.4509514E3,1.3244346E3,1.3289585E3,0E0,3.2685974E2,1.4554497E3,5.0455185E2,7.321526E2,2.4488828E3,4.6959497E2,6.722168E2,9.435149E2,8.5008984E2,6.337275E3,1.0552046E3,0E0,4.76601E2,4.5192505E2,1.9110736E2,1.320686E3,5.953003E2,2.9163477E2,2.572002E2,1.4123259E2,0E0,1.6127751E3,2.013125E2,2.67119E2,4.938668E1,4.8659595E2,1.0871953E3,1.8300674E3,4.0637867E1,0E0,0E0,5.0545578E2,1.3875781E2,1.469679E2,2.170039E2,2.8322083E3,0E0,4.977214E2,6.42497E2,3.003507E2,4.2954224E1,3.2465564E2,1.12551125E2,6.950891E1,7.5927055E1,1.3772156E2,0E0,8.1140894E2,7.486499E1,2.9299768E2,0E0,1.3375928E2,5.307383E2,2.3523132E2,9.995291E0,8.5842865E1,1.6840483E2,6.44437E2,7.5506165E1,2.3229443E2,0E0,0E0,4.4744972E1,1.5904095E1,1.5288281E2,3.2505005E2,1.8928633E3,1.261875E2,4.0396683E2,4.3594727E2,2.4712372E0,5.858748E1,0E0,0E0,0E0,0E0,0E0,0E0,0E0,0E0,0E0,0E0,0E0,0E0,0E0,0E0,0E0,0E0,0E0,0E0,0E0,0E0,0E0,0E0,0E0,0E0,0E0,0E0,0E0,0E0,0E0,0E0,0E0,0E0,0E0,0E0,0E0,0E0,0E0,0E0,0E0,0E0,0E0,0E0,0E0,0E0,0E0,0E0,0E0,0E0,0E0,0E0,0E0,0E0,0E0,0E0,0E0,0E0,0E0,0E0,0E0,0E0,0E0,0E0,0E0,0E0,0E0,0E0,0E0,0E0,0E0,0E0,0E0,0E0],"parents":[2147483647,0,0,1,1,2,2,3,3,4,4,5,5,6,6,7,7,8,8,10,10,11,11,12,12,13,13,14,14,15,15,17,17,18,18,19,19,20,20,21,21,23,23,24,24,25,25,26,26,27,27,28,28,29,29,30,30,31,31,32,32,33,33,35,35,36,36,37,37,38,38,39,39,40,40,41,41,42,42,44,44,45,45,46,46,47,47,48,48,49,49,50,50,51,51,54,54,55,55,56,56,57,57,58,58,60,60,61,61,62,62,63,63,64,64,65,65,66,66,67,67,68,68,70,70,71,71,72,72,74,74,75,75,76,76,77,77,78,78,79,79,80,80,81,81,82,82,85,85,86,86,87,87,88,88,89,89,90,90,91,91,92,92,93,93,94,94],"right_children":[2,4,6,8,10,12,14,16,18,-1,20,22,24,26,28,30,-1,32,34,36,38,40,-1,42,44,46,48,50,52,54,56,58,60,62,-1,64,66,68,70,72,74,76,78,-1,80,82,84,86,88,90,92,94,-1,-1,96,98,100,102,104,-1,106,108,110,112,114,116,118,120,122,-1,124,126,128,-1,130,132,134,136,138,140,142,144,146,-1,-1,148,150,152,154,156,158,160,162,164,166,-1,-1,-1,-1,-1,-1,-1,-1,-1,-1,-1,-1,-1,-1,-1,-1,-1,-1,-1,-1,-1,-1,-1,-1,-1,-1,-1,-1,-1,-1,-1,-1,-1,-1,-1,-1,-1,-1,-1,-1,-1,-1,-1,-1,-1,-1,-1,-1,-1,-1,-1,-1,-1,-1,-1,-1,-1,-1,-1,-1,-1,-1,-1,-1,-1,-1,-1,-1,-1,-1,-1,-1],"split_conditions":[4.9266428E-2,7.131424E-1,1.0343636E0,1E0,1E0,1E0,1.6414465E-2,1.3124771E-1,2.0443506E0,1.6428529E-1,3.4331996E-2,1.3124771E-1,3.8122706E-2,9.328E-1,9.998541E-1,2.2705708E0,1.5871601E-1,2.0014782E-2,1.2694179E-1,9.9E1,1.0080128E0,1.0687617E0,1.583305E-1,1.305E2,1E0,1.0026649E1,7.843818E-2,1E0,2.0140799E-2,9.7E1,2E0,1.6303813E0,1E0,1.1551878E0,1.678142E-1,7E0,6.492256E2,1.0343636E0,2E0,2.3E1,3.4616087E-2,9.2352286E-2,1.0291374E0,1.6093975E-1,1.0601908E0,3.8122706E-2,2.9E1,1.8006256E0,9.6429026E-1,1.0687617E0,9.652553E-3,-2.876235E-1,1.0721369E-1,1.5015493E-1,1.0343636E0,5.7940596E-1,2.2504702E0,3.4331996E-2,8.617959E0,1.6281416E-1,1E0,2E0,3.4331996E-2,9E0,3.0272403E0,1.3E1,1.031583E0,2.0014782E-2,1.0680257E0,1.6510151E-1,1.1274701E0,5.7940596E-1,3.93657E-2,1.1760511E-2,5.032693E-1,1.0450301E-3,1.0223317E0,2.8E1,9.652553E-3,1.46E2,2E0,5.04243E5,7.843818E-2,1.3341305E-1,-8.2035497E-4,3.99E2,2.8665353E-2,1.378E4,8.581118E0,9.652553E-3,1.0650231E0,1.0687617E0,8.71E2,5.43E2,9.4189143E-1,-1.6272273E-2,4.558763E-2,7.007676E-2,1.4969502E-1,-1.0444595E-2,8.865448E-2,-2.963917E-2,-2.354355E-2,-1.986497E-2,1.7265674E-1,1.3448068E-1,-1.7183645E-2,8.91295E-2,-8.043981E-3,-1.9545994E-4,1.2080906E-1,-3.0974232E-2,-2.1041064E-2,-1.1864456E-2,2.1217322E-2,-4.1209906E-3,8.7323464E-2,8.139756E-2,1.5825003E-1,-1.1612359E-2,2.871727E-2,1.1907555E-2,6.603042E-2,4.00939E-2,1.300313E-1,6.586924E-2,1.3754165E-1,1.0558458E-2,5.324614E-2,5.0516803E-2,1.3886358E-1,-2.8969748E-2,1.288933E-1,-1.8244136E-2,2.8366424E-2,3.4520235E-3,-2.7597327E-2,-9.798347E-4,7.582663E-2,-1.5933305E-3,5.449412E-2,1.6646352E-1,7.116711E-2,-1.9069217E-2,1.9025113E-2,-1.3097919E-2,5.468592E-2,6.365022E-2,-1.5345342E-3,8.580055E-3,-2.3687324E-2,1.396836E-1,6.6361874E-2,-4.352121E-3,1.2585445E-1,9.1380745E-2,1.4597143E-1,1.3523376E-1,1.5437762E-1,1.4782886E-2,8.879068E-2,1.4073163E-1,6.090985E-2,-2.9031837E-2,-1.4539625E-2,4.9487364E-2,-1.1581881E-2],"split_indices":[278,175,21,24,144,24,183,24,20,0,278,24,138,217,70,12,0,181,19,237,144,86,0,215,138,22,278,188,184,26,191,208,181,85,0,274,208,21,144,233,80,236,191,0,138,138,23,194,83,86,95,235,0,0,21,30,21,278,27,0,188,23,278,237,183,10,54,181,182,0,61,30,204,0,27,269,122,30,95,213,138,253,278,0,0,3,242,2,22,95,16,86,233,3,102,0,0,0,0,0,0,0,0,0,0,0,0,0,0,0,0,0,0,0,0,0,0,0,0,0,0,0,0,0,0,0,0,0,0,0,0,0,0,0,0,0,0,0,0,0,0,0,0,0,0,0,0,0,0,0,0,0,0,0,0,0,0,0,0,0,0,0,0,0,0,0,0],"split_type":[0,0,0,0,0,0,0,0,0,0,0,0,0,0,0,0,0,0,0,0,0,0,0,0,0,0,0,0,0,0,0,0,0,0,0,0,0,0,0,0,0,0,0,0,0,0,0,0,0,0,0,0,0,0,0,0,0,0,0,0,0,0,0,0,0,0,0,0,0,0,0,0,0,0,0,0,0,0,0,0,0,0,0,0,0,0,0,0,0,0,0,0,0,0,0,0,0,0,0,0,0,0,0,0,0,0,0,0,0,0,0,0,0,0,0,0,0,0,0,0,0,0,0,0,0,0,0,0,0,0,0,0,0,0,0,0,0,0,0,0,0,0,0,0,0,0,0,0,0,0,0,0,0,0,0,0,0,0,0,0,0,0,0,0,0,0,0],"sum_hessian":[6.0193555E4,4.7616527E4,1.2577026E4,4.3415777E4,4.20075E3,6.152689E3,6.4243374E3,2.5945005E3,4.0821277E4,5.3017664E2,3.6705735E3,1.3634247E3,4.789264E3,1.190074E3,5.234263E3,2.191221E3,4.032796E2,3.983105E4,9.902265E2,2.6940898E3,9.7648346E2,1.0204517E3,3.4297302E2,3.872187E3,9.1707697E2,8.643337E2,3.2574023E2,5.0397407E3,1.945228E2,1.9801106E3,2.1111028E2,3.8145656E4,1.6853944E3,9.32378E2,5.784853E1,2.58848E3,1.056099E2,3.816382E2,5.948453E2,7.7089764E2,2.4955406E2,3.7776895E3,9.4497696E1,1.0261144E2,8.144655E2,8.1691315E2,4.7420567E1,7.800726E1,2.4773297E2,4.384464E3,6.552767E2,1.6687657E2,2.7646214E1,1.8897318E1,1.9612133E3,1.4548273E2,6.562755E1,2.975344E4,8.392218E3,1.6959288E2,1.5158015E3,8.375856E2,9.4792435E1,1.4220089E3,1.1664711E3,4.741973E1,5.8190166E1,2.349269E2,1.467113E2,1.0793269E2,4.8691257E2,7.9237366E1,6.916603E2,1.6500736E1,2.3305333E2,6.578147E1,3.711908E3,3.044056E1,6.405714E1,3.5457166E2,4.5989383E2,6.621376E2,1.5477559E2,2.9154556E1,1.826601E1,3.1625292E1,4.6381973E1,1.829256E2,6.480738E1,2.0283488E3,2.3561152E3,3.135544E2,3.4172223E2,9.247726E1,7.439932E1,1.8545844E3,1.0662888E2,2.200838E1,1.2347434E2,5.1621616E1,1.4005931E1,2.4209941E4,5.543498E3,8.333814E3,5.840283E1,1.6087555E1,1.499714E3,5.529156E1,7.82294E2,1.9788738E1,7.500369E1,8.4779144E2,5.742175E2,8.568109E2,3.0966022E2,3.3234898E1,1.4184834E1,1.5150326E1,4.303984E1,1.9159128E2,4.333563E1,8.166024E1,6.505106E1,3.911087E2,9.580385E1,1.6550112E1,6.2687252E1,1.6202216E2,5.296381E2,1.5369529E1,2.1768379E2,3.820079E1,2.758068E1,3.6274758E3,8.443201E1,1.4365145E1,1.6075413E1,1.4150605E1,4.9906532E1,3.0785593E2,4.6715744E1,6.3369392E1,3.9652444E2,6.201158E2,4.2021744E1,8.299212E1,7.178348E1,1.7263264E1,1.4362027E1,1.9703747E1,2.6678226E1,1.5481377E2,2.8111834E1,4.329764E1,2.1509737E1,8.378981E2,1.1904508E3,3.7256442E2,1.9835507E3,2.3980229E2,7.3752106E1,2.7439923E2,6.732301E1,7.781013E1,1.466713E1,1.4333716E1,6.0065605E1],"tree_param":{"num_deleted":"0","num_feature":"304","num_nodes":"167","size_leaf_vector":"1"}},{"base_weights":[-3.1534168E-3,-3.4805357E-1,3.1635907E0,1.8379219E0,-5.687594E-1,1.7376606E0,4.431674E0,8.758574E-1,1.4113517E-1,-8.252668E-1,9.855653E-1,1.464944E-1,5.3009516E-1,4.892311E0,1.8702612E0,3.0195845E-2,3.1044257E0,-9.3231714E-1,-3.415425E-1,-3.6116038E-2,1.937565E0,3.7060645E0,9.64878E-2,4.9304967E0,3.0052524E0,3.8010893E0,9.353007E-1,-3.4760642E-1,1.3612307E0,3.699884E0,-8.5192755E-2,-9.495341E-1,3.7514186E-1,5.642986E0,-6.863571E-1,-3.6784184E-1,1.1718526E0,3.9840147E-1,2.4779212E0,5.236024E-1,4.307855E0,-2.9713094E-1,1.5662564E0,3.3274128E0,4.965737E0,3.005294E-3,4.1058297E0,2.5546553E0,1.4488749E-1,2.4251387E-1,3.0875568E0,-3.9743525E-1,1.4699252E-1,6.921377E-1,3.5958877E0,-3.186289E-2,3.9230323E0,4.6239248E-1,-2.6967946E-2,-8.0424625E-1,-1.0728004E0,1.5617919E-1,-3.557207E-1,5.9954348E0,1.4486893E-1,-9.752187E-1,-3.6245227E-1,-9.2720544E-1,1.8039843E-1,7.174939E-2,2.2806182E0,9.827331E-1,-3.9578128E-1,1.4947116E-1,2.0501704E0,4.6630662E-2,-2.823311E-2,2.6559098E0,4.841433E0,-6.7223674E-1,5.8133274E-1,3.1155164E0,-2.0077594E-1,4.3511417E-2,4.2911263E0,3.2835321E0,4.987711E0,6.988708E-2,1.3708222E-1,3.98522E-3,3.6607263E0,-1.04503356E-1,1.7056578E0,3.8330646E0,5.492264E-3,-1.4517496E-2,1.8157013E-2,1.2795534E-2,1.325134E-1,1.582629E-1,6.772244E-2,1.1929028E-1,5.9050053E-2,-2.0889137E-3,4.4997625E-2,-2.366121E-2,2.2879506E-2,-3.0030284E-2,-1.2351777E-2,-2.074625E-2,8.568011E-2,1.7098032E-1,1.4685553E-1,-2.8173879E-2,-9.804979E-3,-1.9242264E-2,8.885367E-3,-2.6834343E-2,4.2063806E-2,-2.3480228E-3,6.0885128E-2,8.4698394E-2,-4.0077586E-3,1.6198091E-2,8.294609E-2,1.9865878E-2,1.4591213E-1,-1.5592366E-2,9.038505E-2,3.6809634E-2,9.963463E-2,4.6343967E-2,1.3494594E-1,1.03505395E-1,1.373242E-1,1.523517E-2,-2.3206221E-2,1.4327341E-1,1.0019813E-2,1.844282E-2,1.1992125E-1,2.6944427E-2,-2.2416096E-2,9.5462576E-2,1.3552283E-1,3.3510733E-2,1.2986681E-1,1.3877054E-1,8.970318E-2,1.2468289E-1,2.8644418E-2,-8.867485E-3,6.782283E-2,-1.3480075E-2,9.003359E-2,7.8994915E-2,1.296368E-1],"categories":[],"categories_nodes":[],"categories_segments":[],"categories_sizes":[],"default_left":[0,0,0,0,0,0,0,0,0,0,0,0,0,0,0,0,0,0,0,0,0,0,0,0,0,0,0,0,0,0,0,0,0,0,0,0,0,0,0,0,0,0,0,0,0,0,0,0,0,0,0,0,0,0,0,0,0,0,0,0,0,0,0,0,0,0,0,0,0,0,0,0,0,0,0,0,0,0,0,0,0,0,0,0,0,0,0,0,0,0,0,0,0,0,0,0,0,0,0,0,0,0,0,0,0,0,0,0,0,0,0,0,0,0,0,0,0,0,0,0,0,0,0,0,0,0,0,0,0,0,0,0,0,0,0,0,0,0,0,0,0,0,0,0,0,0,0,0,0,0,0,0,0,0,0,0,0],"id":2,"left_children":[1,3,5,7,9,11,13,15,-1,17,19,-1,21,23,25,27,29,31,33,35,37,39,41,43,45,47,49,51,53,55,57,59,61,63,65,67,69,71,73,75,77,79,81,83,85,-1,87,89,-1,91,93,95,-1,97,99,-1,101,103,-1,105,107,-1,109,111,-1,113,115,117,119,121,123,125,127,-1,129,-1,-1,131,133,135,137,139,141,-1,143,145,147,-1,-1,-1,149,151,153,155,-1,-1,-1,-1,-1,-1,-1,-1,-1,-1,-1,-1,-1,-1,-1,-1,-1,-1,-1,-1,-1,-1,-1,-1,-1,-1,-1,-1,-1,-1,-1,-1,-1,-1,-1,-1,-1,-1,-1,-1,-1,-1,-1,-1,-1,-1,-1,-1,-1,-1,-1,-1,-1,-1,-1,-1,-1,-1,-1,-1,-1,-1,-1],"loss_changes":[6.566838E4,2.6159168E4,1.0670953E4,1.5560906E4,1.9635531E4,1.1909313E4,3.6792656E3,7.233539E3,0E0,2.1885117E3,6.785832E3,0E0,2.8572014E3,1.7857031E2,8.586532E2,1.4002394E3,2.0062705E3,7.794961E2,1.5811507E4,1.3488048E3,3.0023271E3,4.747959E2,1.0575244E3,1.3301562E2,1.7255615E2,2.6524097E2,4.8011926E2,6.1116736E2,9.178815E2,9.6668945E2,8.148682E1,6.108301E2,1.7330756E3,3.6447266E1,6.773257E2,8.102189E2,8.839561E2,4.3632196E2,3.322711E3,7.37578E1,1.7388135E2,4.7531085E2,1.0581074E3,9.244354E1,8.034375E1,0E0,4.1978516E1,2.2412366E2,0E0,1.248528E2,1.6771423E2,2.860862E2,0E0,4.4482907E2,3.3339026E2,0E0,5.726826E2,6.500096E1,0E0,1.262665E3,1.2224805E2,0E0,5.372197E2,8.0029297E-1,0E0,9.753955E1,7.744089E2,1.3170007E2,7.1371014E2,2.3639325E2,4.3399365E2,6.129089E2,2.4382156E2,0E0,2.5964258E3,0E0,0E0,1.0786603E2,4.5981445E0,2.0411884E2,4.3286908E2,6.076886E2,1.2960313E2,0E0,4.984497E0,9.638449E1,6.874219E1,0E0,0E0,0E0,1.2278784E2,1.093302E2,1.6100233E2,4.0582947E1,0E0,0E0,0E0,0E0,0E0,0E0,0E0,0E0,0E0,0E0,0E0,0E0,0E0,0E0,0E0,0E0,0E0,0E0,0E0,0E0,0E0,0E0,0E0,0E0,0E0,0E0,0E0,0E0,0E0,0E0,0E0,0E0,0E0,0E0,0E0,0E0,0E0,0E0,0E0,0E0,0E0,0E0,0E0,0E0,0E0,0E0,0E0,0E0,0E0,0E0,0E0,0E0,0E0,0E0,0E0,0E0,0E0,0E0,0E0,0E0,0E0,0E0,0E0],"parents":[2147483647,0,0,1,1,2,2,3,3,4,4,5,5,6,6,7,7,9,9,10,10,12,12,13,13,14,14,15,15,16,16,17,17,18,18,19,19,20,20,21,21,22,22,23,23,24,24,25,25,26,26,27,27,28,28,29,29,30,30,31,31,32,32,33,33,34,34,35,35,36,36,37,37,38,38,39,39,40,40,41,41,42,42,43,43,44,44,46,46,47,47,49,49,50,50,51,51,53,53,54,54,56,56,57,57,59,59,60,60,62,62,63,63,65,65,66,66,67,67,68,68,69,69,70,70,71,71,72,72,74,74,77,77,78,78,79,79,80,80,81,81,82,82,84,84,85,85,86,86,90,90,91,91,92,92,93,93],"right_children":[2,4,6,8,10,12,14,16,-1,18,20,-1,22,24,26,28,30,32,34,36,38,40,42,44,46,48,50,52,54,56,58,60,62,64,66,68,70,72,74,76,78,80,82,84,86,-1,88,90,-1,92,94,96,-1,98,100,-1,102,104,-1,106,108,-1,110,112,-1,114,116,118,120,122,124,126,128,-1,130,-1,-1,132,134,136,138,140,142,-1,144,146,148,-1,-1,-1,150,152,154,156,-1,-1,-1,-1,-1,-1,-1,-1,-1,-1,-1,-1,-1,-1,-1,-1,-1,-1,-1,-1,-1,-1,-1,-1,-1,-1,-1,-1,-1,-1,-1,-1,-1,-1,-1,-1,-1,-1,-1,-1,-1,-1,-1,-1,-1,-1,-1,-1,-1,-1,-1,-1,-1,-1,-1,-1,-1,-1,-1,-1,-1,-1,-1],"split_conditions":[1.020725E0,1E0,5.286512E0,1.3124771E-1,9.328E-1,2E0,2.6E1,1.0652628E0,1.4113517E-1,3.3565074E-2,2.458852E-2,1.464944E-1,1E0,1E0,1.5E1,2.4145767E-2,4E0,2.1183863E-2,1E0,5.2981573E-1,9.83148E-3,1.0343636E0,2.1915789E0,2.877325E0,2.9816523E-2,1.25532225E-2,2.1183863E-2,1.5582466E0,9.83148E-3,1.7938931E-1,2E0,3E0,2E0,9.3140006E-1,2.3117205E-2,1.8924284E-6,1.9996164E-2,1.9964652E0,1E0,1.05E2,2.2196562E0,1.0056268E0,2E0,3.9768127E1,6.1494286E1,3.005294E-3,1.5E1,3.3793903E1,1.4488749E-1,1.2330693E1,1.0795E2,8.02637E-1,1.4699252E-1,3.334746E2,1E0,-3.186289E-2,1E0,3.1304725E-2,-2.6967946E-2,1.3719395E-2,1.0605842E0,1.5617919E-1,1.5051103E2,5.0381895E-2,1.4486893E-1,1.75E2,1.0411966E0,1.3460658E-2,1.9718131E-2,4.7E1,1.0652628E0,1.0246049E0,2.0158966E0,1.4947116E-1,2.0014782E-2,4.6630662E-2,-2.823311E-2,1.3124771E-1,3.8723633E1,2E0,2E0,2.2196562E0,4E0,4.3511417E-2,1.2558808E1,8.600236E-2,3.79E2,6.988708E-2,1.3708222E-1,3.98522E-3,3E0,1.1551878E0,1E0,8.799178E-2,5.492264E-3,-1.4517496E-2,1.8157013E-2,1.2795534E-2,1.325134E-1,1.582629E-1,6.772244E-2,1.1929028E-1,5.9050053E-2,-2.0889137E-3,4.4997625E-2,-2.366121E-2,2.2879506E-2,-3.0030284E-2,-1.2351777E-2,-2.074625E-2,8.568011E-2,1.7098032E-1,1.4685553E-1,-2.8173879E-2,-9.804979E-3,-1.9242264E-2,8.885367E-3,-2.6834343E-2,4.2063806E-2,-2.3480228E-3,6.0885128E-2,8.4698394E-2,-4.0077586E-3,1.6198091E-2,8.294609E-2,1.9865878E-2,1.4591213E-1,-1.5592366E-2,9.038505E-2,3.6809634E-2,9.963463E-2,4.6343967E-2,1.3494594E-1,1.03505395E-1,1.373242E-1,1.523517E-2,-2.3206221E-2,1.4327341E-1,1.0019813E-2,1.844282E-2,1.1992125E-1,2.6944427E-2,-2.2416096E-2,9.5462576E-2,1.3552283E-1,3.3510733E-2,1.2986681E-1,1.3877054E-1,8.970318E-2,1.2468289E-1,2.8644418E-2,-8.867485E-3,6.782283E-2,-1.3480075E-2,9.003359E-2,7.8994915E-2,1.296368E-1],"split_indices":[14,24,11,24,217,14,23,11,0,187,279,0,24,261,30,281,1,143,187,273,94,21,16,223,125,54,143,214,94,273,85,36,165,209,279,276,279,97,94,274,11,183,24,231,9,0,11,22,0,223,206,273,0,232,94,0,180,279,0,110,20,0,4,279,0,213,180,297,147,233,11,97,85,0,181,0,0,24,239,23,183,11,23,0,21,280,28,0,0,0,230,85,230,279,0,0,0,0,0,0,0,0,0,0,0,0,0,0,0,0,0,0,0,0,0,0,0,0,0,0,0,0,0,0,0,0,0,0,0,0,0,0,0,0,0,0,0,0,0,0,0,0,0,0,0,0,0,0,0,0,0,0,0,0,0,0,0],"split_type":[0,0,0,0,0,0,0,0,0,0,0,0,0,0,0,0,0,0,0,0,0,0,0,0,0,0,0,0,0,0,0,0,0,0,0,0,0,0,0,0,0,0,0,0,0,0,0,0,0,0,0,0,0,0,0,0,0,0,0,0,0,0,0,0,0,0,0,0,0,0,0,0,0,0,0,0,0,0,0,0,0,0,0,0,0,0,0,0,0,0,0,0,0,0,0,0,0,0,0,0,0,0,0,0,0,0,0,0,0,0,0,0,0,0,0,0,0,0,0,0,0,0,0,0,0,0,0,0,0,0,0,0,0,0,0,0,0,0,0,0,0,0,0,0,0,0,0,0,0,0,0,0,0,0,0,0,0],"sum_hessian":[6.012333E4,5.4218883E4,5.9044463E3,4.9716016E3,4.924728E4,2.7801267E3,3.1243196E3,3.8378364E3,1.1337654E3,4.227172E4,6.975562E3,7.053731E2,2.0747534E3,2.6474722E3,4.7684732E2,2.7827156E3,1.0551207E3,3.4611066E4,7.6606523E3,3.3648823E3,3.6106797E3,2.4852432E2,1.8262291E3,2.5937183E3,5.3754013E1,1.5478E2,3.2206732E2,2.1677969E3,6.1491864E2,8.89085E2,1.6603577E2,3.4161562E4,4.495045E2,4.1670633E2,7.2439463E3,2.640441E3,7.2444147E2,9.386421E2,2.6720376E3,3.9787514E1,2.0873682E2,1.4408124E3,3.8541672E2,5.7393425E1,2.5363247E3,1.5066605E1,3.868741E1,8.374067E1,7.103933E1,2.4431854E2,7.774878E1,2.1495486E3,1.8248253E1,4.7402246E2,1.4089618E2,3.8942055E1,8.5014294E2,1.0277276E2,6.326302E1,1.56833545E4,1.8478207E4,5.428322E1,3.9522125E2,2.2021773E2,1.964886E2,3.8280261E3,3.4159202E3,1.3068872E3,1.3335537E3,3.641149E2,3.6032654E2,5.408057E2,3.9783633E2,3.408367E2,2.331201E3,2.275171E1,1.70358E1,5.210563E1,1.5663118E2,1.0099498E3,4.3086255E2,2.0512643E2,1.802903E2,2.1069075E1,3.632435E1,3.422076E1,2.502104E3,1.4483264E1,2.4204142E1,2.6647968E1,5.7092705E1,1.9791896E2,4.639959E1,6.1562145E1,1.6186634E1,1.9197035E3,2.2984523E2,4.4953052E2,2.4491962E1,4.8650955E1,9.2245224E1,7.0033307E2,1.4980986E2,7.058887E1,3.2183887E1,1.5222563E4,4.607912E2,1.8170188E4,3.0802005E2,3.5535327E2,3.9867977E1,1.716666E2,4.8551125E1,3.5892505E3,2.3877553E2,2.299349E3,1.116571E3,1.2858912E3,2.0995972E1,1.179109E3,1.5444472E2,2.4031742E1,3.4008316E2,1.069826E2,2.5334395E2,5.1000534E2,3.0800417E1,3.811218E2,1.6714548E1,1.589412E3,7.417889E2,3.7006042E1,1.5099588E1,1.6922956E1,1.3970822E2,1.1980107E2,8.901488E2,1.8918667E1,4.119439E2,6.826881E1,1.3685762E2,6.1292587E1,1.1899772E2,1.7190687E1,1.9133661E1,1.4397196E1,1.9823566E1,2.4742063E3,2.789766E1,4.2846764E1,1.4245942E1,1.831629E2,1.475605E1,1.9318369E1,2.7081223E1,3.0002497E1,3.1559649E1],"tree_param":{"num_deleted":"0","num_feature":"304","num_nodes":"157","size_leaf_vector":"1"}},{"base_weights":[-4.7634593E-3,-6.0071003E-1,2.051928E0,-7.4746114E-1,8.25278E-1,3.928058E-1,3.0841126E0,7.7291644E-1,-8.507767E-1,4.819462E0,1.6314805E-1,2.416303E0,-1.4360715E-1,8.430728E-1,3.503913E0,-4.9010754E-2,1.2485959E-1,-8.819585E-1,1.1128656E0,1.3014698E-1,1.4227682E-1,-6.8584216E-1,1.2319773E0,1.6263164E0,1.2486964E-1,-5.7459885E-1,2.2471611E0,3.4062695E-2,2.7539563E0,3.6513395E0,-1.6184486E-1,-4.2234758E-1,3.778878E0,-9.6284854E-1,-3.0753973E-1,-4.1786394E-1,2.2741518E0,-9.8370093E-1,-2.649199E-1,5.182898E-2,2.0517826E0,1.389165E0,4.356505E0,-7.097474E-1,4.214619E-1,2.974035E0,5.0011796E-1,-3.5766402E-1,1.1170619E0,3.5415187E-1,3.4769313E0,2.957349E0,4.151315E0,-5.806931E-1,3.135443E0,-6.2732583E-1,1.1948969E0,2.8575493E-2,4.160029E0,-1.0224295E0,-7.0056236E-1,5.1929665E0,-7.045374E-1,1.6075546E0,-8.220529E-1,4.009137E0,6.0039766E-2,-7.8844666E-1,-1.1165483E0,-4.447865E-1,1.0006108E0,-5.163538E-2,1.1805756E-1,1.3963448E-1,1.4464298E0,5.2226144E-1,1.9137435E0,8.860319E-2,1.2939736E-1,-7.825783E-1,1.2516515E0,1.3287659E-1,7.713964E-2,1.665383E0,3.7381518E0,1.3126248E-1,1.0637604E-1,-5.649793E-1,1.6917872E0,-1.4838952E-1,2.396109E0,1.3013586E0,-8.2751566E-1,4.5759387E0,2.5443723E0,4.7921977E0,2.246162E0,2.5978656E0,4.2945395E0,-7.59462E-1,4.9965855E-1,4.9283493E-2,1.1827349E-1,9.435724E-2,-1.8665707E-2,1.3958804E-1,6.0909935E-3,1.2082428E-1,6.0380634E-2,-3.0991923E-2,-2.6120475E-2,-2.2954727E-2,3.6066812E-3,1.5553395E-1,1.2982321E-1,-2.6435597E-2,-9.183089E-3,9.41407E-2,2.0864373E-3,-2.8604506E-2,-2.180424E-3,5.132624E-2,1.1840476E-1,6.6473976E-2,-1.0184759E-2,-2.9930722E-2,-1.2347083E-2,-3.1384867E-2,-1.2245179E-2,-2.049674E-2,1.1166615E-2,1.410651E-1,4.475279E-3,-7.5396136E-3,2.8021578E-2,2.5442744E-2,1.0675395E-1,3.5897534E-2,-4.749507E-3,1.7195242E-2,6.3145384E-2,-7.5868606E-3,-2.3908576E-2,1.3607268E-1,-2.1739392E-2,-9.311427E-3,4.3270893E-2,1.2514947E-1,2.8531335E-2,1.2506014E-1,8.692571E-2,-1.617652E-2,3.9910547E-2,-1.8500064E-2,1.569424E-2,9.0663776E-2,-5.442784E-3,4.2348783E-2,-1.8379074E-2,8.416012E-2,-9.578109E-4,-9.705491E-3,6.777334E-2,-1.0956423E-2,-3.077479E-2,1.3432108E-1,9.261419E-2,1.0186235E-2,9.2953786E-2,1.2862626E-1,1.3740535E-1,3.7816968E-2,9.403537E-2,5.8422495E-2,1.3787217E-1,1.21240646E-1,6.2370993E-2,1.4979718E-2,-2.4028065E-2,-1.5679492E-2,4.328789E-2],"categories":[],"categories_nodes":[],"categories_segments":[],"categories_sizes":[],"default_left":[0,0,0,0,0,0,0,0,0,0,0,0,0,0,0,0,0,0,0,0,0,0,0,0,0,0,0,0,0,0,0,0,0,0,0,0,0,0,0,0,0,0,0,0,0,0,0,0,0,0,0,0,0,0,0,0,0,0,0,0,0,0,0,0,0,0,0,0,0,0,0,0,0,0,0,0,0,0,0,0,0,0,0,0,0,0,0,0,0,0,0,0,0,0,0,0,0,0,0,0,0,0,0,0,0,0,0,0,0,0,0,0,0,0,0,0,0,0,0,0,0,0,0,0,0,0,0,0,0,0,0,0,0,0,0,0,0,0,0,0,0,0,0,0,0,0,0,0,0,0,0,0,0,0,0,0,0,0,0,0,0,0,0,0,0,0,0,0,0,0,0,0,0,0,0,0,0,0,0,0,0],"id":3,"left_children":[1,3,5,7,9,11,13,15,17,19,21,23,25,27,29,31,-1,33,35,-1,-1,37,39,41,-1,43,45,47,49,51,53,55,57,59,61,63,65,67,69,71,73,75,77,79,81,83,85,87,89,91,93,95,97,99,101,103,105,-1,107,109,111,113,115,117,119,121,123,125,127,129,131,133,-1,-1,135,137,139,-1,-1,141,143,-1,145,147,149,-1,151,153,155,157,159,161,163,165,167,169,171,173,175,177,179,-1,-1,-1,-1,-1,-1,-1,-1,-1,-1,-1,-1,-1,-1,-1,-1,-1,-1,-1,-1,-1,-1,-1,-1,-1,-1,-1,-1,-1,-1,-1,-1,-1,-1,-1,-1,-1,-1,-1,-1,-1,-1,-1,-1,-1,-1,-1,-1,-1,-1,-1,-1,-1,-1,-1,-1,-1,-1,-1,-1,-1,-1,-1,-1,-1,-1,-1,-1,-1,-1,-1,-1,-1,-1,-1,-1,-1,-1,-1,-1],"loss_changes":[7.357747E4,9.740439E3,2.3094238E4,6.629416E3,1.1484771E4,5.6159316E3,7.818633E3,8.237918E3,2.4202656E3,4.6992188E0,3.3821257E3,1.7823438E3,4.2148203E3,2.0287361E3,3.785125E3,3.1466033E3,0E0,1.8069863E3,1.0994702E3,0E0,0E0,2.5999286E2,1.5958525E3,5.046057E2,0E0,4.6682886E2,7.916284E2,3.9203064E2,6.756714E2,2.3253516E3,3.7558304E2,6.655982E2,2.0082959E2,5.3199414E2,1.0490071E4,2.1946848E2,1.3494896E3,3.0535522E1,1.964318E2,2.9574902E2,1.7530791E3,3.289574E2,1.0313599E1,4.3662732E2,6.226094E2,4.3541333E2,3.064125E2,2.8866724E2,3.9803656E2,1.0299974E2,2.97521E2,3.6725684E3,8.606719E2,4.695272E1,4.0419952E1,3.3204816E2,8.4414905E2,0E0,5.949829E1,2.116914E2,6.694026E2,4.788672E1,4.1621582E2,1.213957E2,3.45618E1,1.0471216E2,1.561798E2,4.8863007E1,6.9890137E0,1.8895714E2,3.6674603E2,1.5497777E2,0E0,0E0,1.026714E3,1.4769049E2,2.1137317E2,0E0,0E0,1.1939624E2,8.186658E2,0E0,2.3653761E2,2.927569E2,1.17670654E2,0E0,1.5681602E2,7.174933E1,1.8712175E2,1.0755008E2,1.9080255E2,9.738676E1,4.3985558E0,3.225537E1,2.8714404E2,1.21875E0,2.0526543E3,3.7779248E2,5.730625E2,2.9382942E1,3.9935234E1,0E0,0E0,0E0,0E0,0E0,0E0,0E0,0E0,0E0,0E0,0E0,0E0,0E0,0E0,0E0,0E0,0E0,0E0,0E0,0E0,0E0,0E0,0E0,0E0,0E0,0E0,0E0,0E0,0E0,0E0,0E0,0E0,0E0,0E0,0E0,0E0,0E0,0E0,0E0,0E0,0E0,0E0,0E0,0E0,0E0,0E0,0E0,0E0,0E0,0E0,0E0,0E0,0E0,0E0,0E0,0E0,0E0,0E0,0E0,0E0,0E0,0E0,0E0,0E0,0E0,0E0,0E0,0E0,0E0,0E0,0E0,0E0,0E0,0E0,0E0,0E0,0E0,0E0,0E0,0E0],"parents":[2147483647,0,0,1,1,2,2,3,3,4,4,5,5,6,6,7,7,8,8,9,9,10,10,11,11,12,12,13,13,14,14,15,15,17,17,18,18,21,21,22,22,23,23,25,25,26,26,27,27,28,28,29,29,30,30,31,31,32,32,33,33,34,34,35,35,36,36,37,37,38,38,39,39,40,40,41,41,42,42,43,43,44,44,45,45,46,46,47,47,48,48,49,49,50,50,51,51,52,52,53,53,54,54,55,55,56,56,58,58,59,59,60,60,61,61,62,62,63,63,64,64,65,65,66,66,67,67,68,68,69,69,70,70,71,71,74,74,75,75,76,76,79,79,80,80,82,82,83,83,84,84,86,86,87,87,88,88,89,89,90,90,91,91,92,92,93,93,94,94,95,95,96,96,97,97,98,98,99,99,100,100],"right_children":[2,4,6,8,10,12,14,16,18,20,22,24,26,28,30,32,-1,34,36,-1,-1,38,40,42,-1,44,46,48,50,52,54,56,58,60,62,64,66,68,70,72,74,76,78,80,82,84,86,88,90,92,94,96,98,100,102,104,106,-1,108,110,112,114,116,118,120,122,124,126,128,130,132,134,-1,-1,136,138,140,-1,-1,142,144,-1,146,148,150,-1,152,154,156,158,160,162,164,166,168,170,172,174,176,178,180,-1,-1,-1,-1,-1,-1,-1,-1,-1,-1,-1,-1,-1,-1,-1,-1,-1,-1,-1,-1,-1,-1,-1,-1,-1,-1,-1,-1,-1,-1,-1,-1,-1,-1,-1,-1,-1,-1,-1,-1,-1,-1,-1,-1,-1,-1,-1,-1,-1,-1,-1,-1,-1,-1,-1,-1,-1,-1,-1,-1,-1,-1,-1,-1,-1,-1,-1,-1,-1,-1,-1,-1,-1,-1,-1,-1,-1,-1,-1,-1],"split_conditions":[4.9266428E-2,1.812141E-2,1.0652628E0,1E0,1E0,1E0,1.6414465E-2,1.3124771E-1,2.0833492E0,1E0,2.6914518E-2,1.3124771E-1,1.5346293E0,2.623033E-2,1E0,2.2196562E0,1.2485959E-1,1.214153E0,5.286512E0,1.3014698E-1,1.4227682E-1,2.5785432E-6,1.0080128E0,1.0465137E0,1.2486964E-1,1.0056268E0,2E0,1.5346293E0,7.843818E-2,3.1612356E0,1.1008546E0,1.0652628E0,2.2705708E0,3.4331996E-2,1E0,3E0,2.4E1,1.9755076E0,5.7184592E-2,4.443362E0,2E0,3.658572E3,4.780367E3,1E0,2E0,2.623033E-2,1E0,4.102106E0,8.067199E-2,7.39E2,6.540066E-1,2E0,4.0653195E-2,1.5568411E0,1.11E3,9.7E1,2E0,2.8575493E-2,9.4435877E-1,2.3804933E-8,4.202147E-2,2.0014782E-2,2.5768816E-2,9.5097375E-1,1.022598E-1,1.6414465E-2,1.5E1,2.66E2,2.196438E0,3.0272403E0,1E0,2.0014782E-2,1.1805756E-1,1.3963448E-1,1.031583E0,1E0,3.93657E-2,8.860319E-2,1.2939736E-1,4.3E1,1.3936707E-1,1.3287659E-1,1.2694179E-1,1E0,7.773829E-5,1.3126248E-1,5.9E1,5.04243E5,1.02E2,9.985224E-1,2E0,9.653867E-2,4.629273E-2,1E0,3.7922364E-2,1E0,2.2196562E0,5.2E1,8.3E2,3.7E1,6.475022E-1,4.9283493E-2,1.1827349E-1,9.435724E-2,-1.8665707E-2,1.3958804E-1,6.0909935E-3,1.2082428E-1,6.0380634E-2,-3.0991923E-2,-2.6120475E-2,-2.2954727E-2,3.6066812E-3,1.5553395E-1,1.2982321E-1,-2.6435597E-2,-9.183089E-3,9.41407E-2,2.0864373E-3,-2.8604506E-2,-2.180424E-3,5.132624E-2,1.1840476E-1,6.6473976E-2,-1.0184759E-2,-2.9930722E-2,-1.2347083E-2,-3.1384867E-2,-1.2245179E-2,-2.049674E-2,1.1166615E-2,1.410651E-1,4.475279E-3,-7.5396136E-3,2.8021578E-2,2.5442744E-2,1.0675395E-1,3.5897534E-2,-4.749507E-3,1.7195242E-2,6.3145384E-2,-7.5868606E-3,-2.3908576E-2,1.3607268E-1,-2.1739392E-2,-9.311427E-3,4.3270893E-2,1.2514947E-1,2.8531335E-2,1.2506014E-1,8.692571E-2,-1.617652E-2,3.9910547E-2,-1.8500064E-2,1.569424E-2,9.0663776E-2,-5.442784E-3,4.2348783E-2,-1.8379074E-2,8.416012E-2,-9.578109E-4,-9.705491E-3,6.777334E-2,-1.0956423E-2,-3.077479E-2,1.3432108E-1,9.261419E-2,1.0186235E-2,9.2953786E-2,1.2862626E-1,1.3740535E-1,3.7816968E-2,9.403537E-2,5.8422495E-2,1.3787217E-1,1.21240646E-1,6.2370993E-2,1.4979718E-2,-2.4028065E-2,-1.5679492E-2,4.328789E-2],"split_indices":[278,144,11,24,144,24,183,24,14,194,278,24,169,194,131,11,0,206,11,0,0,276,144,128,0,183,36,169,278,11,131,11,12,278,179,23,23,185,14,146,144,263,263,300,183,194,137,17,278,207,275,11,203,212,233,26,11,0,99,276,180,181,278,72,283,183,30,233,235,183,204,181,0,0,54,112,204,0,0,31,240,0,19,137,269,0,214,253,26,141,41,77,279,36,202,24,11,25,12,233,240,0,0,0,0,0,0,0,0,0,0,0,0,0,0,0,0,0,0,0,0,0,0,0,0,0,0,0,0,0,0,0,0,0,0,0,0,0,0,0,0,0,0,0,0,0,0,0,0,0,0,0,0,0,0,0,0,0,0,0,0,0,0,0,0,0,0,0,0,0,0,0,0,0,0,0,0,0,0,0,0],"split_type":[0,0,0,0,0,0,0,0,0,0,0,0,0,0,0,0,0,0,0,0,0,0,0,0,0,0,0,0,0,0,0,0,0,0,0,0,0,0,0,0,0,0,0,0,0,0,0,0,0,0,0,0,0,0,0,0,0,0,0,0,0,0,0,0,0,0,0,0,0,0,0,0,0,0,0,0,0,0,0,0,0,0,0,0,0,0,0,0,0,0,0,0,0,0,0,0,0,0,0,0,0,0,0,0,0,0,0,0,0,0,0,0,0,0,0,0,0,0,0,0,0,0,0,0,0,0,0,0,0,0,0,0,0,0,0,0,0,0,0,0,0,0,0,0,0,0,0,0,0,0,0,0,0,0,0,0,0,0,0,0,0,0,0,0,0,0,0,0,0,0,0,0,0,0,0,0,0,0,0,0,0],"sum_hessian":[6.002878E4,4.6543074E4,1.3485707E4,4.220061E4,4.3424653E3,5.1725664E3,8.313141E3,2.6848062E3,3.9515805E4,6.16813E2,3.7256526E3,1.0834219E3,4.0891445E3,1.3119785E3,7.0011626E3,2.200738E3,4.840682E2,3.8898605E4,6.1719763E2,4.5055466E2,1.6625835E2,2.0764062E3,1.6492463E3,7.8709564E2,2.9632617E2,3.4651082E3,6.240364E2,9.223294E2,3.8964908E2,6.730534E3,2.706281E2,2.0058046E3,1.9493346E2,3.4096316E4,4.802289E3,2.663765E2,3.508211E2,1.2151218E3,8.6128436E2,6.764575E2,9.727889E2,7.252602E2,6.1835487E1,3.0514753E3,4.1363287E2,4.402486E2,1.8378778E2,6.775601E2,2.4476924E2,9.052127E1,2.991278E2,2.8206814E3,3.909853E3,2.4070624E2,2.9921871E1,1.780674E3,2.251306E2,2.413244E1,1.7080101E2,2.7782432E4,6.313885E3,3.226507E2,4.4796387E3,4.3876884E1,2.224996E2,1.9631476E2,1.5450636E2,4.946163E2,7.205055E2,7.54649E2,1.06635345E2,6.608752E2,1.5582305E1,1.6303333E2,8.0975555E2,2.7410013E2,4.5116006E2,1.4955096E1,4.688039E1,2.942738E3,1.0873729E2,2.947218E1,3.8416068E2,1.6323663E2,2.7701196E2,1.4911902E1,1.6887589E2,6.15878E2,6.1682163E1,1.2328494E2,1.2148431E2,5.0294666E1,4.022661E1,1.3591728E2,1.6321053E2,7.866683E2,2.0340131E3,3.313314E2,3.5785217E3,2.0686766E2,3.3838573E1,1.4526203E1,1.5395668E1,1.9479013E1,1.761195E3,4.493294E1,1.8019766E2,1.5434059E2,1.6460417E1,1.2653828E4,1.5128603E4,5.473497E3,8.403879E2,1.7297978E2,1.4967091E2,2.6852686E3,1.7943699E3,1.9780106E1,2.4096779E1,1.7308604E2,4.941356E1,2.2010727E1,1.7430403E2,2.34351E1,1.3107126E2,2.6629538E2,2.2832092E2,7.033405E2,1.7165012E1,5.6021454E2,1.9443445E2,1.749582E1,8.913953E1,5.479519E2,1.1292332E2,6.64745E2,1.4501054E2,1.2948134E2,1.4461877E2,9.970583E1,3.5145422E2,4.0042383E2,2.5423142E3,3.855252E1,7.018477E1,3.0084814E2,8.331255E1,2.892619E1,1.3431044E2,1.19041824E2,1.5797014E2,1.11464584E2,5.7411297E1,5.651592E2,5.071876E1,3.335666E1,2.8325506E1,2.8539345E1,9.47456E1,9.607935E1,2.5404955E1,2.0715834E1,2.957883E1,1.686248E1,2.3364128E1,1.0966599E2,2.6251295E1,4.4574947E1,1.18635574E2,4.213607E2,3.6530762E2,1.1506355E3,8.8337756E2,2.7587125E2,5.546015E1,3.4437468E3,1.3477486E2,1.5428518E1,1.9143915E2,1.6971985E1,1.686659E1],"tree_param":{"num_deleted":"0","num_feature":"304","num_nodes":"181","size_leaf_vector":"1"}},{"base_weights":[-4.9597467E-3,-5.894821E-1,1.9257636E0,-7.804813E-1,5.252403E-1,3.7199277E-1,2.8547018E0,7.237307E-1,-8.8730514E-1,4.4575224E0,6.345027E-2,2.2268505E0,-1.3465661E-1,3.0809658E0,-4.2697433E-1,-2.4819087E-2,1.1299448E-1,-9.228055E-1,5.502253E-1,4.6365194E0,1.1766253E-1,-4.7205377E-1,1.5565175E0,1.5141357E0,1.1347728E-1,-5.618532E-1,2.12206E0,2.4080212E0,3.5902748E0,-6.699675E-1,2.5777876E0,-4.2355E-1,3.449181E0,-9.669992E-1,-2.7153933E-1,-4.794897E-1,2.027231E0,1.1637934E-1,1.3262379E-1,-9.466327E-1,2.0627884E-2,2.0980005E-1,2.13896E0,1.3332002E0,1.0959905E-1,-7.0332116E-1,2.8501782E-1,2.7685833E0,4.6722153E-1,4.333243E0,1.7830019E0,2.125123E0,3.8025901E0,-7.4616724E-1,2.0979283E-2,1.268792E-1,3.3917207E-2,-6.523422E-1,9.999986E-1,3.7193465E0,-9.250694E-3,-8.418866E-1,-1.0721505E0,4.4463487E0,-7.9262793E-1,1.3976368E-1,-6.773324E-1,3.68516E0,6.885921E-2,-1.1332754E0,-7.08887E-1,-1.489279E-1,2.6969154E0,8.057934E-2,1.0531988E-1,1.2228876E-1,1.7958822E0,3.7559662E0,1.1698253E0,-7.763928E-1,1.2108887E0,2.4407735E0,-4.812227E-2,1.5701592E0,3.4352856E0,1.2025308E-1,6.2616035E-2,1.1643617E-1,1.2394257E-1,8.025079E-1,2.751058E0,1.020848E0,3.3256035E0,3.8863208E0,1.8603214E0,-8.859525E-1,2.3330122E-2,-3.2159783E-2,-1.4475234E-2,1.2337347E-1,4.2649577E-3,6.46564E-2,1.09900735E-1,-2.50247E-2,1.9742323E-2,-2.9951347E-2,-1.7190777E-2,1.1522456E-1,1.3458002E-1,-2.263997E-2,6.504113E-2,6.3998766E-2,-2.3326954E-2,1.1377528E-1,7.21396E-2,8.879291E-2,-7.858371E-3,-3.1916935E-2,-2.7963435E-2,-2.4531497E-2,2.400957E-2,-1.8135238E-2,9.2377E-3,9.298258E-3,1.1837153E-1,-6.154607E-3,3.0080631E-2,-6.8684114E-4,6.421667E-2,6.9178246E-2,1.1747587E-1,1.4685764E-2,5.1390715E-2,4.615903E-3,-2.2642208E-2,1.23784885E-1,-2.4318546E-2,-1.9112835E-3,1.3672517E-1,-1.0426456E-2,4.2821318E-2,8.722725E-2,1.4500986E-2,2.3319941E-2,9.945386E-2,-1.6943604E-2,3.663919E-2,8.814066E-2,1.3029675E-3,1.2499897E-2,9.526605E-2,9.522247E-2,1.6880032E-2,5.7776894E-2,1.186446E-1,1.1070047E-1,7.445719E-2,1.11905366E-1,2.5312416E-2,-2.6275449E-2,4.641351E-3,3.7809126E-2,-1.427915E-2],"categories":[],"categories_nodes":[],"categories_segments":[],"categories_sizes":[],"default_left":[0,0,0,0,0,0,0,0,0,0,0,0,0,0,0,0,0,0,0,0,0,0,0,0,0,0,0,0,0,0,0,0,0,0,0,0,0,0,0,0,0,0,0,0,0,0,0,0,0,0,0,0,0,0,0,0,0,0,0,0,0,0,0,0,0,0,0,0,0,0,0,0,0,0,0,0,0,0,0,0,0,0,0,0,0,0,0,0,0,0,0,0,0,0,0,0,0,0,0,0,0,0,0,0,0,0,0,0,0,0,0,0,0,0,0,0,0,0,0,0,0,0,0,0,0,0,0,0,0,0,0,0,0,0,0,0,0,0,0,0,0,0,0,0,0,0,0,0,0,0,0,0,0,0,0,0,0,0,0,0,0,0,0],"id":4,"left_children":[1,3,5,7,9,11,13,15,17,19,21,23,25,27,29,31,-1,33,35,37,-1,39,41,43,-1,45,47,49,51,53,55,57,59,61,63,65,67,-1,-1,69,71,73,75,77,-1,79,81,83,85,87,89,91,93,95,-1,-1,-1,97,99,101,-1,103,105,107,109,-1,111,113,115,117,119,121,123,125,-1,-1,127,129,131,133,135,137,139,141,143,-1,145,-1,-1,147,149,151,153,155,157,159,161,-1,-1,-1,-1,-1,-1,-1,-1,-1,-1,-1,-1,-1,-1,-1,-1,-1,-1,-1,-1,-1,-1,-1,-1,-1,-1,-1,-1,-1,-1,-1,-1,-1,-1,-1,-1,-1,-1,-1,-1,-1,-1,-1,-1,-1,-1,-1,-1,-1,-1,-1,-1,-1,-1,-1,-1,-1,-1,-1,-1,-1,-1,-1,-1,-1,-1],"loss_changes":[6.763817E4,9.795489E3,2.010177E4,6.3116797E3,1.2219772E4,4.8989194E3,6.4736875E3,6.537695E3,1.8719492E3,1.0962891E1,4.816753E3,1.482669E3,3.948021E3,2.787414E3,4.118063E2,2.9508066E3,0E0,1.0296523E3,1.3456903E3,8.103516E0,0E0,1.0368953E3,1.2466638E3,3.5303394E2,0E0,4.1277637E2,6.958164E2,4.2231406E3,1.436375E3,5.708795E1,1.0909912E2,6.229129E2,2.2569727E2,4.3989062E2,5.596137E3,5.713017E2,1.1790156E3,0E0,0E0,9.928821E1,9.8817645E2,2.2218419E2,8.58626E2,2.9504993E2,0E0,4.1337073E2,3.5475616E2,3.694402E2,2.8726617E2,5.1660156E-1,2.5178037E3,7.7755493E2,6.525625E2,5.34664E1,0E0,0E0,0E0,1.0809601E2,7.7188574E2,6.183667E1,0E0,1.4501475E3,6.834961E1,1.0452148E1,1.5652637E2,0E0,2.483556E2,8.032788E1,1.861075E2,1.605957E0,2.7679788E2,4.9899554E2,4.802168E2,1.4174927E2,0E0,0E0,9.163013E2,1.9824585E1,3.0939148E2,1.0871655E2,7.423199E2,4.1461288E2,2.2376192E2,2.7692557E2,1.15926025E2,0E0,1.4279874E2,0E0,0E0,2.370397E3,2.105086E3,3.0393475E2,3.262744E2,4.9160938E2,3.4467682E2,2.765445E1,5.6009552E1,0E0,0E0,0E0,0E0,0E0,0E0,0E0,0E0,0E0,0E0,0E0,0E0,0E0,0E0,0E0,0E0,0E0,0E0,0E0,0E0,0E0,0E0,0E0,0E0,0E0,0E0,0E0,0E0,0E0,0E0,0E0,0E0,0E0,0E0,0E0,0E0,0E0,0E0,0E0,0E0,0E0,0E0,0E0,0E0,0E0,0E0,0E0,0E0,0E0,0E0,0E0,0E0,0E0,0E0,0E0,0E0,0E0,0E0,0E0,0E0,0E0,0E0,0E0,0E0,0E0,0E0],"parents":[2147483647,0,0,1,1,2,2,3,3,4,4,5,5,6,6,7,7,8,8,9,9,10,10,11,11,12,12,13,13,14,14,15,15,17,17,18,18,19,19,21,21,22,22,23,23,25,25,26,26,27,27,28,28,29,29,30,30,31,31,32,32,33,33,34,34,35,35,36,36,39,39,40,40,41,41,42,42,43,43,45,45,46,46,47,47,48,48,49,49,50,50,51,51,52,52,53,53,57,57,58,58,59,59,61,61,62,62,63,63,64,64,66,66,67,67,68,68,69,69,70,70,71,71,72,72,73,73,76,76,77,77,78,78,79,79,80,80,81,81,82,82,83,83,84,84,86,86,89,89,90,90,91,91,92,92,93,93,94,94,95,95,96,96],"right_children":[2,4,6,8,10,12,14,16,18,20,22,24,26,28,30,32,-1,34,36,38,-1,40,42,44,-1,46,48,50,52,54,56,58,60,62,64,66,68,-1,-1,70,72,74,76,78,-1,80,82,84,86,88,90,92,94,96,-1,-1,-1,98,100,102,-1,104,106,108,110,-1,112,114,116,118,120,122,124,126,-1,-1,128,130,132,134,136,138,140,142,144,-1,146,-1,-1,148,150,152,154,156,158,160,162,-1,-1,-1,-1,-1,-1,-1,-1,-1,-1,-1,-1,-1,-1,-1,-1,-1,-1,-1,-1,-1,-1,-1,-1,-1,-1,-1,-1,-1,-1,-1,-1,-1,-1,-1,-1,-1,-1,-1,-1,-1,-1,-1,-1,-1,-1,-1,-1,-1,-1,-1,-1,-1,-1,-1,-1,-1,-1,-1,-1,-1,-1,-1,-1,-1,-1],"split_conditions":[4.9266428E-2,9.328E-1,1.0652628E0,1E0,1E0,1E0,1E0,1.3124771E-1,2.0443506E0,5.9561515E-1,3.5250004E-2,1.3124771E-1,1.5346293E0,3.1612356E0,1.1008546E0,2.2196562E0,1.1299448E-1,9.3140006E-1,5.286512E0,1E0,1.1766253E-1,6.762222E-4,1.0260915E0,1.1219584E0,1.1347728E-1,1.5582466E0,2E0,2E0,3.7922364E-2,1.0108759E0,2E0,1.0652628E0,4E0,3E0,1E0,3E0,2.3E1,1.1637934E-1,1.3262379E-1,2.31E2,1.069179E0,2.052302E0,2E0,1.4E1,1.0959905E-1,1E0,1E0,9.328E-1,1E0,1E0,9.652553E-3,5.15E2,3.01E2,5.54E2,2.0979283E-2,1.268792E-1,3.3917207E-2,1.7938931E-1,2E0,2.2705708E0,-9.250694E-3,1.3719395E-2,1.0605842E0,1E0,1E1,1.3976368E-1,1E0,8E0,1E0,5.2981573E-1,2.2429492E-2,1.8223964E-2,3.1612356E0,3.1612356E0,1.0531988E-1,1.2228876E-1,2.0746922E0,3.958705E0,1.1727761E-1,4E0,1.3936707E-1,6.2833786E-2,2.76E2,2E0,4.5267228E-2,1.2025308E-1,5.595E1,1.1643617E-1,1.2394257E-1,1E0,1.2250798E0,2E0,8.067199E-2,2.6E1,1E0,2.623033E-2,9.0513116E-1,-3.2159783E-2,-1.4475234E-2,1.2337347E-1,4.2649577E-3,6.46564E-2,1.09900735E-1,-2.50247E-2,1.9742323E-2,-2.9951347E-2,-1.7190777E-2,1.1522456E-1,1.3458002E-1,-2.263997E-2,6.504113E-2,6.3998766E-2,-2.3326954E-2,1.1377528E-1,7.21396E-2,8.879291E-2,-7.858371E-3,-3.1916935E-2,-2.7963435E-2,-2.4531497E-2,2.400957E-2,-1.8135238E-2,9.2377E-3,9.298258E-3,1.1837153E-1,-6.154607E-3,3.0080631E-2,-6.8684114E-4,6.421667E-2,6.9178246E-2,1.1747587E-1,1.4685764E-2,5.1390715E-2,4.615903E-3,-2.2642208E-2,1.23784885E-1,-2.4318546E-2,-1.9112835E-3,1.3672517E-1,-1.0426456E-2,4.2821318E-2,8.722725E-2,1.4500986E-2,2.3319941E-2,9.945386E-2,-1.6943604E-2,3.663919E-2,8.814066E-2,1.3029675E-3,1.2499897E-2,9.526605E-2,9.522247E-2,1.6880032E-2,5.7776894E-2,1.186446E-1,1.1070047E-1,7.445719E-2,1.11905366E-1,2.5312416E-2,-2.6275449E-2,4.641351E-3,3.7809126E-2,-1.427915E-2],"split_indices":[278,217,11,24,194,24,70,24,20,173,278,24,169,11,131,11,0,209,11,24,0,268,194,127,0,214,36,11,202,119,131,11,1,36,184,20,23,0,0,233,53,201,194,233,0,300,185,217,137,24,95,271,28,3,0,0,0,273,11,12,0,110,20,180,196,0,202,23,202,273,278,278,11,11,0,0,194,30,278,237,240,185,207,23,45,0,214,0,0,24,12,24,278,23,104,194,103,0,0,0,0,0,0,0,0,0,0,0,0,0,0,0,0,0,0,0,0,0,0,0,0,0,0,0,0,0,0,0,0,0,0,0,0,0,0,0,0,0,0,0,0,0,0,0,0,0,0,0,0,0,0,0,0,0,0,0,0,0,0,0,0,0,0],"split_type":[0,0,0,0,0,0,0,0,0,0,0,0,0,0,0,0,0,0,0,0,0,0,0,0,0,0,0,0,0,0,0,0,0,0,0,0,0,0,0,0,0,0,0,0,0,0,0,0,0,0,0,0,0,0,0,0,0,0,0,0,0,0,0,0,0,0,0,0,0,0,0,0,0,0,0,0,0,0,0,0,0,0,0,0,0,0,0,0,0,0,0,0,0,0,0,0,0,0,0,0,0,0,0,0,0,0,0,0,0,0,0,0,0,0,0,0,0,0,0,0,0,0,0,0,0,0,0,0,0,0,0,0,0,0,0,0,0,0,0,0,0,0,0,0,0,0,0,0,0,0,0,0,0,0,0,0,0,0,0,0,0,0,0],"sum_hessian":[5.9932414E4,4.600508E4,1.3927337E4,3.9275848E4,6.729228E3,5.2115522E3,8.715785E3,2.6038887E3,3.667196E4,7.0649866E2,6.022729E3,1.1176659E3,4.0938865E3,8.1537075E3,5.620771E2,2.1291829E3,4.7470575E2,3.578854E4,8.834199E2,3.748997E2,3.3159894E2,4.433114E3,1.5896155E3,8.099129E2,3.0775296E2,3.442794E3,6.510924E2,3.5145254E3,4.639182E3,5.206026E2,4.1474464E1,1.910585E3,2.1859793E2,3.351372E4,2.274821E3,5.2073883E2,3.6268112E2,1.0047119E2,2.744285E2,2.2578992E3,2.1752146E3,4.8032556E2,1.1092899E3,7.5511346E2,5.4799408E1,2.9503015E3,4.9249255E2,4.6774692E2,1.8334549E2,8.602207E2,2.654305E3,5.8829987E2,4.0508823E3,4.9466486E2,2.5937748E1,1.59931345E1,2.548133E1,1.6464888E3,2.6409622E2,2.0408554E2,1.4512394E1,1.5308041E4,1.820568E4,2.2568335E2,2.0491377E3,1.7365835E1,5.03373E2,1.9600768E2,1.6667345E2,1.2629135E3,9.9498566E2,2.0461906E3,1.29024E2,4.6440237E2,1.5923181E1,1.4428323E2,9.650067E2,4.6623127E1,7.0849036E2,2.8423308E3,1.07970634E2,6.5384315E1,4.2710825E2,1.6817038E2,2.9957654E2,1.6638687E1,1.667068E2,4.514162E2,4.0880447E2,1.3194373E3,1.3348676E3,3.0720932E2,2.8109058E2,3.882678E3,1.6820444E2,4.187374E2,7.592746E1,3.343252E2,1.3121636E3,5.1350826E1,2.1274539E2,3.1961763E1,1.7212378E2,1.4730935E4,5.7710626E2,1.7871875E4,3.338034E2,1.3716263E2,8.852072E1,2.0340824E3,1.5055307E1,2.568746E1,4.7768555E2,1.3968109E2,5.6326588E1,1.6306097E1,1.5036734E2,1.0952682E3,1.6764522E2,8.953052E2,9.96805E1,9.9918884E2,1.0470017E3,5.1995182E1,7.702882E1,3.571841E2,1.0721828E2,2.1473418E2,7.502725E2,1.4250155E1,3.2372974E1,3.668759E2,3.416145E2,1.1668695E2,2.7256438E3,4.191133E1,6.60593E1,3.288781E1,3.2496506E1,3.5473364E2,7.2374596E1,6.6455925E1,1.01714455E2,1.6988117E1,2.825884E2,1.08735535E2,5.7971268E1,3.1756708E2,1.0018702E3,3.0695178E2,1.0279158E3,4.3925243E1,2.6328406E2,1.2330143E2,1.5778912E2,3.5619968E3,3.2068118E2,5.021796E1,1.1798647E2,3.9570624E2,2.3031168E1,2.1540827E1,5.4386635E1],"tree_param":{"num_deleted":"0","num_feature":"304","num_nodes":"163","size_leaf_vector":"1"}},{"base_weights":[-4.693043E-3,-3.5926217E-1,2.2805529E0,-5.993658E-1,1.2130443E0,3.798963E-1,2.9787035E0,1.2236019E0,-7.761443E-1,4.157239E0,6.5703785E-1,4.172791E0,-3.689515E-1,3.3106174E0,1.0809398E0,4.4227043E-1,3.716474E0,-8.3710116E-1,4.1142517E-1,1.24931015E-1,4.079627E0,-1.140147E0,9.5379156E-1,1.1030994E-1,1.24689445E-1,-4.6905622E-1,3.2512836E0,1.1847374E0,3.4739628E0,-1.1123908E0,1.6064667E0,-7.273805E-2,2.3457866E0,2.065039E0,1.056583E-1,-6.346045E-1,-1.0390471E0,4.1899185E0,-2.8015202E-1,1.1063575E-1,1.2017604E-1,-3.193225E-2,-1.5628744E-2,-6.996458E-2,1.5235811E0,1.1601112E0,-6.301443E-1,2.7049761E-2,4.3440485E0,2.579683E-1,3.7664022E0,-2.8609693E-2,3.514587E0,-1.905692E-2,-3.1909592E-2,1.2664182E0,1.1944313E-1,-4.4417694E-1,1.1357248E0,2.8633792E0,-2.307124E-1,1.07177615E-1,6.556491E-1,-7.026025E-1,9.911137E-1,-9.611841E-1,-1.095923E0,1.0907637E-1,1.2453891E-1,1.11938134E-1,-3.6477405E-1,-2.5810084E-1,1.4988912E0,4.422837E0,1.0901581E0,4.583676E-1,1.0672499E-1,-8.034728E-1,6.812739E-3,9.717176E-2,1.3551572E-1,-4.276848E-1,2.149075E0,7.397835E-2,1.0980812E-1,3.5934138E0,1.7137269E0,6.9262534E-1,3.1480544E0,-1.591458E-2,1.6173419E-2,1.7500313E-2,9.526174E-2,8.653038E-2,5.3967386E-3,5.519247E-3,-2.7165664E-2,5.2696105E-2,-1.7584007E-2,-2.1957682E-2,-2.8322483E-3,1.5312298E-1,-2.6984107E-2,-2.7926328E-2,1.6110775E-1,-3.1869765E-2,-2.9937977E-2,-1.8304767E-2,3.7581145E-3,-1.1690028E-2,1.8489815E-2,8.244588E-2,1.039954E-2,1.15581594E-1,1.2777345E-1,-7.7373995E-3,4.3670256E-2,4.8751913E-2,-6.787794E-3,-2.4169825E-2,9.8383315E-3,1.2126293E-1,-6.6327425E-3,-1.8627109E-2,4.800312E-2,1.07819155E-1,3.3338953E-2,7.688357E-2,1.0283398E-1,-1.6115396E-3,9.4107285E-2,9.4562516E-2,1.0611248E-2,9.507165E-2,2.1649979E-2],"categories":[],"categories_nodes":[],"categories_segments":[],"categories_sizes":[],"default_left":[0,0,0,0,0,0,0,0,0,0,0,0,0,0,0,0,0,0,0,0,0,0,0,0,0,0,0,0,0,0,0,0,0,0,0,0,0,0,0,0,0,0,0,0,0,0,0,0,0,0,0,0,0,0,0,0,0,0,0,0,0,0,0,0,0,0,0,0,0,0,0,0,0,0,0,0,0,0,0,0,0,0,0,0,0,0,0,0,0,0,0,0,0,0,0,0,0,0,0,0,0,0,0,0,0,0,0,0,0,0,0,0,0,0,0,0,0,0,0,0,0,0,0,0,0,0,0,0,0,0,0,0,0,0,0],"id":5,"left_children":[1,3,5,7,9,11,13,15,17,19,21,23,25,27,29,31,33,35,37,-1,39,41,43,-1,-1,45,47,49,51,53,55,57,59,61,-1,63,65,67,69,-1,-1,-1,-1,71,73,75,77,-1,79,81,83,-1,85,-1,-1,87,-1,89,91,93,95,-1,97,99,101,103,105,-1,-1,-1,107,109,111,113,115,117,-1,119,121,-1,-1,123,125,-1,-1,127,129,131,133,-1,-1,-1,-1,-1,-1,-1,-1,-1,-1,-1,-1,-1,-1,-1,-1,-1,-1,-1,-1,-1,-1,-1,-1,-1,-1,-1,-1,-1,-1,-1,-1,-1,-1,-1,-1,-1,-1,-1,-1,-1,-1,-1,-1,-1,-1],"loss_changes":[4.8372215E4,1.9510592E4,1.0638539E4,1.4449023E4,1.1204952E4,6.1226763E3,3.6903633E3,7.7180996E3,2.959045E3,1.4574219E1,3.0726548E3,7.76709E0,6.530043E2,1.7291836E3,1.00893475E3,2.9597886E3,1.421084E2,1.5889941E3,5.216879E3,0E0,6.15625E0,4.7886963E0,2.884395E3,0E0,0E0,4.60364E2,1.1645929E2,8.533879E2,8.514219E2,1.8667297E0,6.433849E2,1.0669476E3,8.583325E2,1.3268114E2,0E0,2.1465947E3,8.503906E1,9.433105E0,6.171101E2,0E0,0E0,0E0,0E0,5.2200104E2,3.987E3,2.9587756E2,1.762959E2,0E0,8.2489014E-1,3.4297775E2,1.1265625E1,0E0,6.4653125E2,0E0,0E0,6.7546014E2,0E0,2.4312115E2,6.461608E2,3.6814648E2,3.512643E1,0E0,5.067707E1,1.0019238E3,6.9478516E3,2.583005E3,8.265625E0,0E0,0E0,0E0,2.4509355E2,2.3932361E2,3.1250903E2,3.916504E0,1.8376824E3,1.1589488E2,0E0,9.986444E1,3.689325E2,0E0,0E0,1.03047485E2,1.1156174E2,0E0,0E0,4.115547E2,5.7904016E2,4.0438776E2,9.493201E1,0E0,0E0,0E0,0E0,0E0,0E0,0E0,0E0,0E0,0E0,0E0,0E0,0E0,0E0,0E0,0E0,0E0,0E0,0E0,0E0,0E0,0E0,0E0,0E0,0E0,0E0,0E0,0E0,0E0,0E0,0E0,0E0,0E0,0E0,0E0,0E0,0E0,0E0,0E0,0E0,0E0,0E0,0E0,0E0,0E0,0E0],"parents":[2147483647,0,0,1,1,2,2,3,3,4,4,5,5,6,6,7,7,8,8,9,9,10,10,11,11,12,12,13,13,14,14,15,15,16,16,17,17,18,18,20,20,21,21,22,22,25,25,26,26,27,27,28,28,29,29,30,30,31,31,32,32,33,33,35,35,36,36,37,37,38,38,43,43,44,44,45,45,46,46,48,48,49,49,50,50,52,52,55,55,57,57,58,58,59,59,60,60,62,62,63,63,64,64,65,65,66,66,70,70,71,71,72,72,73,73,74,74,75,75,77,77,78,78,81,81,82,82,85,85,86,86,87,87,88,88],"right_children":[2,4,6,8,10,12,14,16,18,20,22,24,26,28,30,32,34,36,38,-1,40,42,44,-1,-1,46,48,50,52,54,56,58,60,62,-1,64,66,68,70,-1,-1,-1,-1,72,74,76,78,-1,80,82,84,-1,86,-1,-1,88,-1,90,92,94,96,-1,98,100,102,104,106,-1,-1,-1,108,110,112,114,116,118,-1,120,122,-1,-1,124,126,-1,-1,128,130,132,134,-1,-1,-1,-1,-1,-1,-1,-1,-1,-1,-1,-1,-1,-1,-1,-1,-1,-1,-1,-1,-1,-1,-1,-1,-1,-1,-1,-1,-1,-1,-1,-1,-1,-1,-1,-1,-1,-1,-1,-1,-1,-1,-1,-1,-1,-1],"split_conditions":[1.0605842E0,8.3715665E-1,2.2196562E0,1E0,1E0,2E0,2.2E1,1.6466656E-1,2.0014782E-2,3.817943E-2,2.4476297E-1,1E0,2.56E2,1.6414465E-2,2.4605263E-2,1.0652628E0,1E0,3E0,1E0,1.24931015E-1,9.989445E-1,1.167E3,1.0174783E0,1.1030994E-1,1.24689445E-1,1E0,1.8207355E0,1.3716702E1,1.7938931E-1,8.7984695E1,1.2694179E-1,2.4145767E-2,4E0,1E0,1.056583E-1,1.3719395E-2,1E0,1E0,1E0,1.1063575E-1,1.2017604E-1,-3.193225E-2,-1.5628744E-2,3.1912837E-2,2E0,1.3124771E-1,2.623033E-2,2.7049761E-2,5.8517885E0,5.286512E0,2.3E1,-2.8609693E-2,2.73E2,-1.905692E-2,-3.1909592E-2,1.0687617E0,1.1944313E-1,8.02637E-1,9.652553E-3,2E0,1E0,1.07177615E-1,1.99E2,5.688296E-2,1E0,1.4045585E-2,2.4476297E-1,1.0907637E-1,1.2453891E-1,1.11938134E-1,1.8E2,2.0014782E-2,1E0,1.2607388E-1,2.0374377E0,1E0,1.0672499E-1,2.0014782E-2,9.989445E-1,9.717176E-2,1.3551572E-1,3.04331E1,3E0,7.397835E-2,1.0980812E-1,3.1612356E0,5.286512E0,5E0,1E0,-1.591458E-2,1.6173419E-2,1.7500313E-2,9.526174E-2,8.653038E-2,5.3967386E-3,5.519247E-3,-2.7165664E-2,5.2696105E-2,-1.7584007E-2,-2.1957682E-2,-2.8322483E-3,1.5312298E-1,-2.6984107E-2,-2.7926328E-2,1.6110775E-1,-3.1869765E-2,-2.9937977E-2,-1.8304767E-2,3.7581145E-3,-1.1690028E-2,1.8489815E-2,8.244588E-2,1.039954E-2,1.15581594E-1,1.2777345E-1,-7.7373995E-3,4.3670256E-2,4.8751913E-2,-6.787794E-3,-2.4169825E-2,9.8383315E-3,1.2126293E-1,-6.6327425E-3,-1.8627109E-2,4.800312E-2,1.07819155E-1,3.3338953E-2,7.688357E-2,1.0283398E-1,-1.6115396E-3,9.4107285E-2,9.4562516E-2,1.0611248E-2,9.507165E-2,2.1649979E-2],"split_indices":[20,174,11,24,143,20,23,23,181,144,273,24,214,183,102,11,11,36,181,0,194,233,143,0,0,24,11,22,273,239,19,281,1,94,0,110,89,180,188,0,0,0,0,74,143,24,194,0,185,11,22,0,28,0,0,86,0,273,95,165,36,0,237,20,110,89,273,0,0,0,207,181,193,270,143,180,0,181,194,0,0,167,23,0,0,11,11,20,185,0,0,0,0,0,0,0,0,0,0,0,0,0,0,0,0,0,0,0,0,0,0,0,0,0,0,0,0,0,0,0,0,0,0,0,0,0,0,0,0,0,0,0,0,0,0],"split_type":[0,0,0,0,0,0,0,0,0,0,0,0,0,0,0,0,0,0,0,0,0,0,0,0,0,0,0,0,0,0,0,0,0,0,0,0,0,0,0,0,0,0,0,0,0,0,0,0,0,0,0,0,0,0,0,0,0,0,0,0,0,0,0,0,0,0,0,0,0,0,0,0,0,0,0,0,0,0,0,0,0,0,0,0,0,0,0,0,0,0,0,0,0,0,0,0,0,0,0,0,0,0,0,0,0,0,0,0,0,0,0,0,0,0,0,0,0,0,0,0,0,0,0,0,0,0,0,0,0,0,0,0,0,0,0],"sum_hessian":[5.969732E4,5.167962E4,8.0176987E3,4.4833727E4,6.8458945E3,2.1542705E3,5.863428E3,3.9628484E3,4.087088E4,1.0866697E3,5.7592246E3,3.54695E2,1.7995756E3,4.9900425E3,8.733857E2,3.0178914E3,9.4495715E2,3.8875797E4,1.9950822E3,1.8932724E2,8.973424E2,8.158163E2,4.9434087E3,2.290214E2,1.2567362E2,1.7518184E3,4.7757202E1,3.5656937E2,4.633473E3,1.6858965E2,7.04796E2,2.3757205E3,6.421708E2,5.2593815E1,8.9236334E2,1.9413406E4,1.9462389E4,3.0814105E2,1.686941E3,6.768373E2,2.2050513E2,7.9831244E2,1.7503807E1,1.7676764E3,3.1757322E3,1.5711847E2,1.5946998E3,1.5995812E1,3.176139E1,2.630205E2,9.354887E1,4.1198975E1,4.592274E3,1.5659067E1,1.5293057E2,6.270372E2,7.775885E1,1.8176542E3,5.580664E2,5.3474054E2,1.0743025E2,2.2471045E1,3.012277E1,1.863452E4,7.788866E2,8.222332E3,1.1240058E4,1.7325734E2,1.3488371E2,3.1726759E1,1.6552142E3,1.5790452E3,1.8863115E2,4.1208765E2,2.7636445E3,1.25341576E2,3.1776896E1,1.2536647E3,3.4103513E2,1.4770647E1,1.6990744E1,1.9336986E2,6.9650635E1,1.587547E1,7.767339E1,4.398899E3,1.9337506E2,4.813461E2,1.456911E2,1.6140262E3,2.0362787E2,4.585602E2,9.9506165E1,4.8735986E2,4.738067E1,6.8445305E1,3.898495E1,1.5227156E1,1.4895616E1,1.6215145E4,2.4193752E3,2.3513304E2,5.4375354E2,8.167132E3,5.5199898E1,2.541668E3,8.69839E3,1.0405901E3,6.1462415E2,1.3422339E3,2.3681133E2,8.096073E1,1.07670425E2,1.8266524E2,2.294224E2,7.2318866E2,2.0404558E3,4.3705975E1,8.16356E1,1.1839935E3,6.967121E1,1.7583532E1,3.234516E2,1.7424332E2,1.912654E1,2.3664856E1,4.598578E1,5.49973E2,3.848926E3,9.443897E1,9.89361E1,4.8431545E1,4.3291455E2,1.29826E2,1.5865092E1],"tree_param":{"num_deleted":"0","num_feature":"304","num_nodes":"135","size_leaf_vector":"1"}},{"base_weights":[-5.040007E-3,-5.755537E-1,1.7473805E0,-7.6324445E-1,4.7315833E-1,3.5646793E-1,2.5247343E0,6.7301077E-1,-8.709399E-1,3.7868795E0,5.3242836E-2,2.0053377E0,-1.24914825E-1,7.1332145E-1,2.8333757E0,-2.7274456E-2,9.646984E-2,-9.006519E-1,9.364333E-1,4.0325375E0,9.981234E-2,-4.6226543E-1,1.4075631E0,1.3903418E0,9.68265E-2,-5.449841E-1,1.9604791E0,2.0658644E-3,2.254198E0,2.9330146E0,-1.1119486E-1,-4.1800657E-1,2.9880471E0,-9.476952E-1,-2.271766E-1,-8.08326E-1,1.7706447E0,9.960791E-2,1.16007134E-1,-9.313742E-1,6.3555E-2,2.1934548E-1,1.8984191E0,1.1943992E0,3.4335701E0,-6.759798E-1,3.8503346E-1,1.3139135E0,3.0650728E0,-3.3102286E-1,1.3140577E0,2.832844E-1,2.8202572E0,1.9874362E0,3.1544576E0,-5.683839E-1,2.6672769E0,-6.367255E-1,8.5148126E-1,-4.9887877E-3,3.2138329E0,-1.0039781E0,-7.037087E-1,3.8241086E0,-7.696627E-1,-1.0440233E0,2.2274548E-2,2.317745E0,-2.7810347E-1,-1.1165067E0,-7.036097E-1,-1.1425989E-1,2.639515E0,-3.237042E-1,1.0155672E0,1.0415682E-1,1.6021996E0,4.20329E-1,1.6457815E0,7.228646E-2,1.02921456E-1,-7.4753016E-1,1.1349827E0,2.2090192E0,-2.2492501E-1,1.0686249E-1,8.712746E-1,1.2899284E0,3.3920178E0,-6.207175E-1,4.9313566E-1,8.1203145E-1,1.1095862E-1,1.0862465E0,-7.947772E-1,3.737533E0,2.0409002E0,3.1558297E0,1.0809984E0,3.2219944E0,9.143089E-1,-6.9190013E-1,2.3969334E-2,3.1400386E-2,1.0073494E-1,-2.1002006E-2,-8.202889E-3,1.04968525E-1,1.6740077E-3,6.10071E-2,9.3765825E-2,-3.0562012E-2,-2.5538603E-2,-2.3656698E-2,-8.600833E-3,1.17188804E-1,9.888186E-2,-2.2040937E-2,7.048329E-2,-3.0818729E-2,-9.375676E-3,1.2014823E-2,8.692092E-2,-1.823922E-2,3.406976E-2,-3.1453338E-2,-2.5454637E-2,-2.4865E-2,1.2120486E-2,-1.691846E-2,9.770513E-3,7.7332733E-3,1.0331742E-1,-2.2550594E-2,3.2435148E-3,1.7841576E-2,1.0280853E-1,-7.4907945E-4,5.666753E-2,3.0886324E-2,-5.9823995E-3,1.4206081E-2,5.4429766E-2,-2.3097297E-2,-7.198086E-3,1.0977266E-1,-2.2132149E-2,1.0698534E-1,4.038843E-2,-1.3499183E-2,4.7166757E-2,5.4132596E-2,9.351583E-4,-1.7337471E-2,6.982916E-2,9.9861465E-2,2.6982682E-2,-2.0621335E-2,1.0919497E-2,1.2071897E-1,3.0333716E-3,-5.006755E-3,8.117054E-2,7.752861E-2,3.6655874E-3,-4.461481E-3,-3.121339E-2,5.364379E-2,1.0857589E-1,1.20253395E-2,7.950157E-2,3.4360442E-2,8.983967E-2,1.11210644E-1,1.4291363E-2,9.6102424E-2,7.974972E-2,9.652207E-2,1.3185663E-2,1.7387472E-2,-2.2032622E-2],"categories":[],"categories_nodes":[],"categories_segments":[],"categories_sizes":[],"default_left":[0,0,0,0,0,0,0,0,0,0,0,0,0,0,0,0,0,0,0,0,0,0,0,0,0,0,0,0,0,0,0,0,0,0,0,0,0,0,0,0,0,0,0,0,0,0,0,0,0,0,0,0,0,0,0,0,0,0,0,0,0,0,0,0,0,0,0,0,0,0,0,0,0,0,0,0,0,0,0,0,0,0,0,0,0,0,0,0,0,0,0,0,0,0,0,0,0,0,0,0,0,0,0,0,0,0,0,0,0,0,0,0,0,0,0,0,0,0,0,0,0,0,0,0,0,0,0,0,0,0,0,0,0,0,0,0,0,0,0,0,0,0,0,0,0,0,0,0,0,0,0,0,0,0,0,0,0,0,0,0,0,0,0,0,0,0,0,0,0,0,0,0,0,0,0,0,0,0,0,0,0],"id":6,"left_children":[1,3,5,7,9,11,13,15,17,19,21,23,25,27,29,31,-1,33,35,37,-1,39,41,43,-1,45,47,49,51,53,55,57,59,61,63,65,67,-1,-1,69,71,73,75,77,79,81,83,85,87,89,91,93,95,97,99,101,103,105,107,-1,109,111,113,115,117,119,-1,121,123,125,127,129,131,133,135,-1,137,139,141,-1,-1,143,145,147,149,-1,151,153,155,157,159,161,-1,163,165,167,169,171,173,175,177,179,-1,-1,-1,-1,-1,-1,-1,-1,-1,-1,-1,-1,-1,-1,-1,-1,-1,-1,-1,-1,-1,-1,-1,-1,-1,-1,-1,-1,-1,-1,-1,-1,-1,-1,-1,-1,-1,-1,-1,-1,-1,-1,-1,-1,-1,-1,-1,-1,-1,-1,-1,-1,-1,-1,-1,-1,-1,-1,-1,-1,-1,-1,-1,-1,-1,-1,-1,-1,-1,-1,-1,-1,-1,-1,-1,-1,-1,-1,-1],"loss_changes":[5.944755E4,8.829747E3,1.5788598E4,5.8856914E3,9.474852E3,4.1569507E3,5.2351562E3,5.2188525E3,1.9013184E3,2.3006836E1,4.2208447E3,1.0784478E3,3.551652E3,1.495363E3,2.349E3,2.5040703E3,0E0,1.1028906E3,8.347894E2,9.295898E0,0E0,1.0802739E3,9.714414E2,3.3189685E2,0E0,4.1138544E2,4.8171265E2,4.089365E2,4.7961572E2,1.6155391E3,3.3427158E2,5.228906E2,1.7539526E2,4.461289E2,5.001082E3,7.119568E1,4.3547974E2,0E0,0E0,9.667078E1,9.465679E2,2.1146219E2,6.441206E2,2.669005E2,8.607239E0,3.8389368E2,4.6460666E2,4.8053467E2,1.4121631E2,1.7831746E2,2.5253622E2,8.4678635E1,2.3259717E2,1.5547534E3,9.458828E2,4.0432E1,5.1259277E1,6.5836365E1,6.4180554E2,0E0,3.2504395E1,2.1433008E2,3.5920947E2,1.5439941E1,1.70703E2,7.2241364E0,0E0,4.703252E2,4.760024E1,3.459961E0,2.2992432E2,4.476451E2,3.4114594E2,6.2950424E1,1.9604591E2,0E0,7.342649E2,1.2547565E2,1.7305872E2,0E0,0E0,1.1871887E2,6.181621E2,1.2477899E2,1.5842337E2,0E0,3.3235608E2,9.614283E1,1.040271E2,6.93481E1,2.865945E2,3.384145E2,0E0,9.060093E1,8.386757E0,4.2816895E1,2.4126819E2,1.0122949E2,1.37257E3,5.0610156E2,2.0599599E2,2.8746925E1,0E0,0E0,0E0,0E0,0E0,0E0,0E0,0E0,0E0,0E0,0E0,0E0,0E0,0E0,0E0,0E0,0E0,0E0,0E0,0E0,0E0,0E0,0E0,0E0,0E0,0E0,0E0,0E0,0E0,0E0,0E0,0E0,0E0,0E0,0E0,0E0,0E0,0E0,0E0,0E0,0E0,0E0,0E0,0E0,0E0,0E0,0E0,0E0,0E0,0E0,0E0,0E0,0E0,0E0,0E0,0E0,0E0,0E0,0E0,0E0,0E0,0E0,0E0,0E0,0E0,0E0,0E0,0E0,0E0,0E0,0E0,0E0,0E0,0E0,0E0,0E0,0E0,0E0,0E0],"parents":[2147483647,0,0,1,1,2,2,3,3,4,4,5,5,6,6,7,7,8,8,9,9,10,10,11,11,12,12,13,13,14,14,15,15,17,17,18,18,19,19,21,21,22,22,23,23,25,25,26,26,27,27,28,28,29,29,30,30,31,31,32,32,33,33,34,34,35,35,36,36,39,39,40,40,41,41,42,42,43,43,44,44,45,45,46,46,47,47,48,48,49,49,50,50,51,51,52,52,53,53,54,54,55,55,56,56,57,57,58,58,60,60,61,61,62,62,63,63,64,64,65,65,67,67,68,68,69,69,70,70,71,71,72,72,73,73,74,74,76,76,77,77,78,78,81,81,82,82,83,83,84,84,86,86,87,87,88,88,89,89,90,90,91,91,93,93,94,94,95,95,96,96,97,97,98,98,99,99,100,100,101,101],"right_children":[2,4,6,8,10,12,14,16,18,20,22,24,26,28,30,32,-1,34,36,38,-1,40,42,44,-1,46,48,50,52,54,56,58,60,62,64,66,68,-1,-1,70,72,74,76,78,80,82,84,86,88,90,92,94,96,98,100,102,104,106,108,-1,110,112,114,116,118,120,-1,122,124,126,128,130,132,134,136,-1,138,140,142,-1,-1,144,146,148,150,-1,152,154,156,158,160,162,-1,164,166,168,170,172,174,176,178,180,-1,-1,-1,-1,-1,-1,-1,-1,-1,-1,-1,-1,-1,-1,-1,-1,-1,-1,-1,-1,-1,-1,-1,-1,-1,-1,-1,-1,-1,-1,-1,-1,-1,-1,-1,-1,-1,-1,-1,-1,-1,-1,-1,-1,-1,-1,-1,-1,-1,-1,-1,-1,-1,-1,-1,-1,-1,-1,-1,-1,-1,-1,-1,-1,-1,-1,-1,-1,-1,-1,-1,-1,-1,-1,-1,-1,-1,-1,-1],"split_conditions":[4.9266428E-2,2.623033E-2,1.0652628E0,1E0,1E0,1E0,1.6414465E-2,1.3124771E-1,2.0833492E0,7.131424E-1,3.5250004E-2,1.3124771E-1,1.5346293E0,2.623033E-2,1E0,2.2196562E0,9.646984E-2,9.3140006E-1,1.6414465E-2,1E0,9.981234E-2,2.5785432E-6,1.0260915E0,1.0465137E0,9.68265E-2,1.0056268E0,1.27721565E2,4.07272E0,7.843818E-2,1.0343636E0,2.0140799E-2,1.0652628E0,5.7184592E-2,3.4331996E-2,1E0,1.1396086E1,4.025231E2,9.960791E-2,1.16007134E-1,2.66E2,1.069179E0,1.0343636E0,2E0,3.658572E3,6.789948E3,1E0,2E0,1E0,6.239044E-1,3.8122706E-2,1.908E3,7.39E2,6.571429E-1,1E0,1E0,1.1370474E0,2.6130003E-3,3.5250004E-2,2E0,-4.9887877E-3,2.2705708E0,2.3804933E-8,1.0343636E0,2.0014782E-2,1E1,1.0361E4,2.2274548E-2,5.286512E0,1.6456045E0,2.05E2,2.2429492E-2,1.8223964E-2,2.2196562E0,1.18E2,5.599E1,1.0415682E-1,2.0746922E0,1E0,1E0,7.228646E-2,1.02921456E-1,1.5095E2,1.3936707E-1,2E0,1.0265491E0,1.0686249E-1,1E0,4.780367E3,9.9505055E-1,1.00290276E2,1E0,1.0465137E0,1.1095862E-1,2.989936E2,4.6175692E-2,6.6756386E-1,3.1764493E0,5.032693E-1,2E0,2E0,2.9E1,3.6E1,2.3969334E-2,3.1400386E-2,1.0073494E-1,-2.1002006E-2,-8.202889E-3,1.04968525E-1,1.6740077E-3,6.10071E-2,9.3765825E-2,-3.0562012E-2,-2.5538603E-2,-2.3656698E-2,-8.600833E-3,1.17188804E-1,9.888186E-2,-2.2040937E-2,7.048329E-2,-3.0818729E-2,-9.375676E-3,1.2014823E-2,8.692092E-2,-1.823922E-2,3.406976E-2,-3.1453338E-2,-2.5454637E-2,-2.4865E-2,1.2120486E-2,-1.691846E-2,9.770513E-3,7.7332733E-3,1.0331742E-1,-2.2550594E-2,3.2435148E-3,1.7841576E-2,1.0280853E-1,-7.4907945E-4,5.666753E-2,3.0886324E-2,-5.9823995E-3,1.4206081E-2,5.4429766E-2,-2.3097297E-2,-7.198086E-3,1.0977266E-1,-2.2132149E-2,1.0698534E-1,4.038843E-2,-1.3499183E-2,4.7166757E-2,5.4132596E-2,9.351583E-4,-1.7337471E-2,6.982916E-2,9.9861465E-2,2.6982682E-2,-2.0621335E-2,1.0919497E-2,1.2071897E-1,3.0333716E-3,-5.006755E-3,8.117054E-2,7.752861E-2,3.6655874E-3,-4.461481E-3,-3.121339E-2,5.364379E-2,1.0857589E-1,1.20253395E-2,7.950157E-2,3.4360442E-2,8.983967E-2,1.11210644E-1,1.4291363E-2,9.6102424E-2,7.974972E-2,9.652207E-2,1.3185663E-2,1.7387472E-2,-2.2032622E-2],"split_indices":[278,194,11,24,194,24,183,24,14,175,278,24,169,194,131,11,0,209,183,24,0,276,194,128,0,183,215,18,278,21,184,11,14,278,184,11,23,0,0,233,53,21,194,263,263,300,97,138,236,138,265,207,275,24,261,132,268,278,11,0,12,276,21,181,196,233,0,11,236,233,278,278,11,208,219,0,194,113,230,0,0,0,240,183,185,0,38,263,186,254,138,128,0,8,279,61,18,27,11,24,239,233,0,0,0,0,0,0,0,0,0,0,0,0,0,0,0,0,0,0,0,0,0,0,0,0,0,0,0,0,0,0,0,0,0,0,0,0,0,0,0,0,0,0,0,0,0,0,0,0,0,0,0,0,0,0,0,0,0,0,0,0,0,0,0,0,0,0,0,0,0,0,0,0,0,0,0,0,0,0,0],"split_type":[0,0,0,0,0,0,0,0,0,0,0,0,0,0,0,0,0,0,0,0,0,0,0,0,0,0,0,0,0,0,0,0,0,0,0,0,0,0,0,0,0,0,0,0,0,0,0,0,0,0,0,0,0,0,0,0,0,0,0,0,0,0,0,0,0,0,0,0,0,0,0,0,0,0,0,0,0,0,0,0,0,0,0,0,0,0,0,0,0,0,0,0,0,0,0,0,0,0,0,0,0,0,0,0,0,0,0,0,0,0,0,0,0,0,0,0,0,0,0,0,0,0,0,0,0,0,0,0,0,0,0,0,0,0,0,0,0,0,0,0,0,0,0,0,0,0,0,0,0,0,0,0,0,0,0,0,0,0,0,0,0,0,0,0,0,0,0,0,0,0,0,0,0,0,0,0,0,0,0,0,0],"sum_hessian":[5.9459414E4,4.4856605E4,1.4602811E4,3.804752E4,6.809085E3,5.235779E3,9.367032E3,2.6535457E3,3.5393973E4,7.6510156E2,6.043984E3,1.1827245E3,4.0530544E3,1.3641093E3,8.0029224E3,2.124293E3,5.2925275E2,3.4821996E4,5.7197955E2,3.2272906E2,4.4237247E2,4.3779116E3,1.6660721E3,8.379124E2,3.4481213E2,3.3740356E3,6.790188E2,9.338851E2,4.3022415E2,7.7410474E3,2.6187515E2,1.8812089E3,2.430841E2,3.2547893E4,2.2741025E3,1.8494934E2,3.8703018E2,8.817987E1,2.345492E2,2.3136252E3,2.0642864E3,4.8747562E2,1.1785966E3,7.657218E2,7.219058E1,2.9578215E3,4.1621408E2,4.2941974E2,2.4959906E2,7.451113E2,1.8877374E2,9.6311165E1,3.33913E2,1.4704025E3,6.270645E3,2.2542673E2,3.6448433E1,1.6051678E3,2.7604108E2,1.6125359E1,2.2695874E2,2.64446E4,6.1032925E3,2.6799362E2,2.0061088E3,1.6168199E2,2.3267351E1,3.0545862E2,8.157157E1,1.2742323E3,1.0393928E3,1.9315702E3,1.327161E2,2.8992563E2,1.9754997E2,1.6071944E2,1.01787714E3,2.8271677E2,4.8300507E2,2.0323135E1,5.1867447E1,2.8459116E3,1.1190986E2,1.03908394E2,3.123057E2,6.280668E1,3.6661307E2,3.9469013E1,2.1013005E2,5.516246E2,1.9348677E2,1.5992938E2,2.8844357E1,5.529705E1,4.1014114E1,1.5200938E2,1.819036E2,6.415019E2,8.2890063E2,6.086737E3,1.8390808E2,2.0800743E2,1.74193E1,1.4773932E1,2.16745E1,1.183597E3,4.215707E2,5.7965584E1,2.1807549E2,3.4060825E1,1.9289792E2,1.2050723E4,1.4393878E4,4.41962E3,1.6836727E3,9.953543E1,1.6845819E2,1.9913815E3,1.4727307E1,1.468789E2,1.4803093E1,9.2878784E1,2.1257982E2,6.557726E1,1.5994305E1,1.1628384E3,1.1139391E2,8.8898145E2,1.5041142E2,9.3642993E2,9.9514026E2,4.221074E1,9.0505356E1,1.3722473E2,1.5270091E2,1.7443343E2,2.3116539E1,2.1734407E2,8.005331E2,1.350993E2,1.4761748E2,1.0635138E2,3.766537E2,2.419682E3,4.2622974E2,4.520021E1,6.670964E1,3.1502981E1,7.240541E1,2.7547153E2,3.683415E1,1.5946846E2,2.071446E2,1.5506914E1,2.39621E1,1.9289291E2,1.7237133E1,4.9222205E2,5.9402508E1,1.6763622E1,1.7672316E2,1.0925564E2,5.067374E1,1.922412E1,3.6072933E1,1.4647121E1,2.6366993E1,1.464235E1,1.3736703E2,6.2271435E1,1.19632164E2,2.792035E1,6.1358154E2,1.3326823E2,6.956324E2,3.5538625E3,2.5328743E3,2.6032879E1,1.578752E2,1.4659126E1,1.933483E2],"tree_param":{"num_deleted":"0","num_feature":"304","num_nodes":"181","size_leaf_vector":"1"}},{"base_weights":[-8.17893E-3,-5.702689E-1,1.6606579E0,-7.558595E-1,4.451791E-1,3.9662638E-1,2.27937E0,6.446085E-1,-8.623695E-1,-1.5574381E-1,1.7207973E0,1.9958391E0,-1.3814779E-1,5.751827E-1,2.595506E0,-2.7247548E-2,9.015175E-2,-8.926845E-1,9.082835E-1,-7.776518E-1,4.8404896E-1,5.7100594E-1,2.108261E0,1.4965013E0,9.072392E-2,-5.831676E-1,1.8486603E0,-1.0600051E-1,2.0710526E0,2.8268027E0,1.2929751E0,-5.411145E-1,2.0672784E0,-9.40185E-1,-2.2178027E-1,-8.2842743E-1,1.699592E0,-3.161497E-2,-5.04784E-1,1.0462765E0,-2.4506451E-1,2.4509133E-1,2.7790082E0,3.6585698E0,1.8413837E0,2.8818706E-1,1.8113242E0,8.172742E-2,-7.42873E-1,3.2958372E0,1.2810087E0,-4.6388286E-1,1.1174041E0,2.5545484E-1,2.5504615E0,2.4614532E0,3.3299708E0,4.3576577E-1,2.7872796E0,-3.1933356E-2,-3.8977888E-1,2.5763733E0,-4.1874346E-1,-8.4412E-1,-1.0810045E0,3.5459414E0,-7.555782E-1,-3.0762713E-2,3.3795384E-1,2.2013545E0,-3.2099506E-1,-7.3248196E-1,4.1575465E-1,2.868573E0,3.211648E-1,-8.243033E-1,3.0091804E-1,4.2149365E-2,3.1474257E0,4.1017246E-2,3.2939994E0,9.7879745E-2,1.16445355E-1,1.3988963E0,2.8415515E0,6.1497045E-1,-2.9969437E-2,3.975193E0,1.5572708E0,-2.9550588E-1,2.9905028E0,-7.649438E-1,3.6731493E-2,9.871109E-3,3.7147143E0,2.3418173E-2,2.4323034E0,-6.136992E-1,1.5092013E0,6.0591944E-2,2.509161E0,1.0679857E0,-7.416427E-1,3.528365E0,1.7667328E0,3.794774E-1,2.6822202E0,3.3801937E0,2.189523E0,8.051346E-2,1.9666032E0,1.4788779E0,3.2401538E0,-1.874708E-2,1.551032E-3,-3.139862E-3,8.3312176E-2,-2.6432896E-2,1.7665375E-2,-2.5386028E-2,1.617276E-1,-3.0579662E-2,-2.6340721E-2,1.0758715E-1,9.224155E-2,-2.6952373E-2,-1.1624736E-2,-1.1348219E-2,4.0009957E-2,-2.7550915E-3,7.4609146E-2,-2.2680352E-2,1.2421522E-2,1.9693388E-2,-2.3438621E-2,3.1825498E-2,-9.659657E-3,1.1568218E-1,3.668274E-2,2.0706647E-3,8.679401E-2,-2.4309818E-2,1.5383964E-2,1.0113209E-3,6.386732E-2,3.1808853E-2,-1.2267856E-2,4.218613E-2,1.2999332E-1,6.920275E-2,9.8347045E-2,7.961956E-2,2.4543181E-2,-1.717691E-2,8.354972E-2,1.0863118E-2,6.401495E-2,7.894171E-2,1.1876348E-1,2.0044249E-2,5.491508E-2,-1.2631028E-2,5.6503184E-2,-8.498431E-3,1.0800043E-1,-2.1695351E-2,4.009983E-2,6.43104E-2,1.0695802E-1,4.398351E-2,-1.4966651E-2,4.6253406E-2,9.109277E-2,-1.995569E-2,1.2389549E-2,7.660549E-2,-5.57404E-3,-1.7125925E-2,3.2260537E-2,8.831266E-2,1.5446615E-3,8.491395E-2,2.7800628E-3,-2.8330324E-2,-3.756662E-3,5.3857006E-2,1.0186676E-1,9.563232E-3,7.315388E-2,1.0186322E-1,4.574953E-3,8.9144774E-2,6.282677E-2,9.4100125E-2,3.993348E-2,9.741552E-3,7.319132E-2,-1.0149308E-2,3.313124E-2,1.4056677E-2,6.9613285E-2,9.640556E-3,7.972287E-2,1.0256648E-1,5.7947733E-2],"categories":[],"categories_nodes":[],"categories_segments":[],"categories_sizes":[],"default_left":[0,0,0,0,0,0,0,0,0,0,0,0,0,0,0,0,0,0,0,0,0,0,0,0,0,0,0,0,0,0,0,0,0,0,0,0,0,0,0,0,0,0,0,0,0,0,0,0,0,0,0,0,0,0,0,0,0,0,0,0,0,0,0,0,0,0,0,0,0,0,0,0,0,0,0,0,0,0,0,0,0,0,0,0,0,0,0,0,0,0,0,0,0,0,0,0,0,0,0,0,0,0,0,0,0,0,0,0,0,0,0,0,0,0,0,0,0,0,0,0,0,0,0,0,0,0,0,0,0,0,0,0,0,0,0,0,0,0,0,0,0,0,0,0,0,0,0,0,0,0,0,0,0,0,0,0,0,0,0,0,0,0,0,0,0,0,0,0,0,0,0,0,0,0,0,0,0,0,0,0,0,0,0,0,0,0,0,0,0,0,0,0,0,0,0,0,0,0,0,0,0,0,0,0,0],"id":7,"left_children":[1,3,5,7,9,11,13,15,17,19,21,23,25,27,29,31,-1,33,35,37,39,41,43,45,-1,47,49,51,53,55,57,59,61,63,65,67,69,-1,71,73,75,77,79,81,83,85,87,89,91,93,95,97,99,101,103,105,107,109,111,-1,113,115,117,119,121,123,125,-1,127,129,131,133,135,137,139,141,143,145,147,-1,149,-1,-1,151,153,155,-1,157,159,161,163,165,-1,-1,167,169,171,173,175,177,179,181,183,185,187,189,191,193,195,197,199,201,203,-1,-1,-1,-1,-1,-1,-1,-1,-1,-1,-1,-1,-1,-1,-1,-1,-1,-1,-1,-1,-1,-1,-1,-1,-1,-1,-1,-1,-1,-1,-1,-1,-1,-1,-1,-1,-1,-1,-1,-1,-1,-1,-1,-1,-1,-1,-1,-1,-1,-1,-1,-1,-1,-1,-1,-1,-1,-1,-1,-1,-1,-1,-1,-1,-1,-1,-1,-1,-1,-1,-1,-1,-1,-1,-1,-1,-1,-1,-1,-1,-1,-1,-1,-1,-1,-1,-1,-1,-1,-1,-1,-1],"loss_changes":[5.5524715E4,8.345012E3,1.16624375E4,5.584717E3,5.245606E3,4.1928047E3,5.392586E3,4.6371167E3,1.8681133E3,1.8512837E3,9.748594E2,7.790679E2,3.2490886E3,1.5980208E3,2.5409336E3,2.2659556E3,0E0,1.0897266E3,8.063567E2,2.3291418E2,9.404155E2,3.9719458E2,6.720332E2,3.3576038E2,0E0,3.1898743E2,5.484817E2,4.7215695E2,4.2607007E2,1.31125E3,1.6317017E3,1.5570822E2,5.260956E2,4.3110547E2,4.5526084E3,6.0747116E1,4.092616E2,0E0,2.8290555E2,1.7100365E3,3.1618307E2,2.8385684E2,4.3087463E1,4.345459E0,6.1568604E2,8.266264E1,3.8013672E2,6.3968134E2,1.1113818E2,2.3086914E2,7.0065295E2,2.4718216E2,3.5831863E2,8.43946E1,2.918423E2,1.9096191E3,1.6622266E2,4.406306E2,2.7090356E2,0E0,1.7340953E2,3.9846167E2,4.0636177E1,9.102611E3,3.6460938E1,9.823975E0,1.4394275E2,0E0,3.0491247E1,3.6489795E2,3.1194021E1,1.7696783E2,1.5027527E2,7.379126E2,6.4148267E2,3.5687317E1,2.7206573E2,2.4288799E2,7.262094E1,0E0,2.593811E0,0E0,0E0,7.327135E2,2.578667E2,5.514627E1,0E0,1.5320557E1,2.2089685E2,1.9317531E2,2.0143799E2,9.4812256E1,0E0,0E0,2.5514648E1,2.053904E2,1.5990808E2,8.7758026E1,1.2750758E2,1.0506034E2,1.7400311E2,1.099452E2,7.622629E0,3.370215E1,2.678595E2,2.811359E2,8.2766797E2,7.758203E1,1.0599341E2,3.2872913E2,1.1988617E2,1.8972443E2,1.7546436E2,0E0,0E0,0E0,0E0,0E0,0E0,0E0,0E0,0E0,0E0,0E0,0E0,0E0,0E0,0E0,0E0,0E0,0E0,0E0,0E0,0E0,0E0,0E0,0E0,0E0,0E0,0E0,0E0,0E0,0E0,0E0,0E0,0E0,0E0,0E0,0E0,0E0,0E0,0E0,0E0,0E0,0E0,0E0,0E0,0E0,0E0,0E0,0E0,0E0,0E0,0E0,0E0,0E0,0E0,0E0,0E0,0E0,0E0,0E0,0E0,0E0,0E0,0E0,0E0,0E0,0E0,0E0,0E0,0E0,0E0,0E0,0E0,0E0,0E0,0E0,0E0,0E0,0E0,0E0,0E0,0E0,0E0,0E0,0E0,0E0,0E0,0E0,0E0,0E0,0E0,0E0,0E0],"parents":[2147483647,0,0,1,1,2,2,3,3,4,4,5,5,6,6,7,7,8,8,9,9,10,10,11,11,12,12,13,13,14,14,15,15,17,17,18,18,19,19,20,20,21,21,22,22,23,23,25,25,26,26,27,27,28,28,29,29,30,30,31,31,32,32,33,33,34,34,35,35,36,36,38,38,39,39,40,40,41,41,42,42,43,43,44,44,45,45,46,46,47,47,48,48,49,49,50,50,51,51,52,52,53,53,54,54,55,55,56,56,57,57,58,58,60,60,61,61,62,62,63,63,64,64,65,65,66,66,68,68,69,69,70,70,71,71,72,72,73,73,74,74,75,75,76,76,77,77,78,78,80,80,83,83,84,84,85,85,87,87,88,88,89,89,90,90,91,91,94,94,95,95,96,96,97,97,98,98,99,99,100,100,101,101,102,102,103,103,104,104,105,105,106,106,107,107,108,108,109,109,110,110,111,111,112,112],"right_children":[2,4,6,8,10,12,14,16,18,20,22,24,26,28,30,32,-1,34,36,38,40,42,44,46,-1,48,50,52,54,56,58,60,62,64,66,68,70,-1,72,74,76,78,80,82,84,86,88,90,92,94,96,98,100,102,104,106,108,110,112,-1,114,116,118,120,122,124,126,-1,128,130,132,134,136,138,140,142,144,146,148,-1,150,-1,-1,152,154,156,-1,158,160,162,164,166,-1,-1,168,170,172,174,176,178,180,182,184,186,188,190,192,194,196,198,200,202,204,-1,-1,-1,-1,-1,-1,-1,-1,-1,-1,-1,-1,-1,-1,-1,-1,-1,-1,-1,-1,-1,-1,-1,-1,-1,-1,-1,-1,-1,-1,-1,-1,-1,-1,-1,-1,-1,-1,-1,-1,-1,-1,-1,-1,-1,-1,-1,-1,-1,-1,-1,-1,-1,-1,-1,-1,-1,-1,-1,-1,-1,-1,-1,-1,-1,-1,-1,-1,-1,-1,-1,-1,-1,-1,-1,-1,-1,-1,-1,-1,-1,-1,-1,-1,-1,-1,-1,-1,-1,-1,-1,-1],"split_conditions":[4.9266428E-2,9.328E-1,1.2250798E0,1E0,3.4043025E-2,1E0,1.6414465E-2,1.3124771E-1,2.0833492E0,2.5785432E-6,9.83148E-3,1.3124771E-1,1.5582466E0,9.328E-1,1E0,1.2250798E0,9.015175E-2,9.3140006E-1,1.6414465E-2,3.876807E-1,2E0,5.2512007E0,1E0,3.7922364E-2,9.072392E-2,4.0408406E-2,1E0,3.8122706E-2,7.843818E-2,1.99365E-1,1.028144E0,1.7938931E-1,2E0,1E0,1E0,4.932793E-3,4.025231E2,-3.161497E-2,2.4366427E-2,1E0,1.7495004E-2,2.0158966E0,1.0108759E0,2E0,2.0014782E-2,8.101943E-1,1E0,3.0618845E-4,1.0108759E0,1.6414465E-2,2.027661E0,1.276559E1,6.042085E0,2.01E2,6.571429E-1,3.7922364E-2,1E0,1.1475703E0,2.0014782E-2,-3.1933356E-2,5.7184592E-2,3.7922364E-2,2.2705708E0,1.3719395E-2,3.4331996E-2,2.0014782E-2,9.881768E-6,-3.0762713E-2,6.5E1,3.1448915E0,6.789948E3,1E0,1E0,2E0,1.069179E0,1.3237794E-2,1.9718131E-2,2E0,5.1108627E0,4.1017246E-2,4.472136E0,9.7879745E-2,1.16445355E-1,1E0,9.003733E1,7.234E3,-2.9969437E-2,6.176294E-2,3.658572E3,9.328E-1,3.2837477E-2,4.919875E2,3.6731493E-2,9.871109E-3,1.2095057E0,2E0,5.7325494E-1,3.61045E5,9.9E1,1.0509585E-1,3.3053265E2,2.9227155E2,2.55E2,6.6756386E-1,3.1764493E0,2E0,1E0,5E0,4.1197384E1,9.83148E-3,1.99365E-1,1.1727761E-1,2E0,-1.874708E-2,1.551032E-3,-3.139862E-3,8.3312176E-2,-2.6432896E-2,1.7665375E-2,-2.5386028E-2,1.617276E-1,-3.0579662E-2,-2.6340721E-2,1.0758715E-1,9.224155E-2,-2.6952373E-2,-1.1624736E-2,-1.1348219E-2,4.0009957E-2,-2.7550915E-3,7.4609146E-2,-2.2680352E-2,1.2421522E-2,1.9693388E-2,-2.3438621E-2,3.1825498E-2,-9.659657E-3,1.1568218E-1,3.668274E-2,2.0706647E-3,8.679401E-2,-2.4309818E-2,1.5383964E-2,1.0113209E-3,6.386732E-2,3.1808853E-2,-1.2267856E-2,4.218613E-2,1.2999332E-1,6.920275E-2,9.8347045E-2,7.961956E-2,2.4543181E-2,-1.717691E-2,8.354972E-2,1.0863118E-2,6.401495E-2,7.894171E-2,1.1876348E-1,2.0044249E-2,5.491508E-2,-1.2631028E-2,5.6503184E-2,-8.498431E-3,1.0800043E-1,-2.1695351E-2,4.009983E-2,6.43104E-2,1.0695802E-1,4.398351E-2,-1.4966651E-2,4.6253406E-2,9.109277E-2,-1.995569E-2,1.2389549E-2,7.660549E-2,-5.57404E-3,-1.7125925E-2,3.2260537E-2,8.831266E-2,1.5446615E-3,8.491395E-2,2.7800628E-3,-2.8330324E-2,-3.756662E-3,5.3857006E-2,1.0186676E-1,9.563232E-3,7.315388E-2,1.0186322E-1,4.574953E-3,8.9144774E-2,6.282677E-2,9.4100125E-2,3.993348E-2,9.741552E-3,7.319132E-2,-1.0149308E-2,3.313124E-2,1.4056677E-2,6.9613285E-2,9.640556E-3,7.972287E-2,1.0256648E-1,5.7947733E-2],"split_indices":[278,217,12,24,278,24,183,24,14,276,94,24,214,217,188,12,0,209,183,273,34,22,94,202,0,279,188,138,278,25,189,273,191,110,184,56,23,0,278,302,278,85,119,143,181,15,18,276,119,183,183,18,27,217,275,202,201,103,181,0,14,202,12,110,278,181,276,0,27,12,263,24,187,33,53,299,147,191,181,0,223,0,0,123,239,271,0,18,263,217,242,239,0,0,213,23,273,253,26,278,232,8,271,61,18,12,104,179,239,94,25,278,188,0,0,0,0,0,0,0,0,0,0,0,0,0,0,0,0,0,0,0,0,0,0,0,0,0,0,0,0,0,0,0,0,0,0,0,0,0,0,0,0,0,0,0,0,0,0,0,0,0,0,0,0,0,0,0,0,0,0,0,0,0,0,0,0,0,0,0,0,0,0,0,0,0,0,0,0,0,0,0,0,0,0,0,0,0,0,0,0,0,0,0,0],"split_type":[0,0,0,0,0,0,0,0,0,0,0,0,0,0,0,0,0,0,0,0,0,0,0,0,0,0,0,0,0,0,0,0,0,0,0,0,0,0,0,0,0,0,0,0,0,0,0,0,0,0,0,0,0,0,0,0,0,0,0,0,0,0,0,0,0,0,0,0,0,0,0,0,0,0,0,0,0,0,0,0,0,0,0,0,0,0,0,0,0,0,0,0,0,0,0,0,0,0,0,0,0,0,0,0,0,0,0,0,0,0,0,0,0,0,0,0,0,0,0,0,0,0,0,0,0,0,0,0,0,0,0,0,0,0,0,0,0,0,0,0,0,0,0,0,0,0,0,0,0,0,0,0,0,0,0,0,0,0,0,0,0,0,0,0,0,0,0,0,0,0,0,0,0,0,0,0,0,0,0,0,0,0,0,0,0,0,0,0,0,0,0,0,0,0,0,0,0,0,0,0,0,0,0,0,0],"sum_hessian":[5.9191258E4,4.427825E4,1.4913007E4,3.743647E4,6.841784E3,4.901243E3,1.0011764E4,2.6455435E3,3.4790926E4,4.6511763E3,2.190608E3,1.2278389E3,3.6734045E3,1.5670342E3,8.4447295E3,2.1041E3,5.414434E2,3.420576E4,5.851638E2,2.3586265E3,2.2925498E3,5.527169E2,1.6378909E3,8.839662E2,3.4387274E2,3.0016753E3,6.717293E2,1.0770953E3,4.8993878E2,7.170445E3,1.2742844E3,1.690086E3,4.14014E2,3.1943557E4,2.2622031E3,1.8307874E2,4.0208505E2,1.0109829E3,1.3476436E3,1.2943838E3,9.9816595E2,4.824025E2,7.031442E1,2.3908899E2,1.3988019E3,1.8312273E2,7.0084344E2,5.811887E2,2.4204866E3,1.8817554E2,4.8355374E2,8.337923E2,2.4330304E2,1.0265972E2,3.8727905E2,4.1568267E3,3.0136182E3,8.104388E2,4.638456E2,3.343305E2,1.3557555E3,3.4368414E2,7.032988E1,1.899314E4,1.2950417E4,2.8017703E2,1.9820261E3,1.4765501E2,3.5423717E1,3.2212372E2,7.996133E1,1.0806881E3,2.6695538E2,3.677579E2,9.26626E2,4.8432364E2,5.138423E2,4.5162378E2,3.0778694E1,2.0861378E1,4.9453045E1,1.9831633E2,4.0772667E1,9.711019E2,4.2769998E2,1.4827754E2,3.484518E1,7.244489E1,6.2839856E2,5.149858E2,6.6202934E1,2.39547E3,2.5016413E1,2.369298E1,1.6448256E2,2.3154068E2,2.5201306E2,7.7550415E2,5.8288143E1,1.3880016E2,1.0450288E2,5.6642597E1,4.601712E1,1.7105902E2,2.1622003E2,3.9879245E2,3.7580342E3,2.8849797E3,1.2863852E2,6.585096E2,1.5192917E2,1.2017076E2,3.4367487E2,8.252582E2,5.304973E2,4.7315838E1,2.963683E2,4.6851826E1,2.3478054E1,1.879196E4,2.0117947E2,1.1062982E4,1.8874346E3,1.0525917E2,1.7491788E2,1.2038314E3,7.7819464E2,2.1303808E1,1.411991E1,5.6621933E1,2.655018E2,4.8687496E1,3.1273829E1,7.815615E1,1.00253204E3,1.3625887E2,1.3069653E2,1.9864575E2,1.6911214E2,8.5265497E2,7.3971E1,4.6688016E2,1.7443455E1,4.5465863E2,5.9183662E1,1.3748996E2,3.1413382E2,1.5746323E1,1.50323715E1,1.4026124E1,3.5426918E1,2.499828E2,7.211191E2,2.0181446E1,4.0751852E2,1.3191673E2,1.6360817E1,1.7328457E1,5.5116436E1,2.1255496E2,4.1584357E2,4.825335E2,3.2452282E1,1.432594E1,5.187699E1,2.3769368E3,1.8533258E1,1.6679716E1,1.4780284E2,6.107632E1,1.7046436E2,1.3429843E2,1.1771463E2,7.0527356E2,7.02306E1,3.343199E1,2.4856152E1,8.6037346E1,5.276281E1,8.167469E1,2.282819E1,1.792133E1,3.872127E1,3.0905182E1,1.5111938E1,1.5470942E1,1.5558809E2,8.269361E1,1.3352643E2,2.3594818E1,3.7519763E2,1.6426776E3,2.1153564E3,2.8626997E3,2.2279903E1,2.5682331E1,1.0295619E2,4.7035794E2,1.8815166E2,4.17748E1,1.10154366E2,6.698726E1,5.3183502E1,2.4416823E2,9.950663E1],"tree_param":{"num_deleted":"0","num_feature":"304","num_nodes":"205","size_leaf_vector":"1"}},{"base_weights":[-4.8073693E-3,-5.5834484E-1,1.587117E0,-7.451854E-1,4.425862E-1,3.3333308E-1,2.249674E0,4.870414E-1,-8.357357E-1,3.383926E0,3.683768E-2,-2.8518608E-2,1.895152E0,2.403727E0,-4.0531725E-1,-3.244563E-1,2.1687694E0,-8.6764795E-1,9.399078E-1,9.735474E-2,8.951877E-2,-4.554873E-1,1.2581686E0,1.614541E0,-4.7889906E-1,3.4284918E0,1.506989E0,1.033124E0,2.5832064E0,-6.509071E-1,2.2102165E0,-6.151448E-1,8.569438E-2,2.8480333E-1,2.5905955E0,-9.171938E-1,-1.8057573E-1,-7.7101445E-1,1.6789367E0,-9.427021E-1,-2.099753E-2,1.4868957E-1,1.7079737E0,1.1286559E0,8.563164E-2,-6.41128E-1,3.8821593E-1,1.1200568E-1,9.158848E-2,4.546695E-1,2.3050654E0,3.439786E-1,2.0469916E0,1.7794527E0,2.7712386E0,-7.784643E-1,9.188321E-1,9.126245E-2,2.0224566E-2,-3.1743567E-2,-4.8378962E-1,8.7884754E-2,-4.9091646E-1,-3.20568E-2,2.7378705E0,-8.110521E-1,-1.0754174E0,3.2934773E0,-7.415386E-1,-1.0099207E0,2.3011036E-2,2.733383E-1,2.2985237E0,-3.1272657E-2,-7.340727E-1,-6.139266E-1,5.011529E-1,4.1700397E-2,1.0123064E-1,9.20629E-2,1.4439301E0,3.5004994E-1,1.5599768E0,-7.112811E-1,1.05729E0,2.7935724E0,-1.23994805E-1,1.6941121E0,1.8104196E-1,1.0210099E-1,1.9094982E0,6.4886875E-2,2.0196517E0,1.516079E-1,2.5120783E0,9.206839E-2,1.2838109E0,2.8274758E0,8.309844E-1,-8.301788E-1,2.2717247E-2,-7.972938E-3,7.160188E-2,-1.0482609E-2,-2.9852852E-2,-2.0149792E-2,1.2554137E-2,8.179001E-2,3.2658726E-2,-2.461235E-2,1.3598731E-1,-3.0442815E-2,-2.6088852E-2,8.6168446E-2,9.8879814E-2,-2.1263678E-2,6.1769094E-2,-1.0507279E-3,-3.0592874E-2,5.233556E-2,-9.598571E-3,-2.7995804E-2,7.078398E-2,-2.4854928E-2,1.2395543E-2,-2.189714E-2,4.021732E-3,2.6486512E-2,-2.0691441E-2,-1.2997034E-2,1.4971214E-2,-9.586705E-4,5.088524E-2,2.8258746E-2,-4.1254787E-3,2.4317916E-2,6.212526E-2,7.633858E-3,-2.0920746E-2,9.531258E-2,-2.3924362E-2,9.6984105E-3,1.0308143E-1,-9.75441E-3,4.3275718E-2,2.6222207E-2,8.5642606E-2,-2.3820624E-3,3.2771207E-2,3.7079778E-2,8.533593E-2,-1.2331717E-2,2.9954437E-2,8.1491366E-2,-3.243301E-3,2.4175143E-2,-2.1633783E-2,9.029562E-2,5.1130716E-2,7.015734E-2,1.4992689E-2,9.255912E-2,7.5207494E-2,4.590799E-3,6.1940473E-2,-2.419413E-2,7.7315858E-3],"categories":[],"categories_nodes":[],"categories_segments":[],"categories_sizes":[],"default_left":[0,0,0,0,0,0,0,0,0,0,0,0,0,0,0,0,0,0,0,0,0,0,0,0,0,0,0,0,0,0,0,0,0,0,0,0,0,0,0,0,0,0,0,0,0,0,0,0,0,0,0,0,0,0,0,0,0,0,0,0,0,0,0,0,0,0,0,0,0,0,0,0,0,0,0,0,0,0,0,0,0,0,0,0,0,0,0,0,0,0,0,0,0,0,0,0,0,0,0,0,0,0,0,0,0,0,0,0,0,0,0,0,0,0,0,0,0,0,0,0,0,0,0,0,0,0,0,0,0,0,0,0,0,0,0,0,0,0,0,0,0,0,0,0,0,0,0,0,0,0,0,0,0,0,0,0,0,0,0,0,0,0,0,0,0,0,0],"id":8,"left_children":[1,3,5,7,9,11,13,15,17,19,21,23,25,27,29,31,33,35,37,-1,-1,39,41,43,45,47,49,51,53,55,57,59,-1,61,63,65,67,69,71,73,75,77,79,81,-1,83,85,-1,-1,87,89,91,93,95,97,99,101,-1,-1,-1,103,-1,105,-1,107,109,111,113,115,117,-1,119,121,-1,123,125,127,129,-1,-1,131,133,135,137,139,141,143,145,147,-1,149,151,153,155,157,-1,159,161,163,165,-1,-1,-1,-1,-1,-1,-1,-1,-1,-1,-1,-1,-1,-1,-1,-1,-1,-1,-1,-1,-1,-1,-1,-1,-1,-1,-1,-1,-1,-1,-1,-1,-1,-1,-1,-1,-1,-1,-1,-1,-1,-1,-1,-1,-1,-1,-1,-1,-1,-1,-1,-1,-1,-1,-1,-1,-1,-1,-1,-1,-1,-1,-1,-1,-1,-1,-1],"loss_changes":[5.1943883E4,8.180128E3,1.2632824E4,4.113051E3,8.210856E3,2.9726138E3,4.0708047E3,3.4447224E3,1.9462383E3,7.0185547E0,3.6367515E3,3.160541E3,5.841848E2,2.310875E3,3.5161707E2,1.691695E3,6.517832E2,1.147918E3,7.679169E2,0E0,0E0,9.1225824E2,8.666384E2,6.55084E2,4.7181757E2,4.0820312E0,6.6294727E2,7.6080383E2,1.2522344E3,1.0060184E2,7.277733E1,1.0858948E2,0E0,3.400859E2,3.7292188E2,5.27375E2,4.4249497E3,7.078008E1,3.6815198E2,7.768042E1,7.059447E2,1.874115E2,5.2224365E2,2.3175647E2,0E0,3.3701843E2,6.520489E2,0E0,0E0,1.1544961E2,2.3893848E2,3.0351666E2,3.8790247E2,1.2026572E3,7.3272266E2,3.8749847E1,7.686772E1,0E0,0E0,0E0,7.833844E1,0E0,2.696367E1,0E0,2.11146E2,8.281152E3,3.7621094E1,6.6623535E0,1.4955164E2,1.4333786E1,0E0,1.3142117E2,2.5032043E2,0E0,1.8456653E2,1.4290552E2,6.8782935E2,1.24408264E2,0E0,0E0,6.166821E2,8.307273E1,2.0503662E2,1.1662732E2,5.158427E2,2.0834155E2,1.6780177E2,6.148459E1,7.5450096E1,0E0,2.3074109E2,2.8946347E2,1.8305618E2,5.943151E1,1.7078027E2,0E0,1.1066157E3,3.7496094E2,1.7755424E2,2.1535095E1,0E0,0E0,0E0,0E0,0E0,0E0,0E0,0E0,0E0,0E0,0E0,0E0,0E0,0E0,0E0,0E0,0E0,0E0,0E0,0E0,0E0,0E0,0E0,0E0,0E0,0E0,0E0,0E0,0E0,0E0,0E0,0E0,0E0,0E0,0E0,0E0,0E0,0E0,0E0,0E0,0E0,0E0,0E0,0E0,0E0,0E0,0E0,0E0,0E0,0E0,0E0,0E0,0E0,0E0,0E0,0E0,0E0,0E0,0E0,0E0,0E0,0E0,0E0,0E0,0E0,0E0,0E0],"parents":[2147483647,0,0,1,1,2,2,3,3,4,4,5,5,6,6,7,7,8,8,9,9,10,10,11,11,12,12,13,13,14,14,15,15,16,16,17,17,18,18,21,21,22,22,23,23,24,24,25,25,26,26,27,27,28,28,29,29,30,30,31,31,33,33,34,34,35,35,36,36,37,37,38,38,39,39,40,40,41,41,42,42,43,43,45,45,46,46,49,49,50,50,51,51,52,52,53,53,54,54,55,55,56,56,60,60,62,62,64,64,65,65,66,66,67,67,68,68,69,69,71,71,72,72,74,74,75,75,76,76,77,77,80,80,81,81,82,82,83,83,84,84,85,85,86,86,87,87,88,88,90,90,91,91,92,92,93,93,94,94,96,96,97,97,98,98,99,99],"right_children":[2,4,6,8,10,12,14,16,18,20,22,24,26,28,30,32,34,36,38,-1,-1,40,42,44,46,48,50,52,54,56,58,60,-1,62,64,66,68,70,72,74,76,78,80,82,-1,84,86,-1,-1,88,90,92,94,96,98,100,102,-1,-1,-1,104,-1,106,-1,108,110,112,114,116,118,-1,120,122,-1,124,126,128,130,-1,-1,132,134,136,138,140,142,144,146,148,-1,150,152,154,156,158,-1,160,162,164,166,-1,-1,-1,-1,-1,-1,-1,-1,-1,-1,-1,-1,-1,-1,-1,-1,-1,-1,-1,-1,-1,-1,-1,-1,-1,-1,-1,-1,-1,-1,-1,-1,-1,-1,-1,-1,-1,-1,-1,-1,-1,-1,-1,-1,-1,-1,-1,-1,-1,-1,-1,-1,-1,-1,-1,-1,-1,-1,-1,-1,-1,-1,-1,-1,-1,-1,-1],"split_conditions":[4.9266428E-2,9.328E-1,1.0652628E0,1E0,1E0,1.5346293E0,1E0,1.0652628E0,2.0833492E0,1.1398214E0,3.5250004E-2,1E0,1E0,1.6414465E-2,1.1008546E0,1.6466656E-1,5.7184592E-2,9.3140006E-1,1.6414465E-2,9.735474E-2,8.951877E-2,6.026725E-4,1.0260915E0,1.6466656E-1,1.5582466E0,1.6466656E-1,1.0601908E0,9.328E-1,1.0343636E0,2.623033E-2,4.78E2,1.7938931E-1,8.569438E-2,2E0,1.7938931E-1,1E0,1E0,1.1396086E1,1E0,1.82E2,1.8223964E-2,3.7084436E0,2E0,3.658572E3,8.563164E-2,1E0,1E0,1.1200568E-1,9.158848E-2,6E0,2E0,1.213883E1,7.843818E-2,2E0,1E0,1.605E2,5E1,9.126245E-2,2.0224566E-2,-3.1743567E-2,9.1162205E-1,8.7884754E-2,3.9368294E-2,-3.20568E-2,2E0,1.3719395E-2,3.4331996E-2,1E0,1E1,9.3E1,2.3011036E-2,1.5E1,2.4476297E-1,-3.1272657E-2,2.2429492E-2,2.0014782E-2,2E0,1.2E2,1.0123064E-1,9.20629E-2,2.0746922E0,1E0,1.1727761E-1,4E0,1.3936707E-1,1.2095057E0,2.2E2,2.0014782E-2,2.5629422E2,1.0210099E-1,4.71E2,1.5346293E0,7.2E1,7.39E2,6.571429E-1,9.206839E-2,1E0,2E0,1.1219584E0,1.0108759E0,2.2717247E-2,-7.972938E-3,7.160188E-2,-1.0482609E-2,-2.9852852E-2,-2.0149792E-2,1.2554137E-2,8.179001E-2,3.2658726E-2,-2.461235E-2,1.3598731E-1,-3.0442815E-2,-2.6088852E-2,8.6168446E-2,9.8879814E-2,-2.1263678E-2,6.1769094E-2,-1.0507279E-3,-3.0592874E-2,5.233556E-2,-9.598571E-3,-2.7995804E-2,7.078398E-2,-2.4854928E-2,1.2395543E-2,-2.189714E-2,4.021732E-3,2.6486512E-2,-2.0691441E-2,-1.2997034E-2,1.4971214E-2,-9.586705E-4,5.088524E-2,2.8258746E-2,-4.1254787E-3,2.4317916E-2,6.212526E-2,7.633858E-3,-2.0920746E-2,9.531258E-2,-2.3924362E-2,9.6984105E-3,1.0308143E-1,-9.75441E-3,4.3275718E-2,2.6222207E-2,8.5642606E-2,-2.3820624E-3,3.2771207E-2,3.7079778E-2,8.533593E-2,-1.2331717E-2,2.9954437E-2,8.1491366E-2,-3.243301E-3,2.4175143E-2,-2.1633783E-2,9.029562E-2,5.1130716E-2,7.015734E-2,1.4992689E-2,9.255912E-2,7.5207494E-2,4.590799E-3,6.1940473E-2,-2.419413E-2,7.7315858E-3],"split_indices":[278,217,11,23,194,169,110,11,14,173,278,23,138,183,131,23,14,209,183,0,0,268,194,23,214,23,138,217,21,194,267,273,0,11,273,110,184,11,230,233,278,201,194,263,0,300,188,0,0,237,138,11,278,11,261,212,25,0,0,0,71,0,278,0,165,110,278,180,196,243,0,30,273,0,278,181,38,208,0,0,194,115,278,237,240,213,210,181,231,0,174,169,16,207,275,0,23,21,127,119,0,0,0,0,0,0,0,0,0,0,0,0,0,0,0,0,0,0,0,0,0,0,0,0,0,0,0,0,0,0,0,0,0,0,0,0,0,0,0,0,0,0,0,0,0,0,0,0,0,0,0,0,0,0,0,0,0,0,0,0,0,0,0,0,0,0,0],"split_type":[0,0,0,0,0,0,0,0,0,0,0,0,0,0,0,0,0,0,0,0,0,0,0,0,0,0,0,0,0,0,0,0,0,0,0,0,0,0,0,0,0,0,0,0,0,0,0,0,0,0,0,0,0,0,0,0,0,0,0,0,0,0,0,0,0,0,0,0,0,0,0,0,0,0,0,0,0,0,0,0,0,0,0,0,0,0,0,0,0,0,0,0,0,0,0,0,0,0,0,0,0,0,0,0,0,0,0,0,0,0,0,0,0,0,0,0,0,0,0,0,0,0,0,0,0,0,0,0,0,0,0,0,0,0,0,0,0,0,0,0,0,0,0,0,0,0,0,0,0,0,0,0,0,0,0,0,0,0,0,0,0,0,0,0,0,0,0],"sum_hessian":[5.8946215E4,4.37383E4,1.5207913E4,3.6858434E4,6.8798677E3,5.25847E3,9.949442E3,2.522771E3,3.4335664E4,8.333059E2,6.0465615E3,4.269804E3,9.886661E2,